#Parameter# /W1 {20,37} 11841 ZERO_GRAD
+4.97421958e-02 +5.55943586e-02 +4.71447594e-04 -6.55776337e-02 -3.48079503e-02 +3.10454285e-03 +4.91187572e-02 -7.42242187e-02 -8.16708617e-03 -2.01455466e-02 +9.84513201e-03 +3.47064622e-02 +4.77379188e-02 -3.63495387e-02 -5.63655272e-02 +5.56246229e-02 +6.29668683e-02 -6.75564557e-02 -7.07540587e-02 +4.75848578e-02 -7.22663701e-02 -1.55916400e-02 -2.32850723e-02 -2.75739506e-02 -5.20309880e-02 +2.31359359e-02 -7.25227669e-02 +2.50525475e-02 +2.63757557e-02 +5.15110530e-02 +6.69328272e-02 -6.56790361e-02 +6.29711524e-02 +7.75413513e-02 -6.08729571e-03 +1.92516781e-02 +5.73579930e-02 +5.14362268e-02 -6.84896931e-02 -7.80827850e-02 -7.35323951e-02 +3.69922593e-02 +6.25901520e-02 -7.99154863e-03 +7.79641792e-02 -4.92544957e-02 +6.00516871e-02 +5.35776429e-02 -1.96238738e-02 +3.38285267e-02 -1.26832202e-02 +3.64512056e-02 -2.43749712e-02 -5.00544682e-02 +6.86304569e-02 -2.93788314e-03 +4.33088094e-02 -7.90625811e-02 +3.98411900e-02 -1.47785004e-02 -1.78256128e-02 -2.34153587e-02 -2.91192457e-02 -7.87258297e-02 +3.71304490e-02 -5.23362868e-02 +2.65319087e-02 -7.60459062e-03 -5.88817662e-03 +6.13194741e-02 +5.76938242e-02 -7.77187496e-02 -7.42261335e-02 +3.17259356e-02 -1.64769534e-02 +3.30935488e-03 +2.94661354e-02 +7.21525848e-02 +3.76991145e-02 +3.50138731e-02 +1.96345001e-02 -1.80840883e-02 +7.80538023e-02 +5.98258153e-02 +7.08209351e-02 -2.06995998e-02 -3.68132070e-02 -3.46964113e-02 -6.95267692e-02 +1.85429379e-02 -3.34186591e-02 -5.22771627e-02 +6.53579831e-02 -6.76193535e-02 +5.02517819e-02 -5.47615401e-02 -1.70716364e-02 -3.23111974e-02 +5.42891026e-02 +2.70837937e-02 +4.75341192e-04 +3.69529687e-02 -7.58664012e-02 -1.55765554e-02 +4.89315242e-02 +6.16404153e-02 +5.61440997e-02 -2.64286203e-03 +5.29168397e-02 +1.62437372e-02 +2.28169002e-02 +6.38470501e-02 +1.65613424e-02 +5.33506759e-02 +7.75651857e-02 -5.49322516e-02 -4.49463166e-02 +3.21886525e-03 +3.80585417e-02 -1.14618121e-02 +7.36297816e-02 +7.60783926e-02 +1.08979391e-02 +6.50555454e-03 +7.78102502e-02 -7.00097606e-02 +4.33131494e-02 +5.91042899e-02 +7.43163005e-02 +7.90213700e-04 +5.86066507e-02 +6.64396062e-02 -1.52288033e-02 +3.95476557e-02 -7.94787891e-03 -2.47999374e-02 -3.53847556e-02 +3.41063254e-02 -3.12203001e-02 -1.06473630e-02 +4.38873097e-02 -6.50578290e-02 +7.26295337e-02 -2.19270159e-02 -5.63770086e-02 -5.11646941e-02 -5.07871136e-02 -7.23160952e-02 -6.07762113e-02 +1.37938689e-02 -2.87467465e-02 +2.09141057e-03 +4.50230278e-02 +7.86269307e-02 +6.59425035e-02 -6.04745708e-02 +1.57035049e-02 +2.54951734e-02 +1.09448750e-02 -4.62907460e-03 +3.61874588e-02 -9.21016000e-03 -6.29828721e-02 +1.52770570e-02 +1.17678149e-02 +6.09824210e-02 +2.57453993e-02 -4.86999825e-02 -2.09201481e-02 +1.33706490e-02 +4.48680781e-02 -4.24823016e-02 -7.10778683e-02 +6.52380940e-03 +3.63111049e-02 +5.10953479e-02 +1.79326218e-02 +7.33447634e-03 +6.52499944e-02 +5.44065759e-02 -5.89902960e-02 -7.05155060e-02 +2.75441110e-02 -6.90669119e-02 -3.28043662e-02 +5.83205447e-02 -7.64495321e-03 -1.47261117e-02 +4.66330387e-02 +4.83818687e-02 -5.56651168e-02 +1.08358189e-02 -3.85616760e-04 +3.57417315e-02 +6.98015913e-02 -1.04528582e-02 -6.09836448e-03 +2.42329258e-02 +5.00735454e-02 +4.05904241e-02 +7.82887042e-02 +3.75803895e-02 +2.56262310e-02 -3.79356556e-02 -6.34544939e-02 -4.96205203e-02 +9.34333913e-03 +1.92958228e-02 -2.12606974e-02 +2.29940917e-02 -3.41789126e-02 +7.22431764e-02 -3.85224447e-02 +5.46090826e-02 -2.33021658e-02 -2.40966734e-02 -6.37077168e-02 +5.42653427e-02 +3.66303325e-02 -6.11953437e-02 -6.23334572e-02 -6.68815002e-02 +2.30338853e-02 +2.55094301e-02 -8.05392414e-02 -4.12126631e-02 -4.01151329e-02 +6.51935488e-03 -2.35896017e-02 -1.69716906e-02 -2.31530182e-02 -3.41509357e-02 +2.90845986e-02 -6.44817874e-02 +1.28350370e-02 +8.64410121e-03 +3.91388908e-02 -5.75578511e-02 -8.78091529e-03 -9.85654723e-03 +7.07507804e-02 +6.48203418e-02 +7.78161809e-02 +5.15898108e-04 -4.38099541e-02 +4.14433740e-02 +3.54210623e-02 +1.11781247e-02 -5.30793369e-02 +8.03269073e-02 +6.31501302e-02 +7.39195421e-02 +5.51822670e-02 +7.57459402e-02 +3.24830599e-02 +4.30137739e-02 +7.23459711e-03 -2.61005294e-02 +6.83509558e-02 +4.77775782e-02 -1.71172954e-02 +6.87756166e-02 -6.41572569e-03 +1.17464969e-02 +6.43889606e-02 -4.41657975e-02 -6.46784604e-02 -1.38414800e-02 -3.37087852e-03 +4.96975817e-02 -4.28602807e-02 -3.51996794e-02 +2.79835821e-03 +7.69761130e-02 +5.60080968e-02 +2.13032663e-02 +5.96274510e-02 +5.57528399e-02 +3.61407064e-02 -6.68333843e-02 -5.69997355e-02 +5.90721890e-02 +5.11609800e-02 +4.46897149e-02 +4.75926464e-03 +3.61234806e-02 +7.26173595e-02 -7.10484162e-02 -4.68332879e-02 -2.21094117e-03 +1.63152218e-02 -3.71425301e-02 +2.94951107e-02 +6.28793333e-03 +6.79644346e-02 -4.71359231e-02 -7.17653558e-02 +2.36172844e-02 +2.48430278e-02 +4.42560902e-03 -7.72366822e-02 -6.63154423e-02 -7.93436263e-03 -5.37828356e-03 -1.57627966e-02 +5.78589737e-02 +1.80120710e-02 +5.49401827e-02 -5.17843962e-02 -1.87754538e-02 +6.80691050e-03 +3.00082732e-02 +2.72832271e-02 +2.57656332e-02 -7.84157440e-02 -6.71738535e-02 +7.46386945e-02 +6.19434528e-02 -1.08358776e-02 -4.00278568e-02 +3.76129560e-02 +7.68625783e-03 +2.90865102e-03 +1.94173418e-02 +3.02771223e-03 +2.81335320e-02 -1.06490711e-02 +5.55812642e-02 +6.37921467e-02 +3.98130938e-02 +5.36683016e-02 +5.89772910e-02 +5.17399050e-02 +4.74633202e-02 -6.44610599e-02 +6.94155470e-02 -2.14560330e-02 -4.97577945e-03 -3.51231657e-02 -9.74988565e-03 +6.64662644e-02 -6.57806247e-02 -6.67368760e-03 +3.71460430e-02 -2.59313975e-02 +2.59033181e-02 +3.70667614e-02 +9.20928363e-03 -4.16259058e-02 -5.20259477e-02 -2.67761969e-03 -6.79766536e-02 -5.50192930e-02 +7.80651495e-02 +6.47915974e-02 +5.56169190e-02 +6.24799356e-02 +3.25055011e-02 -7.36427382e-02 +4.00340445e-02 -7.38788471e-02 +1.72922164e-02 +5.47826514e-02 +3.48934755e-02 +4.03990559e-02 +7.82526955e-02 +1.36251478e-02 +3.85271460e-02 +2.20954493e-02 -1.48509704e-02 -4.35096771e-02 +3.90101895e-02 -7.32004410e-03 +7.27573037e-02 -1.50228729e-02 +3.37250493e-02 +2.41825916e-02 -7.91727006e-02 -5.08347079e-02 -2.89565828e-02 +5.77107184e-02 -4.26280387e-02 +1.46574276e-02 -1.09034693e-02 +5.43982983e-02 -5.90640940e-02 -5.51682338e-02 -4.43765149e-02 +5.80768585e-02 -4.31970209e-02 -5.96267506e-02 +1.94507949e-02 -3.46709453e-02 -6.70132563e-02 +3.71227004e-02 +6.36236221e-02 +5.09932190e-02 +6.30054325e-02 +4.74167056e-02 +4.28158194e-02 +3.24584022e-02 -2.94342637e-02 -1.59296542e-02 -7.80372545e-02 -1.17329573e-02 -8.52399990e-02 -4.86044912e-03 -4.05182987e-02 -1.32102374e-04 -7.20324218e-02 +2.73331045e-03 -2.38455757e-02 +6.06106855e-02 -3.49489227e-02 -6.51472658e-02 -2.26772241e-02 +7.12969005e-02 -7.50366300e-02 +2.80029308e-02 +4.46551573e-03 -3.92518155e-02 -3.68680805e-02 +4.67637405e-02 -2.21187323e-02 +2.34491695e-02 +6.81226999e-02 +8.06203298e-03 +3.90674360e-02 -4.55028825e-02 +3.34689245e-02 +6.09647715e-03 +5.03577143e-02 +1.93697084e-02 -5.21511212e-02 +4.08477895e-02 -6.93333670e-02 -4.80977558e-02 -1.77513119e-02 +2.09513446e-03 -7.11786374e-02 +5.61680086e-02 -2.78501622e-02 +5.59508502e-02 -1.41338985e-02 +1.98541507e-02 +8.68331343e-02 +6.49902597e-03 -3.46029513e-02 +7.44444877e-02 -2.87365653e-02 -2.53005344e-02 +1.20515181e-02 -5.91466203e-02 -5.01574725e-02 -7.02374661e-03 +5.96504584e-02 +2.02099681e-02 -7.60233700e-02 +5.06811067e-02 +1.92872211e-02 -3.46125811e-02 +3.47606577e-02 +4.44386639e-02 +4.09795321e-04 -1.73781663e-02 -7.21670240e-02 +3.06187402e-02 +3.21673462e-03 +1.55455992e-02 +7.94458017e-02 -1.72705036e-02 +4.07910831e-02 +2.01970898e-02 -7.39730075e-02 +7.12505952e-02 -1.48206260e-02 -7.59522691e-02 +3.56080085e-02 +5.50182424e-02 -3.88134941e-02 -4.72594835e-02 +1.35244085e-02 +2.29132399e-02 +5.80134764e-02 +1.03719663e-02 +4.44177985e-02 -4.10756283e-02 -7.23265782e-02 -5.35445288e-03 +3.50215286e-02 -4.01706025e-02 -4.11730632e-02 +6.06671013e-02 -7.59437168e-03 -7.06417784e-02 -9.45219304e-03 +4.43037823e-02 +3.17418352e-02 -1.04744313e-02 +3.82095873e-02 +4.44099158e-02 -6.62087947e-02 -4.62591164e-02 +7.63528468e-03 +1.44940447e-02 -1.13436149e-03 +8.43524653e-03 +5.17665744e-02 -5.68810441e-02 -7.67050907e-02 -7.16808513e-02 +6.78595304e-02 -5.15481196e-02 +4.98744473e-03 +2.43201405e-02 +9.16120410e-03 -7.02226385e-02 +3.60110030e-02 -7.41340667e-02 +5.70301190e-02 -4.90235398e-04 -1.69576611e-02 -4.07311805e-02 -4.96847695e-03 +2.67011803e-02 +3.98956574e-02 -3.10191028e-02 -3.00148260e-02 +6.37869909e-02 +6.83974251e-02 +5.39584085e-02 +1.69933196e-02 +1.99684757e-03 -6.46044966e-03 -1.76545549e-02 -1.13932267e-02 +6.83004558e-02 +1.59814935e-02 -2.79345457e-02 +5.13097979e-02 -4.87419628e-02 -6.94802254e-02 +2.07535755e-02 +2.01282520e-02 -7.03308135e-02 -3.82427387e-02 +3.82170901e-02 -3.69921811e-02 -9.05655790e-03 -5.76447584e-02 +1.45416576e-02 +7.39510804e-02 -7.42185265e-02 +9.43778269e-03 +2.67158840e-02 -2.60892306e-02 -1.21148601e-02 +5.10897301e-02 -4.37535942e-02 -3.65968868e-02 -2.71502305e-02 +4.29328233e-02 +3.70160080e-02 +8.96471087e-03 +2.31463388e-02 +1.79804489e-02 +5.72849810e-02 -1.03405789e-02 +5.09012341e-02 -2.20174193e-02 -1.05803479e-02 +4.47115712e-02 -2.18333211e-02 -2.04624292e-02 -6.09976612e-02 -5.19345105e-02 -7.98562765e-02 +5.89163601e-02 +2.04909984e-02 -7.10333213e-02 +1.92949886e-03 +1.85279362e-02 -1.97287593e-02 -6.72735721e-02 +6.66031614e-03 +3.59609872e-02 +5.45493178e-02 +6.39336631e-02 -2.57212371e-02 -1.84535682e-02 +7.21018855e-03 -7.05530774e-03 -7.27224424e-02 +1.82875637e-02 -4.05989923e-02 +4.11399417e-02 +7.46316165e-02 +5.76344281e-02 +1.66294014e-03 -6.70578778e-02 +7.63706565e-02 +1.44876605e-02 +3.92375179e-02 +5.25944866e-02 +6.04569986e-02 -8.70321691e-03 +7.60655617e-03 +3.86794358e-02 +6.44539222e-02 -7.01268837e-02 -6.87271282e-02 -1.83905347e-03 +7.74428025e-02 +2.86094788e-02 +7.91693032e-02 -1.35007873e-02 -7.66856000e-02 -3.69552113e-02 +6.98947906e-02 +7.21665174e-02 -4.05850448e-02 +1.30724069e-02 +1.87310148e-02 -3.41099426e-02 +5.12906862e-03 -4.63472418e-02 +6.86988384e-02 -5.00641502e-02 -6.18612953e-02 -1.06891897e-02 +6.18686005e-02 -1.25213712e-02 -6.53870255e-02 -2.49867085e-02 +7.71392211e-02 +8.66029877e-03 +7.71427527e-02 +3.61761265e-02 +6.05244376e-02 -2.67856494e-02 +5.77459261e-02 +7.05283880e-02 -4.37680706e-02 +7.09412321e-02 +2.62749642e-02 -6.55062422e-02 -6.99014962e-02 +6.31972328e-02 +6.66557699e-02 +3.78990062e-02 +2.97734886e-03 +7.40692019e-02 -1.77345108e-02 -6.82559684e-02 -3.04065198e-02 -3.86372507e-02 +6.50339499e-02 +3.95408220e-04 -4.78277877e-02 -6.39820099e-02 +2.13434882e-02 +3.87971029e-02 +4.83618714e-02 -2.29815040e-02 +2.20089685e-03 +3.55943330e-02 -3.27601545e-02 +2.18358152e-02 +7.21470565e-02 +2.61594802e-02 +7.20518082e-02 +6.25798330e-02 -7.93969706e-02 -4.46096510e-02 -7.23303705e-02 +9.13483929e-03 -7.67612383e-02 -1.23245809e-02 +6.05777167e-02 -6.63709268e-03 -4.58877906e-02 -7.05996901e-02 +6.89687729e-02 +3.29223461e-02 +1.46384425e-02 -2.86844675e-03 +7.41178095e-02 -5.30725457e-02 +4.99607548e-02 +1.46323713e-02 -2.69776001e-03 -7.08545595e-02 -5.32661825e-02 +5.75331002e-02 +4.92462590e-02 -6.80581257e-02 +5.57895191e-02 +1.69739209e-03 +1.32833757e-02 -5.82386553e-02 -5.09308763e-02 -5.21076918e-02 +7.56561309e-02 +2.80837417e-02 -7.06294701e-02 -7.32302889e-02 -6.35594279e-02 +1.77784322e-03 -9.27312206e-03 +6.38689175e-02 -4.91996929e-02 +2.37730052e-02 +1.16628630e-03 -3.31304446e-02 +2.93649733e-02 +8.67757946e-03 -4.34633940e-02 -1.95456392e-04 -1.86532345e-02 -2.26471908e-02 +1.71869434e-02 +5.29746749e-02 -2.57360693e-02 -6.76472858e-02 -2.57473788e-03 +7.42547661e-02 +4.95026819e-02 -3.28098349e-02 -2.85125393e-02 +3.86448987e-02 -5.09339273e-02 -3.48610245e-02 -5.92065305e-02 -1.53597761e-02 -1.88437365e-02 +1.87979620e-02 -5.02680168e-02 -4.68663499e-02 -1.99274886e-02 -7.33925477e-02 
#Parameter# /b1 {20} 321 ZERO_GRAD
-7.31444871e-03 +2.96175852e-02 +2.88239475e-02 +9.08005238e-03 +5.67849055e-02 -1.90089419e-02 -3.05457059e-02 +8.30168203e-02 -5.69169968e-02 +4.92352806e-02 +4.44720685e-02 -8.74428079e-02 +1.12165119e-02 -1.70727056e-02 +2.49824524e-02 -1.18036959e-02 +8.28679428e-02 +8.85072276e-02 +7.37390965e-02 -8.85147154e-02 
#Parameter# /W2 {20,20} 6401 ZERO_GRAD
-6.19044937e-02 -5.73702948e-03 +7.92668089e-02 +2.47138068e-02 +1.53051969e-03 -5.18241413e-02 +5.08383363e-02 +1.11908400e-02 -1.25980899e-02 -2.26458721e-02 +4.70293090e-02 -9.76605527e-03 -6.89706430e-02 -6.77054450e-02 -5.32360338e-02 -6.55464828e-02 -9.14535522e-02 -1.25946319e-02 +3.36966403e-02 +2.32201479e-02 -2.86852452e-03 -4.44063917e-02 +1.52330368e-03 +4.19471040e-02 -8.00849795e-02 -6.31061569e-02 -8.93743709e-02 +5.23736440e-02 -5.08307256e-02 -1.32437674e-02 -2.23334730e-02 +1.39577650e-02 +1.45415682e-02 -1.00192033e-01 -8.75422135e-02 -2.17799004e-02 -8.24801475e-02 -6.12038225e-02 +9.17116851e-02 +2.06407588e-02 +6.42213598e-02 -3.38345245e-02 -7.01557472e-02 -9.02670622e-02 +8.76669884e-02 +3.02975569e-02 -7.08989650e-02 -7.48597234e-02 +7.61675313e-02 -8.37556869e-02 +8.08867142e-02 +7.59333149e-02 +5.27135469e-02 -7.99875055e-03 +7.27034956e-02 +5.22839092e-03 -6.84789941e-02 +5.89592122e-02 +1.36099933e-02 -8.80115852e-02 +5.52911218e-03 +8.30901638e-02 +7.90233761e-02 +3.30233797e-02 -6.61495095e-03 -4.60373834e-02 -8.48469138e-02 +9.50118303e-02 -4.06951085e-02 -9.09658056e-03 +3.12814489e-02 +6.31878078e-02 +3.21813859e-02 -4.68571447e-02 -3.28916386e-02 +7.83912614e-02 -5.70761301e-02 +1.44263469e-02 +1.46271233e-02 +2.98585882e-03 -9.33561400e-02 -1.57995224e-02 -8.84463862e-02 +6.36816472e-02 -4.41353060e-02 -3.19465585e-02 +6.43277392e-02 +7.56714344e-02 +4.88395803e-02 -3.86451147e-02 -6.92588985e-02 +5.20471111e-02 -7.93013573e-02 -4.53121923e-02 -9.18184817e-02 +8.03873762e-02 +6.25540838e-02 +4.91001941e-02 +5.44657148e-02 +4.44249250e-02 -8.22644755e-02 +2.02601906e-02 -2.59886235e-02 -7.66155422e-02 +3.97894979e-02 -7.90400207e-02 -9.04203206e-02 -1.02232769e-01 -9.01915506e-02 -7.96067938e-02 -5.65562584e-02 +3.27733867e-02 -4.02105562e-02 +2.57867202e-02 +5.39373932e-03 +3.85279511e-03 +2.32653059e-02 -2.82690637e-02 -6.35001063e-02 -2.66058128e-02 +7.52211958e-02 -5.05601540e-02 -6.09492697e-02 -5.09772310e-03 +8.93707015e-03 +5.69443181e-02 -2.40320917e-02 -2.26613730e-02 +9.53358691e-03 +4.23560552e-02 -6.22528829e-02 -7.74022490e-02 +1.86539497e-02 -9.01123360e-02 -1.39418319e-02 -4.11549136e-02 +1.75053217e-02 -8.72999281e-02 -7.47162253e-02 -5.17788045e-02 -3.02916411e-02 +4.52171117e-02 -6.21109977e-02 +9.29741189e-02 -7.51603171e-02 -8.22609439e-02 -8.02113265e-02 +4.00383659e-02 -3.64654441e-03 -7.04762265e-02 +4.09379378e-02 -1.79554578e-02 +2.75502540e-02 +3.78049836e-02 -1.87943373e-02 +6.72322363e-02 +2.27016304e-03 -7.74892196e-02 +1.28547568e-02 -7.70483315e-02 +7.60370865e-02 +9.46149826e-02 -3.69389914e-02 +7.74326175e-02 -4.99355122e-02 +9.29262638e-02 +3.42136621e-02 -4.55485322e-02 +6.42907433e-03 +9.20952037e-02 +4.29968955e-03 -1.27477967e-03 -2.94295587e-02 -3.10153794e-02 +1.29706627e-02 +2.24416703e-02 +3.58127505e-02 +9.13555324e-02 +5.09467237e-02 -1.36501305e-02 -2.19974723e-02 +4.54762541e-02 -9.19156149e-02 -7.58038759e-02 -1.08895497e-02 -1.17334845e-02 +3.26141901e-02 +6.57126307e-02 +7.36096427e-02 -2.96263192e-02 +2.79046912e-02 -3.68875898e-02 -6.98854625e-02 -3.15649360e-02 -1.75121576e-02 +9.16884374e-03 -9.85734630e-03 +6.11848831e-02 -3.49839963e-02 +3.95387448e-02 -5.64994551e-02 -6.35151342e-02 -9.21482779e-03 +9.30340514e-02 +5.75691387e-02 -8.33768323e-02 -7.07908347e-02 -8.38619247e-02 -2.06167027e-02 +4.42191437e-02 +7.82821327e-02 -8.38739723e-02 +6.72953352e-02 +8.05087015e-02 +8.48421827e-02 -1.11332471e-02 -1.31848287e-02 +2.77929045e-02 -1.07727461e-02 +8.27857479e-02 -7.46743530e-02 +8.89307112e-02 -1.73091069e-02 +5.12506813e-03 +7.99153075e-02 +7.86637217e-02 -3.10422704e-02 +4.22977231e-04 +7.84730352e-03 -1.94086079e-02 +7.90569782e-02 -8.61910358e-02 +5.17783463e-02 -6.69384524e-02 +2.45946590e-02 -7.51726627e-02 -5.24223708e-02 -8.43829140e-02 +4.83255461e-02 -3.11463419e-02 -4.85145859e-02 -3.71151604e-02 -2.96426620e-02 +7.46898800e-02 -9.53138247e-02 -4.70581688e-02 -2.35391036e-02 -1.31698092e-02 -6.19393736e-02 +9.35233757e-02 +9.31900740e-02 -4.38789614e-02 +8.29200074e-03 +5.16077094e-02 +3.38891707e-02 -7.40584284e-02 -2.50005629e-02 +9.35915709e-02 -3.52179036e-02 +7.75816143e-02 -4.11000922e-02 +6.05173744e-02 -1.92276333e-02 -4.93207388e-02 +4.70262617e-02 -3.77069451e-02 +6.37421831e-02 -8.86325017e-02 -8.13883692e-02 -6.56079426e-02 -4.83273454e-02 -7.02692419e-02 +2.97907321e-03 +4.98448983e-02 -1.87093802e-02 -1.92956980e-02 +1.71798505e-02 +1.23768402e-02 +5.91910332e-02 +5.10537885e-02 -3.51298563e-02 -1.67950969e-02 +8.47972557e-02 -3.34833637e-02 -9.98328254e-03 +9.22707021e-02 +7.17343688e-02 +5.91183603e-02 -5.52547947e-02 +1.71203597e-03 +4.29246128e-02 +3.61284092e-02 +6.64195195e-02 -9.33681354e-02 -1.03288190e-03 -2.23354506e-03 -6.20137528e-02 +9.36361253e-02 -3.70905399e-02 -3.64107415e-02 -9.48595330e-02 -4.81842607e-02 -6.86778277e-02 +3.38647030e-02 -3.89197879e-02 +5.46291955e-02 -7.33956993e-02 +4.62679528e-02 +5.23101888e-04 +6.76580518e-02 -1.10240486e-02 -4.38619815e-02 -2.35661790e-02 +7.37769157e-02 +5.03225194e-04 +6.26020879e-03 +6.19461350e-02 -2.48498730e-02 -2.01093797e-02 -7.67393261e-02 -1.02030067e-02 +9.10216942e-02 +2.75890417e-02 -4.14035432e-02 +4.34947424e-02 -3.67556214e-02 +7.87184760e-02 +8.92727748e-02 +3.83284837e-02 +6.47783801e-02 -3.89051549e-02 +4.19990718e-02 -1.06475744e-02 -8.57086573e-03 -6.53589293e-02 -7.62676746e-02 +1.51983071e-02 +5.10471240e-02 +2.40371805e-02 +8.02171454e-02 +8.33430141e-02 +4.13870402e-02 +8.87592584e-02 +6.46367222e-02 +3.49300867e-03 +6.12530299e-02 -2.10270332e-03 +8.60599801e-02 +9.31654871e-02 +4.35767584e-02 +9.16848406e-02 -5.57514466e-03 +1.14317266e-02 +6.61256141e-04 +8.08694363e-02 -8.18955600e-02 -3.36540788e-02 -1.75769180e-02 +3.90489586e-02 -5.79414852e-02 -5.17201982e-02 -4.59714383e-02 +6.42150864e-02 +5.96885122e-02 +3.94915268e-02 -8.99462327e-02 -5.79075851e-02 +1.21375564e-02 +5.18270284e-02 +6.68835416e-02 +2.44893637e-02 +5.17043807e-02 +6.05362235e-03 +2.00395603e-02 +7.89093971e-02 -1.52794356e-02 -8.58527645e-02 -2.09864080e-02 +6.04976714e-02 -6.37316108e-02 -1.56612955e-02 +8.57015178e-02 +6.47071823e-02 -1.01018073e-02 +3.44916470e-02 +5.63139096e-02 +4.75926995e-02 -6.60829917e-02 +8.23865086e-02 -2.16918383e-02 +2.14819144e-02 +2.31606290e-02 +1.13976011e-02 +6.57128319e-02 +3.81568335e-02 +2.53701466e-03 -2.00258046e-02 +4.18020114e-02 +3.74880736e-04 -4.88730930e-02 
#Parameter# /b2 {20} 321 ZERO_GRAD
-7.86223337e-02 +7.37736821e-02 +8.54966193e-02 -5.44863567e-02 -3.86920609e-02 -6.05532005e-02 -5.21319434e-02 +7.15485513e-02 +5.73968608e-03 +1.61064584e-02 +1.40729006e-02 -6.97329417e-02 -1.09198969e-02 +2.81944815e-02 +6.81503618e-04 +1.13282893e-02 +1.86996423e-02 +1.04440711e-02 -5.48665449e-02 +3.47953774e-02 
#Parameter# /W3 {20,20} 6401 ZERO_GRAD
-6.86646327e-02 +4.72294278e-02 -8.40069875e-02 -7.54937604e-02 -4.24393862e-02 -8.42311084e-02 -3.11436597e-03 +9.98075266e-05 -4.06989865e-02 +1.65469330e-02 +4.24835719e-02 -7.69661590e-02 +5.27966842e-02 +8.94795284e-02 +8.74945894e-02 -2.68521309e-02 +7.11585209e-02 +8.14275537e-03 -1.16906976e-02 -9.42906290e-02 -8.41345489e-02 +3.19863558e-02 -1.48227485e-02 +5.58331870e-02 -2.25316472e-02 +1.26043400e-02 +9.70733259e-03 -7.74387494e-02 -7.70574212e-02 +8.51865560e-02 -7.78826997e-02 +2.76268777e-02 +2.94061322e-02 -1.43117309e-02 -7.36277401e-02 +1.68624576e-02 -8.82307813e-02 +5.81378629e-03 -1.58542115e-02 -4.06179432e-04 -4.26577479e-02 +1.54720666e-03 +3.60454768e-02 +9.27138701e-02 -5.47941178e-02 +4.83041778e-02 -3.89083065e-02 -8.22821409e-02 +8.30036551e-02 -2.76442580e-02 -5.76362237e-02 -6.52291477e-02 +7.42381141e-02 +5.24454117e-02 -9.20130685e-02 +5.10618389e-02 +7.21434355e-02 +8.72017816e-02 +6.02084957e-02 -6.32813424e-02 +1.61514543e-02 +1.10001219e-02 +2.40251981e-02 -1.73497596e-03 +8.36437866e-02 +5.03737442e-02 -6.38652071e-02 -7.94888437e-02 +9.22316685e-02 -3.20226792e-03 -9.34883282e-02 +2.44886801e-03 +8.32417011e-02 -1.50027098e-02 -7.02537671e-02 +1.51200490e-02 +7.67951235e-02 -5.70230521e-02 -6.16309792e-02 +7.33819604e-02 -1.40658850e-02 -5.26174642e-02 -7.63350278e-02 -8.72492716e-02 -7.23447949e-02 +3.28462869e-02 +9.45390109e-03 -7.95834735e-02 -4.92909439e-02 +5.76104447e-02 -7.75164813e-02 -4.18736273e-03 +2.69202273e-02 +1.53494405e-03 -9.14645344e-02 -2.67634876e-02 +1.82071775e-02 -8.26701447e-02 +1.96157731e-02 +4.57139686e-02 +7.02905431e-02 -6.93782270e-02 -4.29622047e-02 +9.12643149e-02 +2.56401524e-02 -5.71919382e-02 +2.64046490e-02 -3.00805289e-02 -7.24520683e-02 -3.90997902e-02 +7.71574080e-02 +4.49453369e-02 -7.42798895e-02 -4.78022993e-02 +2.24781353e-02 +7.74089769e-02 -5.06361388e-03 +4.72115688e-02 -9.03589055e-02 +5.61803579e-03 +8.93475562e-02 -6.32593483e-02 +1.70582868e-02 -7.02905282e-02 -1.99151374e-02 +8.13607126e-02 +8.57334509e-02 -4.57050242e-02 +4.19594757e-02 +1.41164975e-03 +1.29897557e-02 +4.51488793e-02 +1.68872252e-02 -5.28986752e-02 +2.94855610e-02 -9.15267020e-02 +9.37632937e-03 -1.83619894e-02 +4.20558900e-02 -7.36165345e-02 +6.88143307e-03 -4.71122824e-02 +3.23476344e-02 -9.52325985e-02 +3.08779869e-02 -1.25237718e-01 -6.77295178e-02 -1.68078970e-02 +4.18272205e-02 +3.08639240e-02 +1.64600238e-02 -7.34449401e-02 +4.53634970e-02 +7.33929500e-02 +9.93845426e-03 +5.51900417e-02 +7.07003623e-02 +1.09872865e-02 +2.41449606e-02 +3.91857624e-02 -5.85017018e-02 +7.39768520e-02 -5.25116511e-02 -3.61139365e-02 -6.79730326e-02 +6.15416132e-02 -5.13663813e-02 +6.95586652e-02 +2.26887092e-02 +9.32878181e-02 +6.25898466e-02 -1.69911068e-02 +4.51715998e-02 +6.78809658e-02 +8.46678624e-04 -3.39925364e-02 -4.35286239e-02 -2.61317734e-02 +9.26212892e-02 +1.30203804e-02 -8.75140727e-02 +1.41297057e-02 +2.74736490e-02 +5.27719297e-02 -9.99508202e-02 -7.68375546e-02 +1.64674446e-02 -6.28045425e-02 -1.00078498e-04 +6.88816383e-02 +1.10898016e-03 +4.60826140e-03 -3.26844454e-02 +4.19759713e-02 +7.70454928e-02 +7.82319382e-02 -7.30192196e-03 -8.39378461e-02 +7.15076849e-02 -6.28450233e-03 -5.64566888e-02 +6.31912574e-02 +9.13227499e-02 -4.94077802e-03 +3.19022126e-02 -6.47557303e-02 -2.57008933e-02 -7.33309910e-02 +1.34922219e-02 -4.54047211e-02 -1.34180449e-02 +9.27516446e-03 +2.39869095e-02 +3.76327261e-02 -6.95336536e-02 -5.85886240e-02 -6.96651191e-02 -4.85293195e-03 +7.66902268e-02 +7.06101395e-03 -4.15226407e-02 +3.61506976e-02 -4.25999537e-02 -6.73751682e-02 +4.77198549e-02 -5.56423739e-02 -5.12957647e-02 +5.24287224e-02 -7.04778358e-02 +5.63694052e-02 -7.02387914e-02 -9.65519994e-02 +4.06130999e-02 -2.90865544e-03 -5.93654253e-03 -5.57215475e-02 +7.53128901e-02 +5.64279594e-02 -4.63176146e-02 +3.40026505e-02 +8.51196796e-03 +3.12402821e-03 -1.43102603e-02 +5.58497757e-02 +5.64868040e-02 -4.63031195e-02 -2.86103059e-02 -5.44919409e-02 +7.90228248e-02 -1.07391942e-02 +3.70527059e-02 -5.37540987e-02 +1.20497681e-02 -3.21141854e-02 -8.02291781e-02 -6.86791390e-02 -6.37282878e-02 +3.72631922e-02 +3.42171267e-02 -3.84568721e-02 +3.02347057e-02 +6.21320978e-02 -5.57503179e-02 +7.99269676e-02 -6.98939934e-02 -1.96639579e-02 +2.43751351e-02 +9.10686776e-02 -4.19212878e-02 +7.48547092e-02 +2.99578439e-02 -6.74199760e-02 -5.77179268e-02 +1.46128256e-02 +6.41380399e-02 +4.72807847e-02 +2.45630331e-02 -1.41079184e-02 +9.70516820e-03 +7.33792633e-02 -5.59655763e-02 +9.29628685e-02 +8.25861096e-02 +6.56506121e-02 -1.60011603e-03 +4.58975136e-02 -7.01890588e-02 -3.22227031e-02 -2.07988848e-03 -5.80937043e-03 +1.88380200e-02 +5.60317934e-02 -1.33131994e-02 +1.27338720e-02 -1.18054799e-03 -2.26820242e-02 +5.14220633e-02 +4.38750125e-02 -3.38209942e-02 -2.56997789e-03 -9.43695381e-02 +7.05429390e-02 -5.09115644e-02 -6.93242922e-02 +2.79321522e-02 +5.72159439e-02 -5.59723657e-03 +3.30220833e-02 +8.05987194e-02 -8.03862140e-02 -2.50761118e-02 -3.03123184e-02 +6.05015196e-02 -3.36534828e-02 -5.70154488e-02 +5.37474081e-02 -5.86204752e-02 -2.79262979e-02 +3.10334433e-02 +8.99150893e-02 +9.34227501e-05 -3.01221944e-02 +5.41860647e-02 -1.10674305e-02 -1.79510113e-04 -3.76777239e-02 -8.83585587e-02 -9.31404978e-02 -2.94961184e-02 +8.35418925e-02 +2.49763019e-02 -3.00009325e-02 -3.74759622e-02 +3.27778086e-02 +9.05555785e-02 -7.67523199e-02 +4.24031168e-03 +6.67765439e-02 +5.50942915e-03 +9.34311599e-02 +9.27482992e-02 -5.83066046e-02 +9.24679358e-03 -2.33291164e-02 -6.07620813e-02 -3.31356823e-02 -1.66183859e-02 -3.86666283e-02 -6.51787445e-02 -1.14778504e-02 +9.41902250e-02 +8.13790858e-02 -9.28346142e-02 +7.21481889e-02 -2.53071007e-03 -6.64639175e-02 -6.88699335e-02 +4.80609620e-03 +7.53219798e-02 +1.16436575e-02 -5.03358431e-02 -2.42233463e-02 -5.37985191e-02 -6.31330088e-02 +5.86230382e-02 -7.34340250e-02 +7.49624148e-02 +6.35571554e-02 +9.14122090e-02 -4.41611931e-02 -2.15905178e-02 -1.34316413e-02 +2.27742288e-02 -4.75477539e-02 +4.69140448e-02 +7.87803531e-02 -2.69237347e-02 +1.11576691e-02 -3.31073180e-02 -7.92817175e-02 +9.82294455e-02 -4.48339107e-03 +2.83554173e-03 -1.13027524e-02 +8.29833820e-02 +4.65623699e-02 +1.44739554e-03 +8.57403502e-02 +3.78900431e-02 -9.30631440e-03 -3.66524905e-02 +9.22441762e-03 -1.55693917e-02 -4.95517850e-02 -6.28100857e-02 +8.71708766e-02 -5.65420538e-02 -3.05836741e-02 +3.54474410e-02 +3.14558782e-02 
#Parameter# /b3 {20} 321 ZERO_GRAD
+5.61914332e-02 -8.24697465e-02 +2.89814677e-02 +7.64448419e-02 -6.70551732e-02 +8.04457068e-02 -1.41623383e-02 -6.39536306e-02 +1.86187588e-02 +6.06214926e-02 -5.92240021e-02 +7.51927420e-02 -8.05095732e-02 -3.84150036e-02 +7.37377629e-02 -7.99098387e-02 -7.49365985e-02 -7.80088231e-02 +2.57658008e-02 -8.07409063e-02 
#Parameter# /W4 {20,20} 6401 ZERO_GRAD
+8.84218048e-03 +1.41981933e-02 +2.38669873e-03 -5.39397560e-02 +6.54315855e-03 +6.89915440e-04 +3.44446637e-02 +9.21993852e-02 +5.35474159e-02 -5.37970960e-02 -7.25561008e-03 +9.20035541e-02 -8.03880952e-03 -8.82054567e-02 +8.39772820e-02 +1.61302928e-02 -1.07101202e-02 -2.99422182e-02 +1.56444535e-02 +2.91871466e-02 +1.75946578e-02 +2.98986468e-03 +3.77138369e-02 -6.56230673e-02 +6.32532537e-02 +3.68838906e-02 +5.36200553e-02 +5.55337034e-02 -5.51552102e-02 +8.24884772e-02 -2.67676096e-02 +1.64989904e-02 +5.00736646e-02 +4.10681926e-02 +6.11795969e-02 -2.87747420e-02 +4.00330983e-02 +9.20224041e-02 -6.64026961e-02 +6.62709922e-02 -1.30143343e-02 -4.75165993e-02 -1.00638922e-02 -8.49578306e-02 -4.58138362e-02 -8.63444880e-02 -1.29916724e-02 +3.58886048e-02 -8.11529309e-02 -2.65738163e-02 -1.31676141e-02 +1.84702370e-02 +3.35995154e-03 -8.88068601e-02 +7.17015490e-02 -8.63782912e-02 -3.45658325e-02 -7.83753395e-02 -8.26800093e-02 -3.46608274e-02 -5.34853041e-02 +2.69045401e-03 -2.13872269e-02 -5.47482297e-02 +7.78202806e-03 -2.65045241e-02 -3.83080244e-02 +8.35687593e-02 -6.19725175e-02 -9.47262496e-02 +1.03692286e-01 +4.35926057e-02 +2.99759116e-02 +5.36500616e-03 -6.95662647e-02 -4.79072891e-02 +1.93291379e-03 +7.14369044e-02 -2.92097330e-02 +2.09012087e-02 +3.36702801e-02 -8.95213932e-02 +4.81629521e-02 +7.82574341e-02 -8.43880102e-02 +4.05169055e-02 -1.35324597e-02 -8.85503925e-03 +4.39231358e-02 +2.04144493e-02 -4.31106165e-02 -7.48107384e-04 -8.74745399e-02 -9.61096864e-03 -7.21082687e-02 -7.91001841e-02 -9.44882259e-02 +2.17710668e-03 +2.54562628e-02 +8.85645114e-03 -6.49083406e-02 -5.77944005e-03 +5.77363856e-02 +4.51513641e-02 -4.79768105e-02 +8.17557052e-02 -4.50831801e-02 +1.02800196e-02 -3.04709338e-02 +8.55070278e-02 +4.22565341e-02 +6.62388429e-02 +5.28844260e-02 -9.54855084e-02 -1.09876320e-01 -2.22575199e-02 -8.30765907e-03 -9.05019268e-02 +4.23227400e-02 +5.48732318e-02 -3.96152772e-02 +6.24355376e-02 -5.21792807e-02 -2.37868540e-02 -8.80262926e-02 -6.35005534e-02 +6.02801032e-02 +1.65684391e-02 +4.11079414e-02 -9.38415527e-03 +4.31964211e-02 +1.94076158e-03 -2.10296432e-03 +4.71906140e-02 -9.10887495e-02 -2.40227561e-02 +4.16611247e-02 +7.90362284e-02 +1.10698873e-02 -4.66728695e-02 +6.75275475e-02 -9.09764990e-02 +2.57081352e-02 -9.40567032e-02 -4.30360138e-02 -1.77825801e-02 +6.79694116e-02 -5.00236005e-02 -1.55945629e-04 -3.59907821e-02 +7.92207569e-02 +1.06518045e-02 -4.88095805e-02 -2.52526458e-02 +4.55200039e-02 +7.62990937e-02 -2.06258949e-02 -9.43124816e-02 -2.99622379e-02 -1.06104918e-01 -1.88428443e-02 -5.03675118e-02 +2.94782072e-02 -5.63483797e-02 +7.45506659e-02 -4.75953929e-02 -4.02301662e-02 +4.53705527e-02 +3.82091738e-02 -5.92765771e-02 +3.32819670e-02 -8.97037089e-02 +2.24542478e-03 +9.28626806e-02 +1.37302177e-02 -2.27604378e-02 +3.68330441e-02 -8.82897228e-02 +2.64919456e-02 +4.43218555e-03 -8.92733559e-02 +7.78977247e-03 +1.55341746e-02 -8.53748247e-03 +7.35306963e-02 -1.95280127e-02 -7.10353106e-02 +7.38130957e-02 -2.93983091e-02 +3.79524603e-02 +7.57796019e-02 +4.82396968e-02 -8.57520550e-02 -3.70176136e-02 +6.94966763e-02 +7.51262158e-02 -3.51940319e-02 -5.97652234e-02 -1.21440152e-02 +1.59841888e-02 -3.32519934e-02 +2.04568878e-02 +2.81120669e-02 +1.61134005e-02 +2.48136222e-02 -6.55893162e-02 -2.97095552e-02 +5.18808253e-02 -8.97359177e-02 +3.50060314e-02 +4.13326807e-02 +1.34728430e-02 +4.97959070e-02 -8.39428231e-02 +8.70162100e-02 -4.84707169e-02 -8.45285505e-02 -9.44625214e-02 -1.07579809e-02 -2.23596245e-02 +4.07783734e-03 -2.01760745e-03 -6.91490024e-02 +1.47421714e-02 +1.47923513e-03 +8.18313584e-02 -3.45508754e-03 +3.92403454e-03 +2.66449377e-02 +2.85930820e-02 +9.98036861e-02 +4.27681692e-02 -8.24846253e-02 -1.60216223e-02 -7.13939294e-02 -5.55024147e-02 +2.84464899e-02 -2.99919676e-02 +2.43176962e-03 +7.58366734e-02 +4.67487164e-02 +8.29379186e-02 -8.15946087e-02 -5.01303039e-02 +1.57169183e-03 -3.29604521e-02 +1.48495066e-03 -1.53149925e-02 -9.73783247e-03 -9.81524866e-03 -6.18469492e-02 +2.07094662e-02 -7.49805272e-02 -4.81987372e-02 -7.97985271e-02 +4.94214818e-02 +3.34370951e-03 -1.87338628e-02 +7.12191537e-02 +5.88552579e-02 +3.67817655e-03 +2.05828752e-02 +8.71587768e-02 -3.22082788e-02 +4.31549512e-02 +5.65168373e-02 +4.49451655e-02 +1.15611088e-02 -2.78166439e-02 -6.54923096e-02 -3.74656729e-02 -4.62114774e-02 +9.34387669e-02 -9.69823673e-02 -4.25099097e-02 +5.09897470e-02 -5.50072975e-02 -9.47924182e-02 -1.70265650e-03 +7.30100274e-02 -5.67705743e-02 +3.05148941e-02 +8.61663297e-02 +2.99357921e-02 +7.15377333e-04 -2.93948725e-02 +7.14514852e-02 -3.09710745e-02 +1.11803720e-02 -4.16570343e-02 +2.42518727e-02 -4.15694304e-02 -7.94995427e-02 -8.48887116e-02 +1.04036871e-02 +3.67664471e-02 -1.92964375e-02 -7.25172786e-03 +8.95414203e-02 +1.74241811e-02 +8.27450454e-02 -4.57251146e-02 -5.99142984e-02 -7.28812739e-02 +9.46827009e-02 -8.13563541e-03 +6.39207065e-02 -5.37814908e-02 -8.70522037e-02 -4.21766900e-02 -6.02164119e-02 +4.89575453e-02 -7.64501691e-02 +5.32475896e-02 +9.55627207e-03 +7.42873102e-02 +7.22211152e-02 -6.70697466e-02 +8.62660706e-02 +4.84589866e-04 -8.84292424e-02 +3.33217233e-02 -2.33357307e-02 +7.21666664e-02 -5.52953631e-02 -1.60271544e-02 +7.04865754e-02 +6.10614009e-02 +3.58496234e-02 -2.50196476e-02 -5.88140972e-02 +1.16501031e-02 +5.03947772e-02 +5.57673275e-02 -7.56547675e-02 +1.68920010e-02 -5.30069731e-02 -4.09943648e-02 -8.24696571e-02 +1.41569832e-02 +2.57252008e-02 -3.08051445e-02 -5.30865826e-02 -7.47419670e-02 +7.01769143e-02 -7.14132413e-02 -4.97150794e-02 +2.40617841e-02 +5.57197630e-02 +7.03635961e-02 -2.47520255e-03 +8.39925557e-02 +2.55792346e-02 -9.25328881e-02 +2.12754030e-02 +1.96310645e-03 +3.02907601e-02 -5.64831384e-02 +5.23052402e-02 -1.83045380e-02 +3.64104062e-02 -9.85143185e-02 -6.97031990e-02 +3.12838033e-02 +5.11180423e-02 +4.82718833e-02 -8.87976885e-02 +1.16711278e-02 +3.81129533e-02 +7.99660310e-02 -1.53225643e-04 +4.06356789e-02 -9.53623876e-02 -7.29107298e-03 -6.09752275e-02 -8.33823457e-02 +2.83682207e-03 -7.17077404e-02 -6.57655448e-02 +2.76467148e-02 +4.06737104e-02 +2.79319249e-02 +4.10980619e-02 +3.12945619e-02 -5.20893447e-02 +8.25207531e-02 -4.47309315e-02 -4.30343933e-02 -7.46176839e-02 -2.91521586e-02 -6.26867928e-04 -1.31534785e-02 +7.53971562e-02 +1.05485190e-02 +7.70597858e-03 +7.81962946e-02 -1.04375603e-02 +2.83876192e-02 -6.91308156e-02 -1.86552145e-02 
#Parameter# /b4 {20} 321 ZERO_GRAD
+4.44975942e-02 -5.98352365e-02 +8.47368166e-02 -9.51034427e-02 -7.68209845e-02 -2.51608063e-02 -8.57001469e-02 -9.43080485e-02 +8.37014914e-02 -2.98776245e-03 +7.88417011e-02 -6.20364472e-02 -4.33953246e-03 +6.92411736e-02 +8.24077949e-02 -7.92677850e-02 -5.77126145e-02 +5.00403764e-03 +4.93773893e-02 +5.38427234e-02 
#Parameter# /W5 {20,20} 6401 ZERO_GRAD
-9.14879516e-02 +5.07320464e-02 +5.33007458e-02 -6.53996319e-02 +8.86523537e-03 -6.77078590e-02 -2.78144497e-02 -1.15427049e-02 +8.18678886e-02 -3.57774198e-02 +5.64126000e-02 +1.61494128e-02 -6.82974830e-02 -2.03887913e-02 +2.71908641e-02 +9.19407234e-02 -2.33615134e-02 +3.39362249e-02 +6.42900243e-02 +6.12090304e-02 +7.82514215e-02 +8.97016078e-02 -7.59485736e-02 -4.82507423e-02 +4.49832864e-02 -1.24131590e-02 +8.24866518e-02 -7.16430396e-02 -3.72109376e-02 -2.29762457e-02 -4.86910902e-02 +8.64452198e-02 -7.32114390e-02 -5.01826145e-02 -5.95416017e-02 +8.37429538e-02 +3.48046012e-02 +4.61537912e-02 +6.53533861e-02 +9.52019840e-02 -6.89028949e-02 -7.56587684e-02 +7.45965987e-02 -9.21554044e-02 +6.10417761e-02 -5.35287857e-02 -4.37050872e-03 +2.26909183e-02 -7.29261935e-02 +4.97221798e-02 +1.61877405e-02 -4.67795134e-02 -1.96271250e-03 -8.81656632e-03 -1.77371129e-02 +1.21955946e-02 +6.42808229e-02 -6.99011311e-02 -4.05155420e-02 +6.86103329e-02 +6.14447333e-02 -4.82724281e-03 -5.17004170e-02 -5.25774173e-02 +3.97042297e-02 +8.19738060e-02 -2.78826393e-02 +5.23182638e-02 -2.55249534e-02 +5.17686866e-02 +1.17921457e-03 +4.36830819e-02 +4.71682176e-02 +6.58053439e-03 -1.51441724e-04 -6.34158850e-02 -8.18987861e-02 -4.26206850e-02 +5.76293431e-02 +6.42338023e-02 +9.77237895e-02 -6.30013347e-02 -1.90681387e-02 +6.40674159e-02 -3.40492055e-02 +2.41930559e-02 -9.00241211e-02 +1.91878583e-02 -9.32945237e-02 +9.11991969e-02 -7.36764297e-02 -4.40175384e-02 -7.69639313e-02 +4.37612832e-02 +2.60092900e-03 -5.56087680e-02 -2.84436103e-02 +2.91561428e-02 -4.74581458e-02 -5.86359017e-02 +3.48923244e-02 -7.19744107e-03 -2.97465343e-02 +5.16572446e-02 +9.93808080e-03 +6.16847239e-02 -7.50154033e-02 +5.79112731e-02 -7.06931800e-02 -8.29245970e-02 +8.27865526e-02 -5.53341359e-02 +1.46608222e-02 +6.99418336e-02 +2.45923852e-03 +5.24331164e-03 -3.82630229e-02 +1.34038506e-02 +4.27051596e-02 +3.37372907e-02 -5.63162006e-02 -8.32680911e-02 -3.64919833e-04 -7.04459399e-02 -2.52796393e-02 -8.57923329e-02 +2.79338076e-03 +6.58890158e-02 +4.59474511e-02 +1.64196622e-02 -7.28055909e-02 -3.84990522e-03 -4.07831557e-02 +6.54714182e-02 +2.27460638e-03 +4.89719063e-02 -5.05064204e-02 +5.12786321e-02 -5.11562033e-03 +8.09423849e-02 -1.35256611e-02 +7.26384521e-02 +3.87606211e-02 +5.45697249e-02 -1.56225888e-02 -7.00972369e-03 +5.40471310e-03 -3.73829603e-02 +8.80546644e-02 -1.94915629e-05 -5.19165546e-02 +5.31929471e-02 +7.49340281e-02 -1.87144373e-02 -9.00553539e-02 +6.39721975e-02 +3.59778591e-02 -3.70400064e-02 -5.78797311e-02 -3.05767749e-02 -5.73303401e-02 -7.23119229e-02 +2.77700927e-02 -3.92427342e-03 -8.79858732e-02 +1.47771100e-02 -6.99783638e-02 +2.16993992e-03 -2.45468672e-02 -5.42270876e-02 -2.79775821e-03 -8.02139714e-02 +7.17415428e-03 +8.81937519e-02 +7.69726932e-02 +8.20341147e-03 -1.32332891e-02 +3.35655548e-02 +3.40295769e-02 +4.61795069e-02 +7.31853768e-03 -9.49077979e-02 +5.63177280e-02 +5.79860061e-04 -4.90555726e-02 +1.38265248e-02 +5.25250360e-02 +1.03418762e-02 +5.46540059e-02 +5.30536752e-03 +7.43482709e-02 -1.98311172e-02 -5.09474240e-02 -3.99048068e-02 +7.25221559e-02 -2.24050265e-02 -8.68182704e-02 -8.08976963e-02 -7.88430423e-02 +1.48256104e-02 -7.18958378e-02 +3.32030766e-02 +6.62178360e-03 +5.61045669e-02 +5.36435060e-02 -2.09997967e-02 +7.80164748e-02 -1.42246541e-02 -1.13013275e-02 +4.62266840e-02 +9.40425098e-02 +6.43544868e-02 -1.32431937e-02 -2.04822477e-02 -4.66792881e-02 -4.50584292e-02 -1.23538878e-02 -8.28463063e-02 -9.57612619e-02 -2.95300130e-02 +8.60122871e-03 -7.14462176e-02 -6.39699548e-02 -7.83405975e-02 -2.61956267e-02 +8.80657583e-02 -4.30557989e-02 -1.51394773e-02 +3.93662527e-02 -3.25549423e-04 +3.30402255e-02 +9.02306812e-04 +9.36540589e-03 -7.30946288e-02 +2.45589018e-02 -7.45837018e-02 -2.56310310e-02 -2.89566051e-02 +4.20414507e-02 -8.01646784e-02 +8.47776011e-02 -8.41254427e-04 -7.94913918e-02 +8.90125707e-02 -6.37296215e-02 -3.13635021e-02 -3.64344381e-02 -4.83914698e-03 +9.25256088e-02 -3.62951942e-02 +2.18823552e-02 +7.09568337e-02 +5.53542282e-03 -9.21836197e-02 -3.69001031e-02 +8.14623982e-02 -3.14650647e-02 +8.22810978e-02 +4.65243571e-02 -3.86701636e-02 +7.34226825e-03 +7.07510039e-02 -7.14572519e-02 -8.00310150e-02 -8.70994404e-02 -3.45845781e-02 +1.01568149e-02 +9.20724683e-03 -4.32085656e-02 -8.04843307e-02 +7.89015442e-02 -8.78606737e-03 +5.84073812e-02 +7.94222206e-02 -9.87048168e-03 +7.77755678e-02 -4.25714888e-02 -5.24627231e-02 -3.25875953e-02 +5.33813499e-02 -9.36997831e-02 +8.57680365e-02 -4.26301286e-02 -5.06593511e-02 +5.39114624e-02 -5.07837683e-02 +6.50535300e-02 +1.56725943e-02 -1.36705143e-02 -9.43994373e-02 -7.98693299e-02 -7.50187859e-02 +1.02983287e-03 +2.82767769e-02 -4.13303040e-02 -1.21679865e-02 -2.80977786e-02 -4.12899144e-02 +6.64896816e-02 +5.71951009e-02 -1.99316181e-02 -3.15374807e-02 -2.79665869e-02 -1.49172060e-02 +1.62399374e-03 -3.46660912e-02 -1.12714535e-02 +5.05200215e-02 -8.46039206e-02 +1.69692989e-02 -3.07379626e-02 -8.51484686e-02 -5.90587258e-02 +1.39051005e-02 -6.92485794e-02 -3.15818042e-02 +3.40590663e-02 +7.58045912e-03 -8.06149468e-02 +6.20526224e-02 +6.42508939e-02 -7.70627186e-02 -1.63235739e-02 +3.75010706e-02 +4.89260675e-03 +9.32473689e-02 +8.57256055e-02 +3.46828601e-03 -2.73897853e-02 +2.50951499e-02 -9.58935823e-03 -2.08083391e-02 -8.36818218e-02 -6.52740374e-02 +2.48044208e-02 -2.58290004e-02 -5.16771199e-03 +3.16594131e-02 +4.61507514e-02 +5.13189845e-02 +2.56344248e-02 +6.18520267e-02 -8.55663717e-02 +7.49366134e-02 +8.50186944e-02 -5.01543935e-03 -4.75334749e-02 +7.35582337e-02 +6.37753829e-02 -9.34988037e-02 -2.80846693e-02 +2.24885475e-02 +8.10518786e-02 +3.37363780e-02 +3.23235467e-02 -2.90782936e-03 -7.80090615e-02 +4.03346717e-02 +6.08924851e-02 +3.88511978e-02 +3.97376344e-02 -5.60741983e-02 +4.08239104e-02 -6.14469126e-02 -7.16891512e-02 -2.55598426e-02 +1.07193934e-02 -2.36308593e-02 -1.58153977e-02 -1.63848661e-02 +3.92341129e-02 -6.98336288e-02 -4.77611870e-02 -5.61660826e-02 -3.96133326e-02 -5.31390170e-03 -5.84754013e-02 -8.41790363e-02 +4.44494300e-02 +2.95213819e-03 -2.07896829e-02 -2.28328388e-02 -8.84702951e-02 +3.06072123e-02 +6.52245805e-02 +7.97641426e-02 -1.19639549e-03 -4.61177202e-03 +1.03677751e-03 +1.07899912e-01 +4.72097658e-02 +5.10164723e-02 +1.34423124e-02 -5.91920391e-02 +9.73902270e-03 +5.99420071e-02 -6.68420643e-02 -5.23478165e-02 +8.23155344e-02 -2.57800985e-02 
#Parameter# /b5 {20} 321 ZERO_GRAD
-5.69188520e-02 -1.88303702e-02 -2.87882593e-02 +4.73002531e-02 -2.66537108e-02 -5.34226038e-02 -3.50905694e-02 -3.03805862e-02 -6.08425438e-02 +5.17139956e-03 +2.21325010e-02 +6.74129948e-02 +7.31117278e-02 +1.34999687e-02 -6.31595179e-02 +2.14465447e-02 -7.15672970e-02 -5.50243668e-02 +6.58784807e-02 +3.96916717e-02 
#Parameter# /W6 {20,20} 6401 ZERO_GRAD
+8.56651515e-02 -5.18985428e-02 -2.05965806e-03 -2.60247551e-02 +2.59692650e-02 +6.34505898e-02 +1.83014479e-02 -1.74469762e-02 -7.21196756e-02 -7.96399936e-02 +1.75593216e-02 -1.92503713e-03 -8.14144593e-03 +8.53834152e-02 -4.24393779e-03 -7.15082213e-02 +1.57550424e-02 +2.99498104e-02 -2.06860881e-02 +9.01339576e-02 +4.74434383e-02 -9.28934515e-02 +7.39736483e-02 -4.47919481e-02 +1.87277030e-02 +4.43983711e-02 -6.12632185e-02 -5.00620045e-02 +3.46166566e-02 +1.98909361e-02 +8.92844349e-02 -3.18071842e-02 +2.78771874e-02 +1.88731570e-02 +5.18074185e-02 +2.13747993e-02 +4.49536704e-02 -6.25235215e-02 -3.13254520e-02 +7.39315599e-02 -3.20869870e-02 +6.29434586e-02 -3.96192893e-02 +9.16807353e-02 +6.83025420e-02 +4.30836119e-02 +4.97368397e-03 +4.64153402e-02 -6.10280149e-02 +5.76851927e-02 -7.18246773e-02 -5.94891571e-02 -9.31750312e-02 +6.05416968e-02 -5.39394170e-02 -5.47805987e-03 +2.02293359e-02 -7.32045248e-02 -5.60365506e-02 +6.35690242e-02 +9.39616188e-02 +8.72737989e-02 -8.02704096e-02 +8.39037672e-02 +5.81207164e-02 +5.68333715e-02 -1.78625509e-02 -6.47120699e-02 -5.65974340e-02 -7.94686470e-03 +1.06592868e-02 +3.71583290e-02 +1.88337471e-02 +3.91533487e-02 +7.18095899e-02 -2.28017773e-02 +7.80768171e-02 +6.29593283e-02 +5.75215369e-02 +5.28764911e-02 +4.53524739e-02 +3.07108928e-02 -4.26447317e-02 +6.78646937e-03 -9.10425261e-02 -5.53293480e-03 -2.80557871e-02 -8.87344498e-03 -7.19325468e-02 -4.86799590e-02 -5.02895266e-02 -7.59546980e-02 -2.70307865e-02 +2.08479427e-02 +1.02492580e-02 +2.91251913e-02 +6.18988127e-02 +4.47433405e-02 +9.66810286e-02 +5.56734484e-03 +7.88509697e-02 +2.59844270e-02 +5.66020012e-02 +2.07959730e-02 +3.24673653e-02 +1.20141460e-02 -3.12537067e-02 -9.73816775e-03 +8.17066282e-02 +3.05922255e-02 -8.44286680e-02 +1.04235951e-02 +1.25227403e-02 -6.23974092e-02 +3.90946902e-02 +8.30933824e-02 -6.47017881e-02 -6.85122842e-03 -8.70701224e-02 +8.44391137e-02 +2.97067706e-02 -1.57267507e-02 +6.38147723e-03 -9.36858281e-02 +1.33593399e-02 +5.85434884e-02 +5.01994938e-02 -6.96693435e-02 -3.41637135e-02 +8.18369240e-02 -5.81652746e-02 +2.58750897e-02 -1.28317792e-02 -1.77260935e-02 -8.52187499e-02 -2.24312991e-02 +9.01340693e-02 -1.58958789e-02 -3.42305712e-02 +5.19383065e-02 -8.46123323e-02 +2.92136800e-02 -7.22692311e-02 +3.01262550e-02 -7.56979138e-02 +8.63224342e-02 -8.09772462e-02 -8.94984603e-02 +2.37396033e-03 +3.12110186e-02 +4.76337224e-03 +8.34726468e-02 -8.06719884e-02 -5.93398623e-02 -2.34738458e-02 -2.25059334e-02 +7.52824396e-02 -8.04173499e-02 -6.40911087e-02 -3.02227028e-03 -7.43974373e-02 +3.95622253e-02 +5.48823588e-02 +2.73147859e-02 -9.77764651e-03 -7.12592080e-02 -4.25988920e-02 +1.21919755e-02 +1.37245459e-02 +5.59221804e-02 +6.46680072e-02 -7.47688934e-02 -7.36467764e-02 -1.72908753e-02 -3.92559692e-02 +2.98595317e-02 +6.92913681e-02 +5.26134260e-02 +2.30772477e-02 +1.80951436e-03 -8.33294913e-02 -2.34014876e-02 +3.28743979e-02 +8.99607316e-02 +1.07606780e-02 +3.02870907e-02 -5.16713709e-02 -1.08375877e-01 +3.13053019e-02 -1.85516253e-02 +5.21795191e-02 +8.56656209e-03 -7.70378709e-02 -2.20390782e-02 -1.81711260e-02 -9.03751776e-02 -2.31163995e-03 -6.99095577e-02 -5.85707873e-02 +6.79047406e-02 +1.40073560e-02 -7.60556459e-02 -2.19715908e-02 -2.24463064e-02 +4.11756337e-02 +9.61123854e-02 +6.60704076e-02 -7.25215077e-02 -8.91781300e-02 -4.58341688e-02 +4.11679633e-02 -9.57902670e-02 +8.03983063e-02 +2.19506733e-02 +7.62050077e-02 +7.70589188e-02 -7.68710487e-03 +8.75468105e-02 +9.32390094e-02 -3.98784457e-03 +8.76640901e-03 +7.64679238e-02 +4.49423566e-02 +1.37630729e-02 -1.33184846e-02 +7.72083178e-02 +3.98235545e-02 -4.18257117e-02 +5.03931148e-03 -7.40669742e-02 +8.11070800e-02 +5.00354245e-02 -5.70810586e-02 +3.45946401e-02 +3.17605585e-02 -1.47673748e-02 -2.79472657e-02 -4.69950810e-02 +4.66273874e-02 -7.49364421e-02 +2.96025481e-02 -1.06454389e-02 -2.17146277e-02 -1.26068154e-02 -4.77607846e-02 +4.76622656e-02 +3.47728208e-02 +1.13756349e-02 +7.24692270e-02 +8.54641839e-04 +8.56249686e-03 -1.58886630e-02 -4.22041751e-02 -7.08556622e-02 -3.46574970e-02 -7.83758759e-02 -1.23448931e-02 -1.90441813e-02 +8.97585377e-02 +2.01088283e-03 -1.39197698e-02 -3.38702239e-02 +9.53870341e-02 +7.74468470e-04 -2.37466451e-02 +3.46130170e-02 +8.57873634e-02 +1.89988520e-02 +2.85315309e-02 -1.10537196e-02 -8.48815665e-02 +2.78198086e-02 +2.81871390e-02 +7.99460150e-03 +8.24019487e-04 +7.70180300e-02 +6.94320649e-02 -2.79923547e-02 +3.24063934e-02 -6.43867850e-02 -1.30126728e-02 -3.61312889e-02 +6.16074204e-02 +3.90455052e-02 -1.71598755e-02 -6.56970218e-02 -2.43414566e-02 +4.40252274e-02 +8.10275599e-02 +2.90616248e-02 +6.87709451e-02 -8.92342404e-02 -8.68859664e-02 -9.03376490e-02 +2.38653477e-02 +4.67743203e-02 +1.14271939e-02 -3.30222957e-02 +3.48509848e-02 -3.49825732e-02 +5.39028384e-02 +3.53894457e-02 -4.16070111e-02 -7.70092383e-02 +1.81658808e-02 -4.79063243e-02 -1.29437810e-02 +4.21759523e-02 -2.26946026e-02 +3.24308537e-02 -9.36655793e-03 +7.23185539e-02 +1.62051935e-02 +5.91181330e-02 -6.01517446e-02 +1.93808824e-02 +9.67653003e-03 -2.38590501e-02 -8.48477110e-02 +3.79498191e-02 -5.71107902e-02 +5.53000644e-02 -7.95856938e-02 +5.32049835e-02 +8.92706811e-02 -5.95636293e-02 -6.47175312e-03 -2.75751501e-02 +4.87760678e-02 -2.86923498e-02 +8.75826180e-02 -8.08721706e-02 -5.30743077e-02 -7.29760155e-02 +1.18156541e-02 +6.45752996e-02 +2.69892048e-02 +1.49956178e-02 -3.28125581e-02 +7.11318031e-02 -1.85248163e-02 +1.21518672e-02 +7.88802877e-02 -8.36301874e-03 -2.82825623e-02 -6.57833144e-02 -7.23557845e-02 -7.21697956e-02 -5.41807413e-02 -5.49095636e-03 +5.81624024e-02 +9.20736790e-02 +2.32455339e-02 -5.69954216e-02 +1.48469759e-02 +4.36740257e-02 +4.37771566e-02 -2.44261674e-03 +3.55470330e-02 -4.08536289e-03 -2.71891225e-02 +5.26249083e-03 -1.80032812e-02 +6.16436675e-02 -1.43093690e-02 -8.11054036e-02 +3.81906815e-02 +5.53693958e-02 -5.20185865e-02 +7.28646070e-02 -9.34061711e-04 -3.61970179e-02 -3.76880392e-02 -2.21273098e-02 -4.49013896e-02 +3.70246656e-02 +9.25129093e-03 +7.02912658e-02 +1.97770577e-02 -2.65104999e-03 -5.51624335e-02 -6.53266981e-02 -6.11021109e-02 -2.56353896e-02 -4.67371456e-02 +5.01422770e-02 +3.09189763e-02 +5.85811175e-02 +8.48326012e-02 -1.27353789e-02 -2.58815493e-02 -6.72193840e-02 -4.73883189e-02 -3.20866853e-02 -9.30332020e-03 +7.69282430e-02 -1.24421231e-02 +4.49117646e-02 -4.57595438e-02 +2.64965929e-02 
#Parameter# /b6 {20} 321 ZERO_GRAD
-7.58694187e-02 -1.26543576e-02 +4.94029978e-03 -8.91332477e-02 -8.51991847e-02 +1.00066766e-01 -7.97655806e-02 +7.43794590e-02 -9.09327939e-02 +1.85893439e-02 +6.95040599e-02 +5.60637042e-02 -5.97420856e-02 -4.62336987e-02 +8.16105679e-02 +2.05944274e-02 +9.88182612e-03 +8.38736370e-02 +4.25007381e-03 +7.21990317e-02 
#Parameter# /W7 {20,20} 6401 ZERO_GRAD
+1.78325805e-03 -8.01526606e-02 -8.69036019e-02 +4.38074991e-02 -4.90984693e-02 -6.63907379e-02 +8.73467401e-02 -2.94725057e-02 -4.83486452e-04 +3.82309072e-02 +8.39487556e-03 +7.51357013e-03 -4.20329794e-02 -4.79997881e-02 +6.22901060e-02 +1.29344435e-02 +7.18270168e-02 +3.39029692e-02 +5.80172129e-02 +1.09804701e-02 +7.39368498e-02 -6.61040656e-04 +3.53661627e-02 -2.73002349e-02 -2.25256905e-02 +4.57813032e-02 -7.94380158e-02 -4.62529399e-02 -2.43151542e-02 -4.28354256e-02 +3.08676492e-02 +3.03501654e-02 +7.38667622e-02 -4.30086441e-02 +5.54849335e-04 -4.25581168e-03 +6.50467202e-02 +3.15782311e-03 -2.92666554e-02 -8.15160722e-02 -7.45607540e-02 -4.61640134e-02 -5.60233966e-02 -1.39818927e-02 +1.03129456e-02 +4.99510467e-02 -4.02409062e-02 -5.65392431e-03 +9.40128192e-02 +3.61324428e-03 -1.99246891e-02 -5.27038798e-02 -7.51634166e-02 +4.62866342e-03 +2.47921776e-02 -4.60731946e-02 +7.90242106e-02 -6.20500073e-02 +4.06422727e-02 +6.57487586e-02 -7.36251846e-02 -2.63685752e-02 -7.31487796e-02 -6.06719218e-02 -9.48444474e-03 -8.37565437e-02 -5.91261648e-02 -2.55309045e-02 -9.24789906e-02 -8.20125192e-02 +6.46427944e-02 +3.23003568e-02 -1.32015366e-02 +2.14617793e-03 -2.67202184e-02 +2.17108764e-02 -4.77993153e-02 +4.54160646e-02 -7.46636242e-02 +4.21055220e-02 +3.13298330e-02 +9.47744399e-02 +5.47282621e-02 -3.77385654e-02 -8.15306678e-02 -6.76376522e-02 +1.82469375e-02 -6.35454506e-02 -8.72220695e-02 +8.42496082e-02 -1.54579030e-02 -9.24118608e-02 -9.23924297e-02 +1.11945188e-02 -4.35573868e-02 -6.33728728e-02 -4.78800610e-02 -5.92663512e-02 -3.02001275e-02 -6.47758469e-02 -6.81553259e-02 +3.65221091e-02 -3.53489108e-02 +2.36914586e-02 +9.26249288e-03 -8.33500698e-02 +2.57403646e-02 +5.63927218e-02 -9.20338705e-02 +1.85099198e-04 -2.00307984e-02 -9.47352350e-02 -7.39248544e-02 +1.72238592e-02 +9.49927196e-02 +6.67974427e-02 -2.87084095e-03 +6.02811463e-02 -6.09820820e-02 -7.53548816e-02 +8.31399187e-02 +9.50203910e-02 -2.23954860e-02 +5.48221059e-02 +6.38325289e-02 +2.73432806e-02 -5.49858548e-02 +8.52141455e-02 +4.82760556e-03 +5.82730621e-02 +6.83812574e-02 +2.73358338e-02 +3.83593962e-02 +2.03454425e-03 +7.20902383e-02 -4.14792681e-03 +6.90467507e-02 -4.84959297e-02 -4.26492393e-02 +6.67902082e-02 +5.14612421e-02 -9.07288417e-02 -4.46968600e-02 +4.61588614e-03 -8.15537572e-02 +5.08847237e-02 -5.87016977e-02 -1.94790587e-02 +7.42924511e-02 -3.80132087e-02 -8.94895196e-02 -7.23220930e-02 -1.00073308e-01 +9.74989608e-02 -8.74126628e-02 -9.68560204e-02 -1.00528738e-02 +4.25669067e-02 +7.64863566e-02 +7.25818276e-02 -9.24595222e-02 +9.47489664e-02 +6.72117695e-02 +4.44360077e-02 +5.49668912e-03 +8.37461054e-02 -8.81457254e-02 -1.10738892e-02 -6.52723834e-02 -1.53221590e-02 +1.89013705e-02 -8.92799161e-03 +2.65656617e-02 +4.79295887e-02 -5.95548050e-03 +6.66630939e-02 -8.96306634e-02 -7.54844919e-02 -3.31103466e-02 +5.44337444e-02 +2.41118632e-02 +1.42359165e-02 +3.44257057e-02 +3.76000591e-02 -9.19404626e-02 +1.43357310e-02 -2.92755216e-02 +7.25210682e-02 +8.96666273e-02 +6.50056154e-02 -7.35405236e-02 -8.74149725e-02 +6.75374195e-02 +8.72342810e-02 -6.88004792e-02 +7.93027952e-02 -6.90151751e-02 -7.47734979e-02 -9.24106538e-02 +3.80258970e-02 -7.53206164e-02 +6.94949329e-02 +2.11568996e-02 +1.02386020e-01 +4.65324447e-02 -3.44300456e-02 +8.41191038e-02 +8.58816430e-02 -4.06679511e-02 +7.44988844e-02 -1.42568434e-02 -2.43209098e-02 +6.91684335e-02 +4.00135331e-02 +7.65352622e-02 -1.51067032e-02 +4.46464226e-04 -3.55203226e-02 +2.99352631e-02 +2.42881794e-02 +5.69718443e-02 -7.03548715e-02 +2.75018029e-02 +6.85226247e-02 +1.02712121e-03 +5.98370954e-02 -8.62539336e-02 -6.04171082e-02 -4.34385892e-03 +1.48013914e-02 -8.01139176e-02 -7.69490004e-02 -9.60777327e-02 +7.82665331e-03 -1.27884652e-02 -5.07583804e-02 +1.16678607e-02 -4.44160886e-02 +2.96433698e-02 -9.29267611e-03 +1.01657044e-02 -1.55026922e-02 -1.00353248e-02 +9.80362110e-03 +5.02910204e-02 +3.93452533e-02 -7.84671679e-02 +7.12545309e-03 -3.59642021e-02 -4.68818061e-02 +5.40707149e-02 -5.22811785e-02 +5.60126491e-02 -5.89710921e-02 +5.60516156e-02 -5.62219182e-03 -1.50829693e-02 +3.34843323e-02 -8.10387507e-02 -3.68516631e-02 +3.90586182e-02 +7.75937214e-02 +2.18172446e-02 +7.21659809e-02 +3.93068381e-02 +2.90870070e-02 +7.20545044e-03 -6.59457594e-02 +7.93515518e-02 -3.69450748e-02 -5.91325648e-02 -8.57335702e-02 +2.89737619e-02 -1.81529783e-02 +1.24604385e-02 +3.52821574e-02 -1.40041334e-03 +9.44281742e-02 +5.39626442e-02 +8.60724226e-02 +8.88211355e-02 -4.82083224e-02 -6.60519116e-03 +7.98740759e-02 -7.01885074e-02 +7.77552724e-02 -5.92978187e-02 +7.91497231e-02 +9.88683081e-04 -2.43766289e-02 +2.70856321e-02 +2.02311333e-02 +7.84355402e-02 -6.39837086e-02 +9.69865099e-02 +6.65138811e-02 -1.12550715e-02 +1.83758923e-04 -9.53088999e-02 -2.79741008e-02 -9.12162736e-02 -1.24119837e-02 +1.85617618e-02 +6.86518522e-03 -3.13254520e-02 +5.34045137e-02 -2.60914490e-02 -1.07162192e-01 -4.65090796e-02 +6.00671470e-02 +2.59095468e-02 -7.75556117e-02 -1.66895408e-02 -2.86966469e-02 -5.21887466e-02 -6.71369880e-02 -3.95479277e-02 -5.23303188e-02 -6.10338263e-02 -2.35330407e-02 -6.40801573e-03 +6.71514645e-02 -8.52093920e-02 -1.76006351e-02 -6.56170249e-02 +8.20934772e-02 +4.54039685e-02 -8.88715461e-02 +1.01373298e-02 +1.96948983e-02 +4.42105457e-02 +5.61244711e-02 +4.06813025e-02 -8.04932192e-02 +5.53243235e-02 -1.82068776e-02 +2.14975197e-02 +1.02990875e-02 +6.87752441e-02 -6.01811446e-02 -5.10563068e-02 +7.16089308e-02 +1.78800318e-02 +9.09123793e-02 -9.34692621e-02 -3.19852075e-03 +1.72029920e-02 +3.73570286e-02 -5.87182008e-02 +2.53410600e-02 +1.56119037e-02 +9.18865651e-02 +7.68884644e-02 +3.90378921e-03 +6.71664998e-02 +5.81028089e-02 +4.35726754e-02 +8.62211641e-03 -6.47279099e-02 -3.46291587e-02 -2.10606679e-02 -6.88236803e-02 +2.52692848e-02 -1.82032976e-02 +3.56778316e-02 -1.68211143e-02 -4.97322939e-02 -6.62670285e-02 +7.47705549e-02 -9.37844068e-02 -9.49170142e-02 -7.13140192e-03 -7.23022744e-02 +7.31570181e-03 -3.89921181e-02 +6.29737899e-02 +2.52870526e-02 +5.50694391e-02 +1.91531293e-02 -8.68826956e-02 +7.36707151e-02 +4.43274938e-02 -5.44958236e-03 -3.52776758e-02 -1.07422039e-01 +1.34870037e-02 +5.85951358e-02 -1.85489468e-02 +2.38984749e-02 -4.07897606e-02 -1.87495239e-02 -9.70178619e-02 -6.31945729e-02 -4.92357798e-02 -1.85944117e-03 -1.06068666e-03 -7.14813396e-02 -4.50537633e-03 +2.45015118e-02 -2.20354702e-02 
#Parameter# /b7 {20} 321 ZERO_GRAD
+1.91546138e-02 -8.54812860e-02 +3.03581497e-03 +1.01584226e-01 +3.02755162e-02 -8.01989883e-02 -8.27043280e-02 -6.25350932e-03 -9.38603953e-02 -8.45316797e-02 -6.49319664e-02 +2.13542245e-02 +5.67456931e-02 +8.01518410e-02 -1.15503231e-02 +2.36596726e-03 -2.68942416e-02 +9.62123051e-02 -1.55227277e-02 -6.35580942e-02 
#Parameter# /W8 {6,20} 1921 ZERO_GRAD
+5.32722287e-03 +5.10974042e-02 +5.69332112e-03 -8.78042430e-02 -2.10074745e-02 +6.44580498e-02 +3.49045917e-02 -3.93907875e-02 -1.09916888e-02 -7.19081312e-02 -4.82894965e-02 -9.10042599e-02 +1.09692337e-02 +3.45250182e-02 -6.36246204e-02 -5.06002791e-02 +1.37837343e-02 +4.20212820e-02 +1.13857061e-01 +7.54021406e-02 +6.17247522e-02 +7.47633278e-02 +1.24561051e-02 -9.20908153e-02 -1.00185826e-01 +6.76187575e-02 -4.29076850e-02 -5.76152839e-02 +6.08114665e-03 +8.61154571e-02 -1.53363524e-02 +1.85123179e-02 -5.04594184e-02 -5.63141517e-02 +7.47303013e-03 +1.07979864e-01 +7.42321536e-02 +6.63283542e-02 -1.10316366e-01 +8.42950940e-02 -1.06990285e-01 +1.07941017e-01 -5.42854704e-02 +5.78100048e-02 +2.70134211e-02 +7.73438141e-02 -1.32321231e-02 +3.70854251e-02 +9.23424065e-02 -9.42528900e-03 -1.05407298e-01 +3.87665234e-03 +3.24077159e-02 -1.02466434e-01 -3.95525731e-02 +8.00121650e-02 +9.38371196e-02 +1.07032470e-01 +8.57597888e-02 -4.05944744e-03 +8.81805792e-02 +1.03608467e-01 -6.68817684e-02 -7.56563097e-02 +4.79530841e-02 +1.01325609e-01 -8.25210810e-02 -6.98139593e-02 -3.59794721e-02 -9.86554176e-02 -8.41402709e-02 +8.79943892e-02 -2.68991124e-02 +6.91815913e-02 -8.63681547e-03 +1.76767781e-02 +5.53001948e-02 +1.27652790e-02 +4.18971740e-02 -2.10304894e-02 +8.63581747e-02 +7.22646437e-05 +9.11580473e-02 -7.65312463e-02 +6.02457151e-02 +1.06480932e-02 +2.91967895e-02 +1.00188591e-01 -1.25788478e-03 +2.39721220e-02 -3.21343094e-02 +4.29955423e-02 +7.72096962e-02 +2.60261651e-02 -2.67840194e-04 +8.00431147e-02 -3.52191366e-02 -9.87336338e-02 +1.06694952e-01 -3.71847637e-02 +1.69734098e-02 +1.05701230e-01 +4.28480320e-02 +3.41117661e-03 +9.27680209e-02 +8.15027505e-02 +2.88682301e-02 -8.92719701e-02 +1.75248217e-02 +2.99491873e-03 +2.15723123e-02 -7.59902000e-02 +2.75829528e-02 -3.11588179e-02 -6.08123057e-02 +8.77033994e-02 +4.67427932e-02 +9.29287523e-02 +6.43763170e-02 -1.14474438e-01 
#Parameter# /b8 {6} 97 ZERO_GRAD
-1.89402867e-02 +8.64140224e-03 -2.92512961e-02 +1.04811438e-03 -7.63912080e-03 +1.39955208e-02 
