#Parameter# /W1 {20,37} 11841 ZERO_GRAD
+2.57292449e-01 -2.95607537e-01 -9.49679315e-02 +4.62931655e-02 +4.03584121e-03 +3.87584642e-02 -1.39948681e-01 +1.85352728e-01 -1.53077751e-01 +1.26898617e-01 -6.01891391e-02 +1.86357945e-01 -7.02591389e-02 +1.37877017e-01 +6.44405112e-02 +2.52031684e-01 -1.06799804e-01 -8.27164110e-03 +1.60427481e-01 +1.36670381e-01 -3.25156182e-01 -1.24915041e-01 -3.14963341e-01 -8.91088843e-02 -1.13937274e-01 -1.00907281e-01 -1.09613545e-01 -2.75642455e-01 +6.76747188e-02 +1.51030302e-01 +1.73598692e-01 +4.72893752e-02 +2.83562154e-01 -2.17726484e-01 +3.12457420e-02 +2.35996053e-01 +4.52348739e-02 +1.97091192e-01 +2.29834542e-02 +1.03547171e-01 +3.11398238e-01 +2.86498547e-01 -1.89247683e-01 -2.44962588e-01 -2.95947015e-01 -1.56330496e-01 -3.12950127e-02 -1.18609287e-01 +2.46351853e-01 -1.55256733e-01 +2.73012489e-01 +9.29037929e-02 -4.19883654e-02 +1.93075359e-01 -1.17429294e-01 -1.31503090e-01 +4.42922488e-02 -2.79050261e-01 +1.45942777e-01 +2.09621713e-01 +2.73432314e-01 -2.15859152e-03 -1.58055916e-01 +4.69204113e-02 -3.13214242e-01 -3.10061038e-01 +3.93299945e-02 +2.41902694e-01 +2.71849155e-01 -1.67508498e-01 -4.82984260e-02 +1.09813116e-01 -2.70279884e-01 -1.13540955e-01 -3.51351574e-02 +1.64847478e-01 +3.10184985e-01 +2.62557089e-01 +2.00251773e-01 -1.36155918e-01 -1.75402656e-01 -1.13280032e-04 +2.25795597e-01 -7.35117421e-02 +7.93806091e-02 -5.79684302e-02 +1.03757381e-01 -7.02513009e-02 -2.76840597e-01 +8.57623443e-02 -2.77451426e-01 +2.97153115e-01 -2.35361338e-01 +2.94987202e-01 +1.79730624e-01 +2.51598302e-02 -2.72024363e-01 -1.98887765e-01 +1.20448209e-02 -7.28747994e-02 -1.04149960e-01 -4.63198870e-02 +1.95477605e-02 -1.17202684e-01 -2.53279824e-02 +1.81512460e-01 -7.68754035e-02 +2.58698910e-01 -3.02243650e-01 +1.18660621e-01 -1.91797853e-01 +2.22480014e-01 -7.53972754e-02 -2.02033654e-01 +9.64477956e-02 -1.82550043e-01 +3.16268802e-01 -2.78210104e-01 +2.26467922e-01 -1.67456642e-01 +2.23090380e-01 -1.33519061e-02 -8.10186192e-02 -2.51185417e-01 +8.91447440e-02 +2.97333360e-01 -1.64057121e-01 +2.57356703e-01 +5.57502694e-02 +9.15752426e-02 +1.33869216e-01 +3.11259598e-01 +1.11709125e-01 -2.18356773e-02 +2.28325069e-01 +1.10014960e-01 -2.08360311e-02 -1.31260946e-01 -1.88992396e-01 -3.11083138e-01 +1.52637332e-03 -1.11482814e-02 +2.87260741e-01 +1.38016686e-01 +9.35724750e-02 +9.80855823e-02 -2.57201605e-02 -3.15482438e-01 +1.36759490e-01 -2.88359910e-01 +6.62459806e-02 +1.45546570e-01 +2.15826869e-01 +2.38693923e-01 -1.63130909e-01 +5.53850979e-02 +2.07936689e-01 +1.81293845e-01 +2.48043433e-01 -2.56075442e-01 -1.09099336e-01 -6.49420023e-02 -2.81779349e-01 -6.28892034e-02 -2.54495353e-01 +1.63870275e-01 +2.44423389e-01 +1.32044822e-01 -1.55134022e-01 +2.30990231e-01 +3.16193670e-01 +1.69627205e-01 +7.20362142e-02 +1.04910985e-01 -1.24322260e-02 +1.33985266e-01 -3.07169557e-02 +1.68195456e-01 -1.77303612e-01 +2.83720315e-01 -3.10038924e-01 +1.99717075e-01 +1.70131639e-01 +1.73329070e-01 -2.31858082e-02 -8.31686780e-02 -2.74396032e-01 -3.15984478e-03 -4.99034971e-02 +2.44032905e-01 -1.64711773e-01 +2.68537879e-01 -1.35668933e-01 +2.18071453e-02 +2.74448752e-01 -8.96653160e-02 +1.50056696e-02 -1.28182009e-01 -4.35100123e-03 -1.14608593e-01 -6.63607791e-02 +1.70423254e-01 +1.88126236e-01 -1.97981060e-01 -1.65683687e-01 +3.06451440e-01 -1.13607362e-01 -5.59572093e-02 -2.53076583e-01 +1.40196368e-01 +2.98200905e-01 -3.02055657e-01 -8.20199847e-02 +8.54631048e-03 +3.08542818e-01 -7.16950819e-02 +1.67210158e-02 -2.00000018e-01 +1.15330026e-01 -2.52517730e-01 +8.84039775e-02 -1.70976847e-01 +1.04858726e-01 -1.27999887e-01 +1.69960186e-01 -1.31228775e-01 -6.71841353e-02 +2.45149061e-01 -2.93372929e-01 -1.58057898e-01 +9.91304666e-02 +8.86247978e-02 +5.75246140e-02 +7.73467049e-02 -1.65896371e-01 -7.99406767e-02 +3.13449442e-01 -3.73646133e-02 -6.99147433e-02 -1.68750986e-01 +1.73683688e-01 -4.94257919e-02 +1.35322183e-01 -1.79419115e-01 +6.47607669e-02 +1.87680066e-01 -2.20184281e-01 +1.26173750e-01 -3.70137431e-02 +1.65983021e-01 -1.22466832e-01 -7.75420740e-02 +2.13563427e-01 +3.00002396e-01 -1.73117712e-01 +1.41284734e-01 -3.05158764e-01 -3.01297933e-01 -2.85021305e-01 -2.13047221e-01 +5.16632125e-02 +1.66651711e-01 +2.61577785e-01 -8.48612282e-03 +1.55448526e-01 -1.03338532e-01 -2.53934801e-01 -2.93269157e-01 +3.02266508e-01 -3.10691055e-02 +1.14393197e-02 +2.62188584e-01 +3.05747300e-01 +3.02071154e-01 -1.36498630e-01 +1.05488226e-01 +9.79529768e-02 -3.19113225e-01 +2.45928094e-01 -1.35211363e-01 +9.46300700e-02 -2.31545731e-01 +2.01045215e-01 +1.82329282e-01 +1.69190645e-01 +2.28478690e-03 -5.63998111e-02 +2.57148355e-01 -1.38533831e-01 -4.29522768e-02 -1.12388851e-02 +9.65954214e-02 +1.61525428e-01 +2.86759943e-01 -9.26029384e-02 +9.44282115e-02 +3.19915980e-01 +3.86711843e-02 +4.99333069e-02 -2.15534508e-01 -2.12784372e-02 +1.58807322e-01 +2.52337358e-03 -2.16109395e-01 -7.24751428e-02 +7.89531320e-02 +1.50779396e-01 +2.64597178e-01 -7.60571510e-02 +4.17663194e-02 +2.01350152e-01 +3.23474944e-01 -2.98393428e-01 +1.08598635e-01 +3.24406549e-02 +2.65587531e-02 +2.57690966e-01 +1.55898049e-01 -1.04377255e-01 +1.48945525e-01 -2.28833944e-01 -9.77267474e-02 +3.93882059e-02 -1.70427218e-01 +1.47734553e-01 -2.21029788e-01 -1.87029079e-01 +2.04881608e-01 +3.13937306e-01 +1.89819530e-01 -2.00736225e-01 -1.69828951e-01 +1.73233300e-01 -1.53364897e-01 -2.54849702e-01 -8.06678385e-02 +3.04724842e-01 -4.22884002e-02 -1.63481459e-01 +2.48415142e-01 +2.56265044e-01 -2.72586435e-01 +1.27143815e-01 -2.01077033e-02 -3.57972160e-02 +3.15638542e-01 -2.99731642e-01 +2.95428127e-01 -2.11374059e-01 +1.99084818e-01 +1.24813453e-03 +3.22544724e-02 -1.66734755e-01 +3.17423567e-02 -7.38936737e-02 +2.25892037e-01 -1.75213143e-01 +5.86552881e-02 +1.34000499e-02 -2.49853104e-01 -2.63999850e-01 +2.78477460e-01 -1.67341791e-02 +1.85316667e-01 -1.10497691e-01 +1.41851440e-01 +1.57443911e-01 +1.05591424e-01 +1.12325475e-01 -2.15690553e-01 +4.71904762e-02 -1.97823450e-01 -8.56891870e-02 +3.03121537e-01 -4.82491925e-02 -2.27414846e-01 +1.84663326e-01 -3.23094547e-01 -2.49070302e-01 -2.16939822e-01 -2.57661939e-02 +1.06817884e-02 -5.33348918e-02 +2.79498786e-01 +1.18032582e-02 -1.08398929e-01 +4.84040976e-02 +2.02364564e-01 -1.66471407e-01 -1.28687352e-01 +2.46412978e-01 -2.45580673e-01 +2.66202450e-01 +1.80451378e-01 +2.17634574e-01 -2.47739106e-01 +2.40603372e-01 +8.61865580e-02 -8.32934380e-02 -1.51079401e-01 +2.31302708e-01 -2.06971928e-01 -2.54855603e-01 +1.28131852e-01 -1.07279174e-01 +7.78544694e-02 +2.00379357e-01 +2.72786289e-01 -3.13019574e-01 +8.51463005e-02 -2.82478705e-02 -2.15492308e-01 -3.61155085e-02 +2.59913117e-01 -3.09327006e-01 +3.58678065e-02 -1.34040445e-01 -6.77584484e-02 +1.14157736e-01 -9.73085761e-02 +1.12515576e-01 +5.85255958e-02 +2.56129116e-01 -9.58773959e-03 -1.41000256e-01 +1.18325956e-01 -2.13359341e-01 -6.76890761e-02 -1.29559875e-01 -1.94679812e-01 +2.06159160e-01 -1.66596383e-01 -1.95057780e-01 -1.36871651e-01 -1.89616680e-02 +2.90021509e-01 -3.11677098e-01 -2.23932251e-01 +9.28082168e-02 +9.44550261e-02 +5.44965900e-02 -8.20549056e-02 +2.46488094e-01 +5.88484406e-02 -1.35570645e-01 +1.38263002e-01 +1.29828498e-01 -1.50208279e-01 +1.56246349e-01 -1.00675598e-01 +7.39070252e-02 -7.61588886e-02 -1.10537559e-01 -2.21367851e-01 -2.78831035e-01 +2.23585248e-01 -2.27461770e-01 -5.54793067e-02 -1.25092775e-01 +1.48622513e-01 -4.42574024e-02 -2.28452981e-01 -1.21969081e-01 -2.69737720e-01 +2.89611310e-01 -2.57919997e-01 -5.14879264e-02 +1.18763067e-01 -2.04937965e-01 -5.37270382e-02 +1.85416609e-01 -5.45627214e-02 -8.80209636e-03 +1.72581956e-01 +3.12413841e-01 -1.18239984e-01 -1.65925607e-01 -1.99855685e-01 +8.13920051e-02 +1.08278729e-01 +3.13540578e-01 -1.05804801e-01 -1.89572468e-01 +1.57332435e-01 -3.42768766e-02 +2.25087345e-01 +8.32635462e-02 +1.18067879e-02 -2.42735192e-01 -9.83217210e-02 +1.92107946e-01 +1.72957167e-01 -1.45048484e-01 +2.64458239e-01 -2.67062366e-01 -1.77489787e-01 -4.96835932e-02 -1.49450898e-01 +1.74275249e-01 -2.02505976e-01 +1.80614218e-01 +5.12816794e-02 +1.17782392e-01 -1.78568184e-01 -1.58231944e-01 -8.99941772e-02 +8.53669718e-02 -6.18145913e-02 +1.25514895e-01 -2.08000815e-03 +1.11017875e-01 +9.71737057e-02 +2.32612938e-01 +2.52202481e-01 -1.10838050e-02 +2.55864799e-01 +2.47958228e-01 +1.62914302e-02 -4.67941202e-02 +2.73480266e-01 +1.56765178e-01 -2.81952411e-01 -3.26322913e-01 -1.72614306e-01 -2.67411117e-02 +3.12006742e-01 +2.05643121e-02 -2.27003440e-01 -1.60162926e-01 -1.59441531e-01 -1.67845890e-01 -1.15232021e-01 +1.82488963e-01 -5.82896881e-02 +1.41818151e-01 +1.33676931e-01 +2.24511325e-01 -9.21334699e-02 +5.95814176e-02 -2.94446177e-03 +5.47229052e-02 -2.66451463e-02 -3.09210777e-01 -1.71298936e-01 +2.74289817e-01 +1.62172824e-01 +1.30173877e-01 +8.81259069e-02 +4.65138555e-02 -3.16301316e-01 -5.44117726e-02 -2.97137260e-01 -3.39070916e-01 +2.62617260e-01 -3.15668076e-01 -1.46618620e-01 -5.71851321e-02 +2.02046558e-01 -7.87598267e-02 +6.22800132e-03 -1.83344081e-01 -1.69361219e-01 +6.32178858e-02 -2.00111598e-01 -2.16287866e-01 +5.62460646e-02 -2.22361282e-01 -9.71919373e-02 +5.26944064e-02 -2.59909071e-02 -2.30547369e-01 +1.15180723e-01 -2.60257453e-01 +1.71024665e-01 +2.36087382e-01 +1.58352762e-01 -1.29566029e-01 -1.99891508e-01 +3.84452380e-02 +2.25394845e-01 -1.45960674e-01 +3.21107447e-01 -2.73589611e-01 -3.12740922e-01 -1.35164842e-01 -1.95349917e-01 -2.80049354e-01 +2.60183096e-01 +2.33807147e-01 -5.21616600e-02 -2.72224788e-02 -1.27452761e-01 +2.33686030e-01 -2.68656015e-01 +2.81325161e-01 +2.01446280e-01 -2.79463958e-02 +1.12181373e-01 +2.18655646e-01 -1.07081033e-01 -4.66912165e-02 -1.19914345e-01 -2.27773875e-01 +1.23943344e-01 -2.23829225e-01 +2.94106811e-01 +1.03422627e-01 +1.88400105e-01 -1.76671937e-01 +2.10737079e-01 -4.50127646e-02 -1.89533889e-01 -6.29039407e-02 +1.06257185e-01 +2.37990305e-01 -2.87945092e-01 -1.07761092e-01 -1.32279783e-01 -9.21090990e-02 +6.81005567e-02 -8.46866071e-02 +2.73754716e-01 -5.64429760e-02 +7.32121244e-02 +3.82297337e-02 -1.92853138e-01 +1.18091285e-01 -9.83602405e-02 -2.25936659e-02 -2.57573992e-01 +2.91562021e-01 -2.15635672e-01 -1.67342439e-01 -2.72967786e-01 +2.64552623e-01 -2.18085021e-01 +1.87988393e-02 -2.79389709e-01 -2.30122358e-01 +1.18223108e-01 +3.01290362e-04 -2.92936504e-01 -1.57327652e-01 +1.73614919e-01 -4.98746634e-02 -8.67343023e-02 +3.13910216e-01 +2.39076868e-01 +2.18515888e-01 +1.12150540e-03 -4.06652922e-03 +1.26863614e-01 -2.90632546e-01 -3.39483507e-02 -1.80844530e-01 -1.54721349e-01 -2.70202190e-01 -1.96671814e-01 -3.20634782e-01 -1.83946431e-01 +2.17423569e-02 -3.43256257e-02 -2.88699508e-01 +1.90206051e-01 +2.05254212e-01 -1.57913715e-02 -1.89166386e-02 +2.98816711e-01 -1.85228005e-01 +1.04263641e-01 -2.86705047e-01 -2.31516063e-01 +1.50314018e-01 -1.31176516e-01 +2.02986866e-01 +2.07917869e-01 +1.05858862e-01 +1.19024523e-01 -4.95797060e-02 +3.23543459e-01 -2.42526442e-01 -2.86745995e-01 -1.61328092e-01 +1.03487737e-01 +3.12965989e-01 -2.49778689e-03 +2.05318332e-01 +2.95527935e-01 -1.08577825e-01 +2.81413615e-01 +1.98972121e-01 +2.79231697e-01 -3.67803052e-02 -2.24929333e-01 +1.37185320e-01 -1.64844334e-01 +1.89031497e-01 -1.86373815e-01 +1.96411461e-01 +1.38378348e-02 +1.32923592e-02 +1.08967215e-01 -1.70834959e-01 -2.15629771e-01 -2.67708272e-01 +1.45234346e-01 +2.56275356e-01 +1.22298062e-01 -2.08909586e-01 +3.12321663e-01 +1.65288448e-01 -1.38427526e-01 +1.26489624e-01 +2.16652364e-01 -9.97531563e-02 -3.10400903e-01 -2.23237462e-03 -9.10291374e-02 -3.02004516e-01 -2.76555061e-01 -4.16016430e-02 -2.33161032e-01 -4.84618433e-02 -1.08295716e-01 -1.05077233e-02 -1.33403599e-01 -1.46606565e-01 -4.09072600e-02 -2.71563586e-02 -2.43498117e-01 -6.17912598e-02 -1.13070115e-01 -6.16527237e-02 -3.06255519e-01 -2.68411398e-01 -1.27410203e-01 -1.93323016e-01 -1.03793927e-01 -3.09834838e-01 -9.07045156e-02 
#Parameter# /b1 {20} 321 ZERO_GRAD
+6.26097769e-02 -3.68908644e-01 +3.04844886e-01 -1.64319113e-01 +6.45150170e-02 -3.46053123e-01 +1.24679044e-01 -3.67183924e-01 +2.56781906e-01 -2.65745670e-01 -2.94473529e-01 -3.61212432e-01 +3.19117457e-02 +4.25157091e-03 -3.03834528e-01 +9.16045997e-03 -2.75749207e-01 -7.12053478e-02 +1.83216184e-01 -2.12126359e-01 
#Parameter# /W2 {20,20} 6401 ZERO_GRAD
-2.57949531e-01 -8.63651261e-02 +3.49158019e-01 +6.21996112e-02 +8.15566406e-02 -8.41069268e-04 +3.99593294e-01 -2.82125533e-01 -3.48699361e-01 -1.46028265e-01 +4.95500863e-02 -1.30366310e-01 +1.01423441e-02 +1.48265153e-01 +6.06219098e-02 +1.17640369e-01 +3.28129649e-01 +1.72851477e-02 -7.22490922e-02 -2.66021788e-01 +1.97200865e-01 +3.04615557e-01 +1.48662612e-01 +3.28155220e-01 +3.53338182e-01 +3.62109005e-01 -1.04325607e-01 +2.37473696e-01 -1.69252291e-01 -3.05475026e-01 -1.28555626e-01 +2.43240714e-01 +2.88179874e-01 -2.47445062e-01 -1.27583385e-01 -2.78960437e-01 -3.68255675e-01 +7.77527736e-03 -3.30223501e-01 -2.81166792e-01 +1.93034753e-01 +2.78117448e-01 +3.28629054e-02 +3.33686173e-01 -3.52282017e-01 +3.57489347e-01 +1.24796703e-02 +2.45106682e-01 +1.50762022e-01 +7.23789558e-02 -1.47907674e-01 +2.82496989e-01 +1.10811658e-01 +3.58534038e-01 +3.43217142e-02 +5.02630742e-03 -1.14902988e-01 +2.31184125e-01 -1.11867137e-01 -2.81781882e-01 +7.66857192e-02 -9.06975195e-02 -3.51283737e-02 +1.07071847e-01 +2.61168182e-01 +2.38046139e-01 -3.83242548e-01 +1.92028686e-01 +2.68337280e-01 -1.98275268e-01 -3.14608723e-01 +2.71115124e-01 -3.34955335e-01 +1.24320045e-01 -1.83462560e-01 -2.66246255e-02 +2.77507901e-01 -3.14313352e-01 -1.95514902e-01 +2.93375105e-01 -3.00615351e-03 -2.13918924e-01 +2.21971482e-01 -1.56948797e-03 -2.58094043e-01 -9.44478363e-02 -2.90578693e-01 -1.71644911e-01 -1.30544975e-01 -2.71318138e-01 +3.74337316e-01 +7.23182634e-02 +2.37688839e-01 +2.86353767e-01 -3.63595217e-01 +8.66216496e-02 -3.84362847e-01 +2.87974685e-01 +3.23031425e-01 +7.87918828e-03 -3.15340787e-01 +1.35936812e-01 -8.22566673e-02 +1.89093694e-01 -3.43661129e-01 +1.85109764e-01 +2.83227682e-01 -3.41350913e-01 -1.95216343e-01 +3.42152119e-01 +6.77155256e-02 -2.83245414e-01 +2.04757109e-01 +9.95442644e-02 -4.83813137e-03 -1.78830966e-01 +1.14560165e-01 +5.95931746e-02 -5.57377413e-02 -1.88651115e-01 -2.22617418e-01 +2.30009839e-01 +1.61567912e-01 +1.73137896e-02 -1.02193438e-01 +2.31426701e-01 -2.22208276e-01 -1.53161630e-01 +3.42276752e-01 +4.59920652e-02 +3.49142820e-01 +3.76991630e-01 +3.77194911e-01 -1.77553177e-01 -1.68279409e-01 -2.86530823e-01 -2.45425418e-01 -1.45311967e-01 +1.25530109e-01 -6.59273043e-02 +2.47226745e-01 +2.55808979e-01 +1.11995719e-01 -3.64462912e-01 +3.81683290e-01 -4.57343236e-02 -9.79087576e-02 -8.86578113e-03 -2.83302486e-01 +2.74973482e-01 +1.09331300e-02 -2.91166067e-01 -2.89225698e-01 +3.39186221e-01 -6.79026097e-02 +1.78502008e-01 +3.63967717e-01 -2.28742972e-01 -3.08140725e-01 +8.00365582e-02 +2.27638260e-02 -4.52283174e-02 -3.05490196e-01 -4.18019816e-02 -3.10549259e-01 +8.44158530e-02 -1.00464784e-01 -2.44570673e-01 +2.59118378e-01 +3.25759724e-02 +3.98229584e-02 +1.47509396e-01 -3.71445090e-01 -9.97518599e-02 +2.40253448e-01 +1.43626750e-01 -1.42595530e-01 +2.56171197e-01 +3.17518145e-01 +3.56143564e-02 +1.76199943e-01 -4.70291004e-02 +2.12360770e-01 +2.66417384e-01 +2.25316230e-02 -1.09497786e-01 -3.60904127e-01 -2.50240028e-01 -6.06408305e-02 -3.33914727e-01 -1.67032238e-03 +8.26414824e-02 +8.99311453e-02 +8.53287354e-02 -1.53359532e-01 +9.46537405e-02 +1.16750956e-01 -2.01309532e-01 -5.26063368e-02 +3.42245251e-02 -1.47799388e-01 -2.99092591e-01 -2.48330101e-01 +1.47099689e-01 -7.51308650e-02 +3.15098524e-01 -3.64558041e-01 +2.00832635e-01 +1.28385574e-01 +2.57208109e-01 +3.40764634e-02 +3.85395020e-01 +1.96165130e-01 +2.60314167e-01 -3.14714581e-01 -3.74259621e-01 +3.45826358e-01 +1.87488079e-01 -1.53595805e-01 +5.81470840e-02 +1.34335056e-01 +1.85547873e-01 -1.29742384e-01 -1.07586384e-02 -3.41558605e-01 +3.41264665e-01 +3.73166561e-01 +1.76451996e-01 +2.05441147e-01 +1.94787890e-01 +1.61953703e-01 -2.23868564e-01 -3.71589810e-01 +5.85912354e-02 -3.77014816e-01 +9.14793387e-02 +1.84999019e-01 -1.76871449e-01 -2.97245234e-01 +9.53395069e-02 +4.73367721e-02 -1.83106661e-02 -1.63948298e-01 -2.00856850e-01 +4.38262969e-02 +9.78249460e-02 -5.94295599e-02 -3.70255381e-01 +1.46314293e-01 -2.70048857e-01 -1.84810326e-01 +2.16360986e-01 -1.91855341e-01 +3.17987770e-01 -3.62237692e-01 -2.63532937e-01 +3.68311442e-02 +1.99136585e-02 -3.55965495e-01 +2.03398056e-02 +3.26097533e-02 +2.56439209e-01 +3.50439578e-01 +1.35104433e-01 -2.14641333e-01 -2.38834277e-01 +9.37526822e-02 -3.71430367e-01 +9.76887941e-02 -2.25125000e-01 +2.54075110e-01 +2.16352455e-02 -2.57135510e-01 -1.54165953e-01 +6.03873581e-02 -5.39325438e-02 +1.09078987e-02 -1.87426925e-01 -3.29437673e-01 -4.25486900e-02 +1.67508468e-01 +3.22555244e-01 -3.40828806e-01 +3.57885182e-01 -5.93139417e-02 -7.47773722e-02 -2.33153835e-01 +2.14156583e-02 +1.52537256e-01 -3.39399159e-01 +1.06964573e-01 -1.12271354e-01 +1.97005048e-01 -1.00681819e-01 -1.09187596e-01 +1.41373128e-01 +2.70893991e-01 +2.16211274e-01 +1.97877526e-01 -1.88223973e-01 +7.16882199e-02 +3.30428541e-01 +2.63370961e-01 -2.17423625e-02 +5.94581070e-04 +1.12301163e-01 -7.67056132e-03 -1.27499804e-01 +3.59364539e-01 +2.03883156e-01 +1.49275243e-01 -8.45330954e-02 -2.50318944e-01 -8.13865960e-02 +1.75611719e-01 -7.22528920e-02 +2.20884532e-01 +1.74423441e-01 +2.71638483e-01 -2.38749549e-01 +7.03712255e-02 +1.43887475e-01 +2.88545072e-01 -1.09682716e-02 +1.42295092e-01 -2.23042563e-01 +2.32808486e-01 -9.32819471e-02 -3.65501851e-01 +3.10784161e-01 +3.12938064e-01 +7.24635869e-02 +1.53928250e-01 +2.12004945e-01 +2.37674475e-01 -1.18509896e-01 +6.86403289e-02 +3.66624594e-01 -2.51520365e-01 +5.76271825e-02 +3.29306036e-01 +9.89005417e-02 +3.37110221e-01 -1.42073601e-01 +2.94379473e-01 -2.99804628e-01 +8.42689201e-02 +3.22990835e-01 -2.26648599e-01 +3.59177142e-01 +3.53169441e-02 -1.18449524e-01 -3.63610566e-01 -6.22780211e-02 +2.11766943e-01 +1.15995303e-01 +7.51491114e-02 -7.86191747e-02 +2.87452400e-01 +3.69829722e-02 -1.67014942e-01 +8.83767083e-02 +3.74890774e-01 +2.75462829e-02 +1.51929349e-01 +2.20951408e-01 +2.15746433e-01 +1.96418926e-01 -1.09597281e-01 +2.70788133e-01 +3.13950390e-01 +1.67646527e-01 -2.70487905e-01 +3.77218574e-01 -3.24767172e-01 +4.74113375e-02 -2.12140247e-01 -3.11773956e-01 +3.14085074e-02 +2.35853180e-01 +2.49862254e-01 +1.36044085e-01 -3.83623689e-01 -2.20170379e-01 +1.97613716e-01 -2.26431236e-01 -1.49599805e-01 -2.15931728e-01 -3.17692339e-01 -1.61117375e-01 -3.13562065e-01 +3.50345433e-01 +1.02416091e-02 +3.25808406e-01 -9.71801281e-02 +2.41528422e-01 +2.69978583e-01 +1.94036111e-01 -1.42525304e-02 +3.05505008e-01 
#Parameter# /b2 {20} 321 ZERO_GRAD
+9.38191339e-02 -1.80473328e-01 -4.35698815e-02 +2.19757050e-01 -1.25257522e-01 +1.50632171e-04 +3.69794667e-01 +3.43726754e-01 +3.54998261e-02 +1.80930775e-02 +1.95242632e-02 +4.27280478e-02 -6.56067431e-02 +2.42186442e-01 +2.53556371e-01 +3.67879689e-01 +3.33944440e-01 -3.01304340e-01 +1.24699585e-01 -6.09796159e-02 
#Parameter# /W3 {20,20} 6401 ZERO_GRAD
-1.14234164e-01 +3.19540948e-01 -2.60306418e-01 +1.83468372e-01 -2.55333066e-01 +1.92942359e-02 +1.95619822e-01 -7.66897500e-02 -1.33097619e-01 -2.21542150e-01 -3.52389365e-03 -3.35353374e-01 +7.99813122e-02 -3.10635388e-01 -2.78715312e-01 +1.00483149e-01 +2.72813380e-01 -1.34814516e-01 -1.73711121e-01 +2.18001738e-01 -1.66044995e-01 -9.03098378e-03 -3.94313224e-02 +3.24758857e-01 +1.00584691e-02 +1.56129852e-01 +2.61076540e-01 +1.40944451e-01 -1.27053738e-01 +1.70538515e-01 +1.86075121e-01 +3.46482605e-01 -3.08782578e-01 -1.38056338e-01 -2.16184303e-01 +1.44002318e-01 -1.56043142e-01 -4.84269075e-02 +2.72568405e-01 +2.42496982e-01 -2.71642983e-01 -2.47195542e-01 -1.58287302e-01 +5.09074815e-02 +2.57816285e-01 +3.30458522e-01 +1.03331260e-01 -3.76049042e-01 -2.76724845e-01 +1.53067997e-02 -2.84758866e-01 -2.66288310e-01 +1.67779371e-01 +1.53644398e-01 +1.15176149e-01 +2.77082682e-01 +1.33937657e-01 -1.37995467e-01 +2.54959375e-01 -2.86652297e-01 -8.31812620e-02 +3.70930672e-01 +5.35442494e-02 -2.15091392e-01 -2.58065552e-01 +1.64944962e-01 +2.70110548e-01 +2.48020634e-01 +2.41239488e-01 +2.96201140e-01 -8.41502100e-02 +1.81331545e-01 -1.24295754e-02 +7.58068264e-02 +5.79174720e-02 +1.38246268e-01 +1.81177944e-01 -2.47446150e-01 +3.13465148e-01 -1.84262633e-01 +1.75217167e-01 +2.64542133e-01 +3.37585479e-01 +1.90381020e-01 -2.21081138e-01 +3.68329108e-01 -9.96832922e-02 -3.99103062e-03 +1.97738796e-01 -6.94550620e-03 +1.28547147e-01 +1.73887312e-01 +1.80208057e-01 -1.73737302e-01 +2.85822988e-01 -2.77339786e-01 +1.92700941e-02 -2.59295374e-01 +2.82046534e-02 +2.55358040e-01 -3.34334403e-01 -2.16791689e-01 +1.29618393e-02 +5.54216653e-02 +2.23546118e-01 -1.12386100e-01 -7.16393143e-02 +1.00412659e-01 +2.06551105e-01 -2.67251223e-01 +1.37232929e-01 -3.67765516e-01 +1.70481533e-01 +2.73410678e-01 -1.33697435e-01 -1.74410671e-01 +2.61738449e-01 +2.79289931e-01 +1.41273394e-01 -7.16300979e-02 +2.52752721e-01 -4.91709597e-02 -1.42605856e-01 -3.01637918e-01 +2.03170091e-01 +2.22570002e-01 -3.70680928e-01 +3.75295162e-01 -1.93527222e-01 +3.63126919e-02 -2.67420784e-02 +5.15223062e-03 -3.20826501e-01 -3.72716278e-01 +1.33820280e-01 +3.46589804e-01 -2.62641460e-01 -1.78309679e-01 -3.74846250e-01 -3.39568049e-01 -1.27908617e-01 +1.68355465e-01 -9.87393558e-02 +2.04864498e-02 +2.55513817e-01 -2.77080446e-01 -2.56296694e-01 +5.71475774e-02 -2.65746683e-01 -5.07024862e-02 +3.38631243e-01 +2.72633702e-01 +3.22729200e-01 -3.87732089e-02 -3.58454823e-01 +2.53284633e-01 -2.68034667e-01 -8.40361714e-02 -2.80587435e-01 +2.88751990e-01 +1.21075856e-02 +1.01624571e-01 +2.76923273e-02 -2.00752169e-01 +5.29357642e-02 -3.16980690e-01 +5.28641604e-02 +1.48841321e-01 +2.27033660e-01 +2.58366406e-01 -1.74642518e-01 -2.51649469e-02 +2.20408514e-01 -4.64178734e-02 +1.86067987e-02 -2.27008983e-01 -1.60111263e-01 -3.44359130e-02 +1.24987908e-01 -2.89635807e-01 -8.86186883e-02 +1.56490460e-01 -2.94671625e-01 +7.59824961e-02 +1.35177895e-01 -3.83499891e-01 -3.42477590e-01 +9.92260780e-03 +3.02380651e-01 -4.96233478e-02 +2.79854625e-01 -6.06343225e-02 +3.48071128e-01 -2.93452561e-01 +1.68579087e-01 -2.97469854e-01 +6.26238734e-02 -2.48027995e-01 +1.21486876e-02 +2.73191750e-01 -2.88402706e-01 -6.37278706e-02 -1.73279215e-02 -3.38589042e-01 +3.35206389e-01 -1.01242073e-01 -1.33262187e-01 -2.39835218e-01 +1.90049395e-01 -3.31268579e-01 -2.91885994e-02 -1.13997713e-01 -1.41949072e-01 +3.00028980e-01 +6.75759986e-02 -2.80266702e-01 -1.94846675e-01 -1.46016270e-01 -2.19066098e-01 +1.61434337e-01 +9.43387114e-03 +1.68147504e-01 +2.42082447e-01 -1.40646264e-01 +1.37361184e-01 -3.19759995e-01 -3.39449286e-01 +2.62841936e-02 -9.29601192e-02 -1.13108205e-02 -1.26307413e-01 +1.64545938e-01 -3.46645325e-01 -3.68659794e-01 -8.77295211e-02 +4.34088595e-02 -1.61728859e-01 -1.35462478e-01 -4.10287857e-01 -9.02026147e-02 +1.11289881e-02 +1.58809908e-02 -3.47503483e-01 -1.96100459e-01 +4.20190580e-03 -3.22141916e-01 -2.12793216e-01 -1.71248063e-01 -1.50098056e-01 -3.73247027e-01 -3.79084162e-02 -4.47199820e-03 -3.35434563e-02 +2.18626693e-01 +6.27785102e-02 +3.40949781e-02 -1.24433890e-01 +2.51475990e-01 +3.63754213e-01 +1.71734076e-02 -9.53639895e-02 -1.69542804e-01 -3.50363374e-01 -8.79972428e-02 -2.18291044e-01 +1.95333753e-02 +1.17388211e-01 +4.06779110e-01 -2.49962717e-01 -4.20879751e-01 +1.52095109e-01 +1.34099364e-01 +4.09655795e-02 -7.87300766e-02 -1.35110784e-02 -3.83360356e-01 +5.34307305e-03 -3.48728836e-01 +2.50938565e-01 +2.34872386e-01 +1.88358173e-01 -3.21784258e-01 +6.53033778e-02 +3.56351495e-01 +1.95194498e-01 -6.85219616e-02 -6.19028546e-02 +1.13727041e-01 -2.46503532e-01 -2.66690999e-01 -2.40543574e-01 +2.22396955e-01 +1.15710191e-01 -1.15722187e-01 -1.20251469e-01 -2.53916413e-01 +1.05974220e-01 -2.38945559e-01 +2.03121647e-01 +2.62995243e-01 +8.36840421e-02 +6.29826412e-02 -3.84899855e-01 -1.93687826e-01 +2.52386242e-01 -3.69670451e-01 +1.40452787e-01 +2.12856948e-01 -1.18902639e-01 +1.88033897e-02 -3.33771594e-02 +8.99263695e-02 -6.62128627e-03 +1.17671162e-01 +4.10631634e-02 +5.47307217e-03 +1.57700792e-01 -1.66408002e-01 -2.58136690e-01 +3.77756625e-01 -1.13261066e-01 +3.73431563e-01 -1.83106959e-01 -2.21250311e-01 +1.40970051e-01 +3.17062795e-01 -2.75761008e-01 +3.25887442e-01 +3.19563854e-03 +3.10555637e-01 -1.53362527e-01 +1.72413006e-01 -1.33726656e-01 -1.56620458e-01 +2.01391846e-01 +1.07524330e-02 -1.67534336e-01 +1.71178222e-01 -2.61532128e-01 -2.28453297e-02 +2.71043926e-01 -6.84246793e-03 -1.58392176e-01 +4.90350761e-02 -1.19938694e-01 +2.39607975e-01 -1.96761191e-01 -3.41020167e-01 -7.67919719e-02 +2.80736208e-01 +8.47246349e-02 +1.28312290e-01 -1.98700517e-01 -5.89241982e-02 -7.47227073e-02 +2.29589511e-02 +3.57289940e-01 -1.60848007e-01 -2.41555750e-01 -3.16599727e-01 +3.70394081e-01 +3.10410440e-01 -3.50367755e-01 -8.48561004e-02 +3.04515176e-02 -6.19181208e-02 -9.41368714e-02 -1.95946440e-01 +3.16809639e-02 -3.20677251e-01 +3.18900049e-01 -2.80330002e-01 +9.71977785e-02 +3.67075175e-01 -3.19800586e-01 -4.92753983e-02 +1.34741813e-01 -7.86261410e-02 +3.69501933e-02 +2.02539414e-01 +3.77705693e-02 +2.55627275e-01 +1.09447911e-01 +1.34129450e-01 -1.17347293e-01 -3.65771472e-01 +3.21238816e-01 -3.59167188e-01 +3.27255666e-01 +1.40946629e-02 -1.42158106e-01 +3.96737814e-01 +1.08868413e-01 +3.70957673e-01 -2.28101820e-01 -4.97300141e-02 -1.02686368e-01 -1.85795873e-01 -7.86254066e-04 -2.68113464e-01 
#Parameter# /b3 {20} 321 ZERO_GRAD
-3.63033921e-01 -2.39306837e-01 -2.84040272e-01 -1.33256894e-03 +1.10041514e-01 +5.53023703e-02 +4.96141613e-02 -2.43123204e-01 +1.52308509e-01 +1.88623145e-01 +8.55084881e-02 +1.64725557e-01 +6.32259920e-02 +3.04101586e-01 +1.81342557e-01 +1.80339858e-01 -1.68637544e-01 -3.07149202e-01 -4.82543185e-02 -3.90654281e-02 
#Parameter# /W4 {20,20} 6401 ZERO_GRAD
-3.04740906e-01 +3.24881285e-01 +2.98233777e-01 +3.04565340e-01 -2.84578413e-01 +5.77718057e-02 +1.44385949e-01 +1.92244530e-01 -1.08557165e-01 +2.70526528e-01 +5.62946796e-02 -3.72823089e-01 -2.87180003e-02 +2.47993097e-02 -6.62899856e-03 +6.52292743e-02 +2.33481869e-01 +3.21175247e-01 +8.29224195e-03 -3.38040479e-02 -2.17325136e-01 +2.39430681e-01 -3.00711185e-01 +2.76714623e-01 +1.75889149e-01 +2.83554137e-01 -1.57142550e-01 -4.56644058e-01 +4.04444247e-01 -3.02850455e-01 +1.92987770e-01 +2.83229947e-01 -3.93581577e-02 +4.12231870e-02 +2.06214786e-01 +2.36785904e-01 +3.88004094e-01 -3.93821359e-01 -1.23857021e-01 -2.59519488e-01 -3.86692911e-01 +2.62248427e-01 +3.61237049e-01 +1.91834629e-01 -7.33072460e-02 +3.63070667e-01 +3.06105822e-01 +1.06716461e-01 -1.16360337e-01 -3.06682646e-01 +1.18923478e-01 -1.43541977e-01 +1.52475938e-01 -5.41707464e-02 -3.22934985e-01 -3.49102139e-01 -3.06684315e-01 -4.21122722e-02 -3.07716310e-01 -1.44128516e-01 -2.27882743e-01 -1.45005912e-01 +2.07663298e-01 -8.06505382e-02 -3.09269160e-01 +1.37460167e-02 -2.32731089e-01 -1.96179062e-01 -5.52533045e-02 -3.27207327e-01 -3.99874552e-04 +2.20549777e-01 -3.45168412e-01 +1.50048941e-01 -2.98948765e-01 -1.78764611e-01 +1.54956266e-01 -3.32691550e-01 -9.65733305e-02 +3.13336968e-01 -3.06571454e-01 -9.88486782e-02 +1.95819005e-01 -1.80594698e-01 +2.28931919e-01 -5.54020256e-02 -3.56125027e-01 +2.95084268e-01 -2.54428238e-01 -2.85402089e-01 +2.82799780e-01 +6.53826818e-02 +3.43671918e-01 +1.57982260e-02 -1.51744291e-01 -5.53548932e-02 -3.56579959e-01 -3.58699232e-01 -9.76222083e-02 +1.12742357e-01 -2.87774863e-04 -2.89708048e-01 +2.42614269e-01 +1.65287077e-01 -3.32683682e-01 -9.65359136e-02 +1.83935076e-01 -3.66739839e-01 -5.38596064e-02 -2.28199847e-02 +1.12195410e-01 -3.29466313e-01 -3.90832543e-01 -7.44717494e-02 +3.93426158e-02 -2.22751766e-01 -2.88907569e-02 -3.06082815e-01 -7.47295376e-03 +1.68394357e-01 -9.55352336e-02 +3.69384259e-01 -6.68652281e-02 +1.95744291e-01 +2.25200877e-01 +3.58727723e-01 -2.39969976e-02 +5.40800206e-02 +2.81720489e-01 -5.98101271e-03 +2.30648398e-01 -2.56747808e-02 +1.16791084e-01 +1.60026923e-02 -1.49562642e-01 +3.29101443e-01 +2.18158420e-02 +2.04468086e-01 -2.94527739e-01 +7.80945644e-02 -2.03009188e-01 -1.77894428e-01 +7.97210541e-03 +4.00001444e-02 +2.25788653e-01 -1.54333904e-01 -1.69548973e-01 -1.38087094e-01 -2.80876398e-01 -7.84173757e-02 +2.39430606e-01 +3.37473691e-01 +2.89940357e-01 -2.89973021e-01 -1.04222946e-01 +7.97807202e-02 +3.41910094e-01 -3.41291040e-01 -3.36895943e-01 +2.27022976e-01 -3.56463462e-01 -1.90796539e-01 -1.75665274e-01 +3.75309408e-01 +2.52665341e-01 +3.91091496e-01 -1.49391755e-01 -2.51200795e-01 -2.79375724e-02 -3.60174507e-01 -3.82060796e-01 +5.32242395e-02 +2.17528716e-01 -1.08229898e-01 -8.17901343e-02 +3.43580246e-01 +2.94207603e-01 +1.37290224e-01 +2.20573649e-01 -1.86990798e-01 -2.66032875e-01 +1.82633009e-02 -2.18379155e-01 -1.59010753e-01 -3.15103948e-01 -1.45439103e-01 -3.60616088e-01 +1.76740333e-01 -6.60720691e-02 +2.66123086e-01 +1.60854921e-01 +2.53758609e-01 +1.02855951e-01 -3.52036357e-01 +3.14039260e-01 +9.22033861e-02 -1.55972973e-01 +2.28150114e-01 -3.44992131e-01 +2.65029073e-01 -1.53000563e-01 -3.48325759e-01 -2.26541102e-01 -6.90297857e-02 +2.83256829e-01 +3.43559086e-01 +2.42574513e-01 +2.39421800e-01 +1.99377209e-01 +2.52098650e-01 +2.92052925e-01 -1.13211215e-01 +3.09278369e-01 +1.07415274e-01 -1.90728545e-01 -1.98784649e-01 -2.19788142e-02 -3.28342944e-01 +3.39812413e-02 -3.97835761e-01 -1.61209315e-01 -2.49778390e-01 +2.14907713e-02 -1.65765546e-03 -2.62491316e-01 +6.28534108e-02 +3.88289951e-02 +2.68497288e-01 +4.02597934e-01 +2.52833366e-01 -2.53293246e-01 -2.18467176e-01 -1.74682289e-02 -3.82542491e-01 -1.46129385e-01 -3.31008017e-01 -2.46072635e-01 -1.62682265e-01 -2.23096535e-01 -1.38635859e-01 -3.52162689e-01 -2.47767061e-01 +7.35559911e-02 +3.44887286e-01 +3.28557670e-01 +3.72218564e-02 +1.03346542e-01 +3.05189073e-01 -5.27844019e-02 +3.24645966e-01 -1.75433710e-01 +7.46221021e-02 +3.48436028e-01 -3.68910022e-02 +2.22836703e-01 +2.71322906e-01 -8.75532404e-02 -3.03913623e-01 +1.05007499e-01 +9.80987921e-02 +3.20282549e-01 -2.27070898e-01 +8.79347995e-02 +1.18675679e-02 +1.70586511e-01 +2.45190606e-01 -3.31075639e-01 +7.06023872e-02 +8.71693641e-02 -1.40630484e-01 -3.21913302e-01 -2.71555573e-01 -4.22777720e-02 +2.84825355e-01 +3.18541639e-02 +2.58380100e-02 -5.95039465e-02 -3.86613458e-01 -3.28527689e-01 -2.36744329e-01 -2.93888539e-01 -1.47646025e-01 +2.46014625e-01 -2.77842551e-01 +4.94456850e-02 -2.50175744e-02 +1.21437653e-03 -1.42217398e-01 +5.60091920e-02 +1.45816967e-01 +3.41314465e-01 -1.20453676e-02 -6.02152050e-02 +1.89340755e-01 -2.34551162e-01 +3.76220524e-01 -1.29838020e-01 -2.06110701e-01 +3.02546769e-01 -9.80551168e-02 +1.78585112e-01 -1.86372116e-01 -2.86070168e-01 +3.73309165e-01 -3.65527123e-01 +2.97490090e-01 -1.13117971e-01 +5.76634742e-02 +2.63815731e-01 +3.77070427e-01 +5.01230322e-02 -2.91677356e-01 +1.17366627e-01 +1.63625523e-01 +2.36322910e-01 +2.40880027e-01 -3.16296577e-01 +2.87133813e-01 -3.51949155e-01 -2.42189825e-01 -2.00090334e-02 -1.24375947e-01 +3.14227730e-01 -1.37846053e-01 +1.34653866e-01 +2.44296953e-01 +1.25565007e-01 +1.53934568e-01 +2.75578409e-01 -1.23415187e-01 -1.38688698e-01 +6.74014091e-02 -2.87642419e-01 +4.03465740e-02 -6.35507330e-02 -1.18449271e-01 +3.82698625e-01 -1.13065489e-01 +3.12520385e-01 -1.10600218e-01 +7.16304556e-02 -5.87735511e-02 -1.08081557e-01 -2.22960383e-01 -1.03001520e-02 +9.49199963e-03 -3.47739518e-01 -2.97553033e-01 -3.34802926e-01 +6.30006269e-02 +8.38397220e-02 +8.75919685e-03 -2.34092087e-01 +1.19029740e-02 -2.59663016e-01 +2.62049317e-01 -3.53065521e-01 +1.07224837e-01 -6.06353395e-02 -2.89172649e-01 +2.31238529e-01 +2.82870829e-01 +3.70145351e-01 -2.11438797e-02 +9.38029885e-02 -1.39207393e-01 +1.38602421e-01 +1.22078225e-01 -3.29300523e-01 -8.14552382e-02 +1.46699727e-01 +3.69416118e-01 +1.15711398e-01 +6.93631172e-02 -2.92087585e-01 -2.44885460e-01 -3.58855426e-01 -3.55042547e-01 +7.99231082e-02 -8.83275736e-03 +2.33951360e-01 -1.37080848e-01 +2.97021091e-01 -3.32912266e-01 +2.83247769e-01 -1.66874781e-01 +2.11287275e-01 +2.49265119e-01 -5.43767139e-02 -1.26410440e-01 +1.29809082e-01 -5.28656729e-02 -2.00168155e-02 +3.72761525e-02 -3.65429431e-01 -2.51660973e-01 -3.13746154e-01 +8.98031220e-02 -1.43561542e-01 -1.15266465e-01 
#Parameter# /b4 {20} 321 ZERO_GRAD
-3.01573724e-01 -3.46831739e-01 -2.53582329e-01 -2.78787136e-01 -3.63973558e-01 +2.60403067e-01 +8.36917236e-02 +3.07359725e-01 -1.15894310e-01 +2.18851492e-01 -3.35869253e-01 +3.07574302e-01 -3.26753557e-01 +2.22790480e-01 +2.20053643e-01 -3.54979008e-01 -5.54009527e-02 -3.21924061e-01 +3.10003728e-01 +2.17096254e-01 
#Parameter# /W5 {20,20} 6401 ZERO_GRAD
+4.15430926e-02 -3.00325423e-01 -1.17768019e-01 -2.20868275e-01 +1.90958679e-02 -2.62997478e-01 +3.43418807e-01 +3.91078331e-02 -2.79264718e-01 -2.18293622e-01 -1.24839284e-01 +4.89582494e-02 -2.34194636e-01 -1.91414595e-01 -1.89331900e-02 +3.77000362e-01 +3.33191633e-01 +1.24947295e-01 -1.20128812e-02 +2.36970991e-01 -1.59240440e-02 +1.23682410e-01 +3.50480050e-01 -2.65985787e-01 -1.34039119e-01 -2.76446730e-01 +2.03003675e-01 -2.56072581e-01 +1.11639202e-01 -2.91625291e-01 +1.11417614e-01 -2.52661675e-01 -2.23076329e-01 +1.50599778e-01 -2.85130709e-01 +3.39900494e-01 +3.55513453e-01 -5.03375828e-02 -3.43162000e-01 +2.31832743e-01 +3.72013003e-01 -4.52857502e-02 +3.83957475e-01 +1.27073601e-02 -3.65044445e-01 -1.16947889e-01 -1.83990106e-01 +3.47099781e-01 +3.34556431e-01 +3.42416763e-02 -3.48099142e-01 +1.70426905e-01 -1.37616426e-01 +3.17463011e-01 +3.38404328e-01 -3.27219516e-01 -2.90480852e-01 +5.49539216e-02 -2.50018332e-02 -3.13109338e-01 -9.72124785e-02 -1.78157061e-01 +1.94215402e-01 +3.11907791e-02 -4.00088727e-01 +8.76903534e-02 -3.88646513e-01 +2.51362085e-01 -9.36008617e-02 -4.02669273e-02 +2.39458039e-01 +3.15327644e-01 -2.11426035e-01 +2.99773276e-01 -3.66186798e-01 +2.71736383e-01 -3.56994830e-02 -1.51690975e-01 +1.51167110e-01 -2.55787402e-01 +2.01866955e-01 -2.32093498e-01 +3.73115838e-01 +2.03623578e-01 +2.11150065e-01 +1.84406806e-02 -3.15858364e-01 +2.97515452e-01 -2.72732645e-01 +9.37815979e-02 +9.82631519e-02 -2.06404813e-02 -2.00947840e-02 +6.61021681e-04 +2.78934747e-01 -2.07640752e-01 -1.90638244e-01 -7.00754225e-02 +3.45103085e-01 +2.03838453e-01 -3.41145724e-01 +2.07815424e-01 +3.59588861e-02 +2.14638382e-01 -2.08296478e-01 +7.99606964e-02 +1.64632723e-01 -2.37727221e-02 -2.15110838e-01 +7.12165460e-02 +1.96417421e-02 +1.35434955e-01 -3.76164615e-01 -1.53081715e-01 -5.55651970e-02 -4.06161845e-01 +2.99501151e-01 -3.74004722e-01 +3.14134449e-01 -3.88945907e-01 -1.18386857e-01 +1.15097652e-03 -1.77563339e-01 -6.82960078e-02 +3.89094017e-02 -1.30083188e-01 +3.19000930e-01 +1.94414422e-01 -2.04993233e-01 -7.71214068e-02 -1.09440334e-01 +8.34781975e-02 +2.40021646e-01 +2.95038879e-01 +1.45452142e-01 +8.36511180e-02 -8.40830281e-02 -2.23024011e-01 -1.26010804e-02 -3.75249535e-01 +2.73264915e-01 +1.24459825e-01 -8.75971541e-02 +6.54123798e-02 +2.01884612e-01 -1.75077811e-01 -1.18502909e-02 +1.23073377e-01 -3.83535713e-01 -9.95614901e-02 -1.40228018e-01 +1.70453966e-01 +2.42658168e-01 +3.48280340e-01 -3.47017199e-01 +2.10364550e-01 -2.69136429e-01 -1.94785446e-01 +1.97166815e-01 +1.20189138e-01 -9.76986960e-02 -5.33226058e-02 -2.44145185e-01 -4.82343547e-02 -9.15746689e-02 -3.44964892e-01 +2.63398319e-01 +4.81910706e-02 +3.25363815e-01 +3.23615372e-01 +2.19202742e-01 -1.32970866e-02 +2.80434582e-02 -3.45092505e-01 +5.55754937e-02 +1.61563024e-01 +1.71131760e-01 -8.21481943e-02 -3.41226637e-01 -7.03727081e-02 -2.92903930e-01 +1.46707132e-01 -2.66538560e-01 +1.78125888e-01 -1.44426838e-01 -4.42613214e-02 -3.18058133e-01 +1.08036883e-01 -3.16841006e-01 -1.45663917e-01 +2.36914262e-01 -2.28949279e-01 -2.03162283e-01 -1.13732867e-01 -3.22321177e-01 -1.66240521e-02 +3.13330948e-01 +3.53510410e-01 -2.13341817e-01 +6.71841262e-04 -3.01438630e-01 +2.03007475e-01 +3.45986456e-01 -4.54211570e-02 +1.72630608e-01 -1.35581940e-01 -4.03631926e-01 -1.18382700e-01 -1.07890204e-01 -1.19154789e-01 +7.10577890e-02 -8.33201557e-02 -1.70742705e-01 +4.98620234e-02 +3.94834220e-01 +2.99767703e-01 -1.33260012e-01 +2.64436930e-01 -1.80508420e-01 +2.64415264e-01 -3.52229506e-01 -2.53977813e-03 +1.06690608e-01 -2.40956292e-01 -6.68908060e-02 +2.78701007e-01 -1.29936844e-01 +1.77693963e-01 -7.06631467e-02 -1.39703676e-01 +1.88014954e-01 -2.29376554e-01 -2.38112174e-02 -3.63326132e-01 -2.10902557e-01 -2.17600107e-01 +1.60662711e-01 +1.12113662e-01 -3.24603409e-01 +1.77147061e-01 -2.44327798e-01 +5.50024472e-02 +3.62598568e-01 +1.41211018e-01 +2.30256226e-02 -3.61710452e-02 -3.52759868e-01 +2.46078163e-01 +2.26151362e-01 -2.63408422e-01 -9.96245444e-02 -2.22804025e-01 +2.89550126e-01 +3.21440607e-01 +2.44385585e-01 +1.89328089e-01 -2.02341661e-01 -2.52113670e-01 -2.75242001e-01 -2.77530342e-01 +3.09097081e-01 -6.06269389e-02 -3.23228598e-01 +3.60449135e-01 -1.31747872e-01 +3.79799247e-01 -2.25899458e-01 -1.12101004e-01 +6.00689091e-03 +7.22000152e-02 +3.39478254e-01 +2.54984051e-01 -1.85578503e-02 +7.15878233e-03 +1.71735257e-01 -2.29619101e-01 -2.82754779e-01 +2.61989772e-01 +2.39767194e-01 -8.39262679e-02 -8.55403766e-03 +8.42612684e-02 -2.59351164e-01 -1.42251581e-01 +1.36527538e-01 +5.39345704e-02 +1.58276528e-01 -1.34422973e-01 +2.74901420e-01 -3.32915038e-01 +2.35266313e-02 +1.89475998e-01 -2.55350471e-01 +1.09437190e-01 +2.89088458e-01 +2.43981570e-01 +8.36734399e-02 +2.78698087e-01 -3.70791554e-01 +3.20334375e-01 -3.32043648e-01 +2.28235483e-01 +2.01175846e-02 +2.94106901e-01 +1.07499093e-01 +1.99031636e-01 +1.77069068e-01 +1.43975634e-02 -1.99648187e-01 +2.82863081e-01 -1.48213267e-01 -1.75375324e-02 +6.89156801e-02 -3.59273255e-01 +2.83885211e-01 +1.27094463e-01 -2.74255216e-01 -4.80198450e-02 +1.98750883e-01 +3.37797344e-01 -2.13312447e-01 -2.60995358e-01 -2.82036334e-01 -2.20896900e-01 +3.55338901e-01 -1.78635299e-01 +2.93852419e-01 +3.37477326e-01 -1.66458085e-01 -2.43354082e-01 +1.17720393e-02 +2.43970037e-01 -2.70354301e-01 +2.99711347e-01 -3.32060188e-01 +1.09236818e-02 -2.62066633e-01 -2.16620058e-01 +2.28353694e-01 -1.82332784e-01 -3.60350043e-01 -1.13462210e-01 +1.80589929e-01 +2.99603492e-01 -9.55021605e-02 -2.03304887e-02 +3.63040864e-01 +3.64684343e-01 +3.38580549e-01 -3.56726795e-01 -3.45325291e-01 +1.24190763e-01 -3.56432378e-01 -1.56088591e-01 -2.72708297e-01 +2.40019158e-01 +1.14471696e-01 +1.06943794e-01 +1.24388598e-01 +1.59038797e-01 +1.36291116e-01 -1.41467363e-01 +9.64257717e-02 +1.00506254e-01 -2.89779574e-01 +2.59724051e-01 +1.65287390e-01 -1.86566845e-01 -2.33074695e-01 +3.76497984e-01 -3.78249526e-01 +1.78383943e-02 +9.31959003e-02 +2.34646872e-01 +2.73783922e-01 -1.90228835e-01 +2.81259865e-01 -1.56280734e-02 +3.32045019e-01 +1.92947447e-01 -1.89042464e-01 +2.15385586e-01 +1.10300839e-01 +3.12308520e-01 +3.65417570e-01 +2.60232836e-01 -2.74830878e-01 -1.58515036e-01 -5.53606339e-02 +3.71961206e-01 +2.33559348e-02 -1.79667830e-01 -3.15964133e-01 +1.74655348e-01 -2.08065793e-01 -2.60951221e-01 +3.39999974e-01 -3.80738109e-01 -2.82885492e-01 -1.23009741e-01 
#Parameter# /b5 {20} 321 ZERO_GRAD
+1.84826583e-01 +1.47809654e-01 -2.63702810e-01 +1.08641870e-01 +3.07529241e-01 +2.61340261e-01 -2.39023685e-01 +4.47934605e-02 +2.92730648e-02 -4.67980504e-02 +1.47692546e-01 -3.59614044e-01 +1.25819758e-01 +1.92274824e-01 -1.90382734e-01 -3.63077641e-01 +1.67512700e-01 -2.57865518e-01 -2.69147217e-01 -1.44855753e-01 
#Parameter# /W6 {20,20} 6401 ZERO_GRAD
-2.69775093e-01 -3.58540177e-01 +1.68943793e-01 -3.09895366e-01 -3.73567373e-01 +1.69632271e-01 -3.07227731e-01 -2.45471105e-01 +6.88260794e-02 +5.73837310e-02 -2.28914931e-01 +3.43446344e-01 +5.70721999e-02 -2.48350743e-02 +1.74997121e-01 -3.17028552e-01 -1.60962671e-01 -2.96168476e-01 -8.33042786e-02 -3.05307773e-03 -1.35195255e-01 -1.63682282e-01 +1.34468660e-01 -3.24564010e-01 -2.84116924e-01 -1.40894786e-01 +2.54577219e-01 +6.92274421e-02 -2.41877988e-01 -3.12080204e-01 -1.91175595e-01 -1.42190931e-02 +2.75982320e-01 -5.34209944e-02 +7.69071206e-02 +1.66059628e-01 -3.38858992e-01 +2.38607079e-01 -1.38529595e-02 +2.65523940e-01 +1.76993638e-01 -4.66347951e-03 -3.68100166e-01 -1.16335168e-01 -3.65143746e-01 -3.94339472e-01 -3.77682626e-01 +1.16663143e-01 -2.19125650e-03 +2.66836435e-01 -3.10963422e-01 +5.76459728e-02 -2.15259910e-01 -2.44133305e-02 -2.83125699e-01 -9.18426365e-02 +2.79816151e-01 -6.35800362e-02 -2.64582396e-01 -2.86049753e-01 -1.90015659e-01 +1.92195754e-02 -3.72155517e-01 -3.18457007e-01 +5.23884445e-02 +3.46976399e-01 -3.81706469e-02 -3.18789810e-01 -3.09448302e-01 -1.64607778e-01 +7.55130649e-02 -2.30895489e-01 +2.37920165e-01 +9.32648107e-02 +2.07112953e-01 -2.99510598e-01 -1.15382493e-01 -2.92617232e-01 -3.31502229e-01 +3.24490160e-01 -1.29592642e-01 -2.88909197e-01 +1.52556114e-02 +4.52987663e-02 -2.00439721e-01 +2.10577041e-01 -1.78116336e-01 +1.48865908e-01 -2.06447586e-01 -2.65856028e-01 -3.36815864e-01 +1.63440704e-01 -1.02041528e-01 -6.69933408e-02 +2.72720248e-01 -3.31289649e-01 -2.29493290e-01 -5.13079651e-02 +3.56398135e-01 -2.03561127e-01 -2.68666834e-01 -3.30182701e-01 +3.18049490e-01 +3.25877696e-01 +2.17043564e-01 -3.07315961e-02 -1.24317974e-01 -1.60206825e-01 -9.71964747e-02 +2.78333575e-01 +3.31219494e-01 -1.25168473e-01 +1.72143057e-01 +8.22833776e-02 -3.11366856e-01 -1.41237274e-01 +3.31839532e-01 +3.23043764e-01 +1.52803436e-01 -3.61114711e-01 -1.77301228e-01 -2.33705282e-01 -2.67171204e-01 +2.89259970e-01 +2.01397881e-01 -8.42794925e-02 +2.30660424e-01 +6.65975437e-02 -2.64327019e-01 +3.07347745e-01 +2.50014395e-01 -6.26161769e-02 +3.16975266e-01 -2.34204367e-01 +6.29841760e-02 -1.44866696e-02 +2.80209124e-01 +3.39234740e-01 +1.11286461e-01 +2.45953113e-01 -2.66478032e-01 +6.70900419e-02 -2.86951870e-01 +3.91398907e-01 -1.01533175e-01 +8.08417052e-02 -2.58321315e-01 +7.15232454e-03 +3.27378839e-01 -3.45537513e-01 +1.94084674e-01 -1.57538667e-01 -3.62291813e-01 -1.56864196e-01 -1.66728362e-01 -2.24219829e-01 -1.48080826e-01 +1.29845798e-01 +2.74191022e-01 -2.31670156e-01 -5.67500070e-02 +7.40290135e-02 +2.14738548e-01 +3.41914415e-01 +3.08780193e-01 -1.58202216e-01 +3.84077549e-01 +1.03256620e-01 +3.78435910e-01 -9.70466360e-02 -3.62187773e-01 -1.39515668e-01 -2.81822234e-01 +2.76174277e-01 -2.56390154e-01 +1.21922523e-01 +1.31848305e-01 -3.04089878e-02 +1.10942364e-01 +3.52524400e-01 +1.78089470e-01 -2.83852071e-02 +2.53791541e-01 -2.74764746e-01 +1.20399304e-01 -1.89056039e-01 -2.06160501e-01 +8.42020065e-02 -3.83499444e-01 -2.54634172e-01 -3.60389739e-01 -4.47709709e-02 +5.16113639e-02 -9.18718949e-02 -8.67103711e-02 -1.26628697e-01 +2.47910663e-01 +4.96257059e-02 -2.90761411e-01 +3.15295577e-01 -1.62036553e-01 -1.14965588e-01 -3.36895198e-01 +7.46920928e-02 -1.09528927e-02 +2.18864866e-02 -1.83000386e-01 -3.75504106e-01 -8.42056870e-02 -1.77220508e-01 +3.68861675e-01 -1.78391978e-01 -3.07769924e-01 +3.20935637e-01 -3.20267119e-02 -2.87576132e-02 +1.75145902e-02 -2.27137983e-01 -3.65706027e-01 +6.81770071e-02 +2.95061678e-01 -1.68510169e-01 +1.11899309e-01 +3.12097371e-01 +1.95132360e-01 +3.22707891e-02 -1.49593115e-01 +2.49773130e-01 -3.66124332e-01 -2.88503826e-01 -2.81969726e-01 +3.36891897e-02 -1.28522411e-01 -1.70466438e-01 +1.94799468e-01 -3.24148208e-01 +2.38535628e-01 -9.71900970e-02 -5.14610894e-02 +1.82547942e-01 +2.21524134e-01 +2.00548202e-01 +3.61800283e-01 -5.62556833e-02 +2.50599921e-01 -1.85515881e-01 -3.86823893e-01 +3.76360506e-01 +3.74300748e-01 -3.29891711e-01 +3.10999632e-01 +3.08653623e-01 +1.76105127e-01 -1.74508706e-01 +1.96937218e-01 +1.05680369e-01 -2.07512155e-01 -1.53045058e-01 +2.89649487e-01 -1.43848076e-01 -2.21422687e-01 +1.49861276e-01 +2.24535733e-01 +2.15587571e-01 +1.50123045e-01 +1.49734532e-02 -1.48764819e-01 -5.77980429e-02 -1.78792045e-01 +2.62652546e-01 +5.99160194e-02 -1.19602270e-01 +1.48949996e-01 -1.62692562e-01 -4.58013564e-02 -2.42388085e-01 +1.08853906e-01 +2.86382943e-01 +1.06197335e-01 -3.34257692e-01 -4.01253887e-02 +2.13977899e-02 -1.53474122e-01 -2.27202311e-01 +2.76582599e-01 -2.36177474e-01 +3.18627834e-01 -2.86420077e-01 -2.48228148e-01 -2.57173747e-01 +3.49955231e-01 +1.11556880e-01 -1.52494013e-01 -4.54375111e-02 -1.10764652e-01 -3.23339820e-01 -1.74922034e-01 -3.58990610e-01 -2.89388925e-01 +4.82516214e-02 -1.69347152e-01 +4.19239312e-01 +2.24534631e-01 -4.85282466e-02 -1.37988120e-01 +1.99838445e-01 -2.05214724e-01 -4.01326001e-01 -2.36198261e-01 +3.17666382e-01 +9.09564719e-02 +4.85985875e-02 -1.16790056e-01 -2.72132963e-01 -5.33313565e-02 +2.10942119e-01 +1.07809357e-01 -1.09216839e-01 +2.28012562e-01 +2.82717705e-01 +1.28566161e-01 +1.67428896e-01 +9.68302637e-02 -3.26324910e-01 +1.45858392e-01 +4.54482250e-02 -1.96720630e-01 -1.63053304e-01 +5.24079092e-02 -3.38596195e-01 -2.64082760e-01 -1.16959736e-02 -1.21649951e-01 -9.02993679e-02 -3.32127541e-01 -2.96233654e-01 +2.36539375e-02 +2.75757551e-01 -2.51816928e-01 -1.00007895e-02 +2.86492139e-01 -1.97050869e-01 -3.85253042e-01 +3.86083990e-01 +2.38906518e-01 +2.07739715e-02 +1.24197140e-01 +2.62237459e-01 -3.66822928e-02 +8.89803767e-02 -2.04254210e-01 -3.58537912e-01 +2.74108380e-01 -2.75018543e-01 -1.48622036e-01 +3.15330550e-02 +1.19457185e-01 -3.51129957e-02 +2.88812578e-01 +2.91852713e-01 +2.50058115e-01 -3.37605476e-01 +2.95339316e-01 -1.45574465e-01 -4.17835005e-02 -7.01362565e-02 -1.19083837e-01 +3.40823978e-01 -9.58213210e-02 +3.07455629e-01 +7.71154985e-02 -6.07105717e-02 -1.29522577e-01 -3.39448154e-01 +3.26910764e-02 +1.79804444e-01 +3.20487887e-01 -5.26069067e-02 -1.27738163e-01 -6.05825670e-02 +1.20063201e-01 -3.71704251e-01 -2.92824477e-01 -2.23525435e-01 -6.02721758e-02 +2.87909150e-01 +3.47860962e-01 -8.22708085e-02 -1.54875904e-01 -8.23847353e-02 +1.56297237e-01 -9.11817625e-02 +2.88169801e-01 +4.73517589e-02 -2.04841062e-01 +7.08125606e-02 -2.95935482e-01 -2.98471898e-01 -9.53296944e-02 +1.50927484e-01 
#Parameter# /b6 {20} 321 ZERO_GRAD
-3.11921179e-01 -3.40603024e-01 -3.19942057e-01 -2.50291415e-02 +1.97649539e-01 -2.59668112e-01 +1.98628724e-01 +1.50158882e-01 +2.26918831e-01 -3.47340018e-01 +1.17464706e-01 -3.22504461e-01 -1.36229813e-01 +1.97102785e-01 +2.19221003e-02 +3.16089004e-01 +1.97168529e-01 +1.39078140e-01 +1.57196105e-01 -1.75604030e-01 
#Parameter# /W7 {20,20} 6401 ZERO_GRAD
+2.42968239e-02 +6.25211596e-02 -3.09736133e-01 -1.32660910e-01 +3.33548903e-01 +2.06132367e-01 +3.29248756e-01 +2.72667646e-01 +1.15585588e-01 +1.06694348e-01 +2.77632385e-01 +1.03382692e-01 -7.87563622e-02 -3.23026963e-02 -2.63715908e-03 +2.53156930e-01 +3.25379282e-01 -3.85749936e-01 -2.88659483e-02 -3.16731989e-01 -2.48185277e-01 -1.73302352e-01 +8.29993039e-02 +2.23050103e-01 -3.83108139e-01 -2.33737960e-01 -1.15259826e-01 +6.66723996e-02 +7.83992857e-02 -3.55755121e-01 +3.56613636e-01 +2.52772812e-02 -5.59879318e-02 -9.22370702e-02 +3.24147463e-01 -2.91305065e-01 +3.82938236e-01 -2.43258346e-02 -1.95078015e-01 +2.45081499e-01 -4.54639979e-02 -3.72444272e-01 -3.14275563e-01 -7.81807378e-02 +7.04551190e-02 +2.64008433e-01 -3.71795297e-01 -9.23797712e-02 -1.90047529e-02 +2.79031038e-01 +1.49091944e-01 +1.30559117e-01 -2.89075017e-01 +3.00783515e-01 -1.47690237e-01 -1.05970047e-01 -1.88860521e-02 +3.27900797e-02 -2.00950950e-01 -2.06138730e-01 -2.28870332e-01 +1.44377351e-01 -5.18350257e-03 +5.25265895e-02 -1.65077820e-01 -7.44480938e-02 -1.89434543e-01 -3.71177942e-01 +1.74148992e-01 -1.08076222e-02 +2.55379140e-01 +3.64312142e-01 -1.16554156e-01 -3.11569691e-01 +2.82189220e-01 -2.28504941e-01 -2.57297099e-01 -3.54466349e-01 +9.29233059e-02 +2.73943543e-02 -2.01046646e-01 +3.05657268e-01 -3.30977105e-02 -3.49602625e-02 -3.56436461e-01 -7.91510418e-02 -1.43598661e-01 +1.05112344e-01 +1.35984585e-01 +2.12559879e-01 -3.01450491e-01 +6.45753741e-02 -8.82641077e-02 +2.13989735e-01 +2.85491675e-01 +2.98159063e-01 -1.84082195e-01 -3.11173677e-01 +2.78215706e-01 -2.20548153e-01 +3.95914689e-02 -1.14511162e-01 -6.30702898e-02 +2.44525149e-01 -2.47680113e-01 +2.73926347e-01 -3.55950564e-01 -3.03079814e-01 +8.34057759e-03 -1.29133597e-01 -6.46336079e-02 +3.64455551e-01 -9.99376327e-02 -5.87522574e-02 +7.95672983e-02 -2.81201601e-01 +3.30518514e-01 +2.46947706e-01 -2.53767431e-01 +1.25859037e-01 +2.37796590e-01 +2.43188709e-01 -1.56230748e-01 -2.68627584e-01 +5.97829893e-02 -3.64870399e-01 -4.04681973e-02 +2.71080434e-01 -4.46237102e-02 +3.55159253e-01 -1.45487100e-01 -2.51072139e-01 +2.73750603e-01 +3.50536197e-01 -4.44764970e-03 -2.00535670e-01 +2.07699556e-02 -1.77518755e-01 +2.99000174e-01 -2.43325666e-01 -1.99273214e-01 +2.48919241e-02 -1.00036830e-01 +2.76612560e-03 -2.23640054e-01 -1.45188704e-01 -3.38253319e-01 +3.70507091e-01 -3.40897828e-01 +3.73464823e-01 +1.21637240e-01 -2.93499559e-01 +7.47547522e-02 -4.91364188e-02 -3.17025371e-03 +2.95239449e-01 -3.00860792e-01 +7.14127813e-03 +4.21111379e-03 +1.99244723e-01 -1.33881077e-01 -3.10626924e-01 -1.02415487e-01 +6.82993233e-02 +1.93674266e-01 -1.02456715e-02 -2.28455737e-01 -2.73856401e-01 -9.82110575e-02 -3.37982655e-01 -5.76826334e-02 +1.84825435e-01 -2.12629795e-01 +3.51246744e-01 +3.32920998e-01 +2.24885374e-01 -1.18944541e-01 +3.79326731e-01 -3.61082762e-01 +7.58681744e-02 +2.33002037e-01 -3.68422657e-01 +1.35605931e-01 +1.16962887e-01 +2.06929073e-01 -1.74010858e-01 +2.99894243e-01 -1.60170108e-01 -2.07584545e-01 -1.42955452e-01 +1.70953989e-01 -2.78413057e-01 +7.58416355e-02 +3.03193122e-01 -1.60296634e-01 +3.70241851e-01 -1.24345884e-01 +2.33353406e-01 +6.37513697e-02 +2.87343204e-01 +1.49208918e-01 -3.32604349e-01 +2.11867303e-01 -1.20385271e-02 +1.09662257e-01 -3.14484715e-01 -1.58460401e-02 +2.91524887e-01 +1.78841114e-01 +8.29267874e-02 +3.78678441e-01 +1.30590675e-02 +5.25762327e-02 -3.65371823e-01 -2.06266001e-01 +4.66196686e-02 +2.13948056e-01 -1.59913406e-01 +1.13628879e-01 +2.75095046e-01 -2.44094700e-01 +2.48530045e-01 +1.29555106e-01 -2.57728875e-01 -3.24182212e-01 +3.18118244e-01 +1.97971240e-01 +8.25846046e-02 +3.10349852e-01 +9.97027531e-02 +3.48051786e-01 -2.95543522e-01 -5.18444926e-02 -3.78831178e-01 -2.67520219e-01 -1.90406501e-01 -1.09048739e-01 -3.34057301e-01 -1.74731910e-01 -7.95133784e-02 -2.68769205e-01 -2.21161142e-01 -2.18904719e-01 -2.11739287e-01 -2.96190888e-01 -4.99007292e-02 -1.62220448e-01 +7.93917850e-02 +3.59461337e-01 -2.55055100e-01 +2.91020542e-01 +5.17860129e-02 +1.99931160e-01 +2.58503526e-01 +7.97024667e-02 +2.82936960e-01 -1.48383141e-01 -5.15496843e-02 -1.92678615e-01 +3.04928213e-01 -3.84923726e-01 +4.94219251e-02 -2.70559788e-01 +3.79499376e-01 +1.02189861e-01 +4.85677905e-02 +6.00046404e-02 +5.67866191e-02 -6.06221333e-02 -3.63768339e-02 -1.37356132e-01 -5.00737838e-02 +1.55734882e-01 -1.05529323e-01 -2.11039111e-01 -3.82811487e-01 +1.23797379e-01 +2.87671357e-01 -1.56305522e-01 +3.22361499e-01 +6.46346584e-02 -9.17131752e-02 +1.14992112e-01 +1.07789882e-01 -2.51321375e-01 -4.37675677e-02 +2.38084838e-01 +3.01471680e-01 -3.41371179e-01 +1.09352522e-01 -2.36436680e-01 +2.02143043e-01 -1.61714658e-01 -1.70335874e-01 +2.63982415e-01 -1.31090153e-02 -2.77150601e-01 +2.15131626e-01 +3.44295725e-02 +1.90438807e-01 +3.55912149e-01 -1.56803221e-01 +4.15579155e-02 -3.96061204e-02 +6.39264658e-02 +1.60672143e-01 +2.39545003e-01 +3.29324782e-01 -2.25431994e-01 -2.21981019e-01 -7.58887827e-02 +2.07754627e-01 -1.89056590e-01 +3.55292857e-01 -2.56601065e-01 -5.89518435e-02 -2.97421336e-01 +1.19441956e-01 +1.08650483e-01 -2.92514153e-02 -2.29738027e-01 +1.59426287e-01 +1.41574174e-01 +3.16701308e-02 -2.26136595e-01 -2.36983135e-01 -6.77798390e-02 -2.53034830e-01 -1.71922863e-01 +1.48338333e-01 +2.31942847e-01 +2.00059582e-02 -3.00573856e-01 -2.68875092e-01 +2.33537391e-01 +3.44956309e-01 +3.02786112e-01 -1.89322978e-01 +1.21741556e-01 +3.31323028e-01 -6.61696270e-02 -1.55967236e-01 -1.88989401e-01 -8.13326240e-02 +1.54047459e-01 -1.02861531e-01 +8.81732441e-03 -2.85335153e-01 +9.09262896e-02 -2.10133880e-01 -3.67950201e-01 -1.42437413e-01 +1.40977472e-01 +1.97084039e-01 +1.47664785e-01 -3.96389775e-02 -8.43375698e-02 +9.59747583e-02 +4.58153933e-02 -3.50333512e-01 +1.12656634e-02 -1.05593957e-01 -2.30248854e-01 -2.17158720e-01 -1.53189898e-01 -8.48939344e-02 +1.21815063e-01 +1.38542056e-01 +1.23971500e-01 +2.77299643e-01 +3.44632089e-01 +7.42649585e-02 -3.09667230e-01 -1.91176355e-01 -3.69122416e-01 -2.94858456e-01 +2.38315120e-01 +3.45696926e-01 -1.29533917e-01 +1.30859911e-01 +4.21426862e-01 +2.39595488e-01 +2.37066522e-01 -7.40391985e-02 +2.45678261e-01 -2.73527920e-01 -1.21641248e-01 +3.60394448e-01 -2.29908615e-01 +1.92343801e-01 +1.49030350e-02 +6.87061623e-02 +1.22371897e-01 +1.10291228e-01 +1.76832139e-01 -1.31795332e-01 -1.87506855e-01 +1.45857632e-01 -2.85151526e-02 +3.14145416e-01 
#Parameter# /b7 {20} 321 ZERO_GRAD
+2.70626843e-01 -2.76135444e-03 +9.68097374e-02 -8.24514553e-02 +1.96229160e-01 -5.79158738e-02 -1.88177377e-01 -2.17488602e-01 -2.91634351e-01 -2.64677584e-01 -2.96868175e-01 +3.82756032e-02 +5.37039757e-01 -3.45329791e-02 -3.59471172e-01 -3.32769334e-01 +3.25274259e-01 +4.31546003e-01 -1.33963823e-01 -2.80347377e-01 
#Parameter# /W8 {6,20} 1921 ZERO_GRAD
-1.39989316e-01 +4.08284999e-02 +3.79414141e-01 +2.61175781e-01 +4.92293499e-02 +3.84895355e-01 +2.99089849e-01 -2.59375781e-01 +2.53477126e-01 -3.39551359e-01 +4.49291617e-01 -2.70169795e-01 +1.92936545e-03 -3.98321420e-01 -3.64356995e-01 -4.37322974e-01 -1.08283184e-01 +3.27120215e-01 +5.72231971e-02 +6.13750890e-02 +8.22456628e-02 -4.37156945e-01 +4.72858734e-02 +2.75974840e-01 -4.57987227e-02 -8.15756470e-02 -2.49811903e-01 +2.31537968e-01 +2.13137239e-01 +2.66448557e-01 +4.03859138e-01 -4.79385518e-02 -4.09034461e-01 -1.65946320e-01 +2.92435378e-01 -3.07630062e-01 -6.45669922e-02 -1.37711331e-01 +1.37735724e-01 -3.11687201e-01 +1.32418990e-01 +2.45169595e-01 +4.20100123e-01 -4.75207210e-01 -1.72805798e-03 +4.23018724e-01 -8.21077153e-02 -6.52397424e-02 +3.10519546e-01 +4.71427262e-01 +4.75907564e-01 -3.11838567e-01 -3.51467371e-01 +3.24635208e-01 -2.19898894e-02 -8.97443816e-02 +4.42427695e-02 -3.94010022e-02 -3.20651866e-02 -5.78272156e-02 -3.08509613e-03 -2.43171286e-02 -2.64176458e-01 +3.66542667e-01 +1.73007753e-02 -4.51747745e-01 +1.13850221e-01 -3.60170566e-02 -8.69989023e-02 +1.14033945e-01 +2.35973522e-01 -1.91144511e-01 +1.65295422e-01 +3.65024418e-01 -3.20174813e-01 +4.59448189e-01 -3.22506577e-01 -3.10137719e-01 +2.42314771e-01 -8.47121850e-02 -8.49331915e-03 -3.64430279e-01 -2.39007875e-01 +9.43615735e-02 -3.46118897e-01 +1.42879084e-01 -1.20683901e-01 +3.98946293e-02 +2.11532235e-01 -1.96833476e-01 +3.97447944e-01 -2.71292210e-01 +4.59066600e-01 -4.16635990e-01 -3.59927952e-01 -4.24225271e-01 +4.49669689e-01 +4.00364369e-01 -3.81837159e-01 +3.21683496e-01 +2.46710673e-01 +1.31494164e-01 +2.86793441e-01 +4.51056868e-01 -4.14421439e-01 -1.26023531e-01 -3.95999342e-01 -9.88676548e-02 -5.11354506e-02 -3.27375412e-01 +3.43772732e-02 +3.71114463e-01 -1.06574491e-01 -4.36597347e-01 +1.26255944e-01 -3.65041703e-01 +2.24467799e-01 -2.54317343e-01 +1.93659291e-01 +4.32333708e-01 
#Parameter# /b8 {6} 97 ZERO_GRAD
-3.64685327e-01 -5.31527221e-01 +5.00273228e-01 -3.56785595e-01 +2.33111799e-01 +6.28409609e-02 
