#Parameter# /W1 {20,37} 11841 ZERO_GRAD
-1.40614375e-01 +2.22593829e-01 -1.85577422e-01 -4.09064367e-02 -1.76955611e-01 -7.40482658e-02 -1.57208413e-01 +3.17967355e-01 -3.09505105e-01 +1.76855206e-01 -1.14439361e-01 -9.36699882e-02 +2.01501548e-01 +2.55357295e-01 -7.94235319e-02 +2.49317527e-01 +6.70745447e-02 +1.51072145e-01 +2.56168187e-01 +2.24354103e-01 +1.69150725e-01 +9.73524749e-02 +2.80281603e-01 +4.55965213e-02 +1.05834141e-01 +2.34790653e-01 -2.46334106e-01 +5.76101318e-02 -8.39378387e-02 +7.53025785e-02 +2.65096694e-01 +6.10684007e-02 -9.30256099e-02 -3.76651958e-02 -2.03194767e-01 -2.32127562e-01 -2.86262214e-01 +7.35043287e-02 +1.68799952e-01 +1.36220127e-01 +5.32828905e-02 -8.75388086e-02 +2.95579314e-01 +2.58039176e-01 +1.00722760e-02 -1.34956881e-01 +1.34691104e-01 -1.33157700e-01 -1.06512114e-01 +1.32462025e-01 -1.52614579e-01 -3.04532528e-01 -1.60190120e-01 +2.01880142e-01 +9.08426791e-02 -1.93405733e-01 -1.95190758e-01 -2.69129515e-01 +2.28682131e-01 +6.70571774e-02 +1.37953103e-01 +2.93862764e-02 -3.43743421e-04 +3.20158333e-01 +1.97575077e-01 -6.25119125e-03 +2.77924687e-01 -3.04167271e-01 -2.36462995e-01 -1.81860656e-01 -2.25359783e-01 -2.06139833e-01 +2.95649171e-01 +2.57795691e-01 -1.79964423e-01 -4.95637394e-02 +3.08840930e-01 +3.11661869e-01 -1.56700000e-01 -7.02247322e-02 -2.09348992e-01 +8.89700130e-02 +2.36358210e-01 +3.21549565e-01 +1.75859213e-01 -5.10457568e-02 +3.23410004e-01 +1.31804436e-01 -1.07692003e-01 -1.08682863e-01 +2.02637196e-01 +1.40442431e-01 +8.72663595e-03 +7.44640902e-02 +7.67107308e-02 -4.34651896e-02 -2.90306687e-01 +2.87455678e-01 +2.49598339e-01 -6.49556667e-02 +2.65979111e-01 -6.01843037e-02 +9.32260379e-02 -1.52699724e-01 +2.28993788e-01 -6.70481175e-02 -8.05338472e-02 -1.51133940e-01 +6.36352822e-02 +1.66312560e-01 -2.75749236e-01 +1.28672227e-01 +9.00060460e-02 +1.78130969e-01 +7.70369824e-03 +1.97337866e-01 +2.74887741e-01 -1.46402329e-01 -1.25809852e-03 +2.65514642e-01 +1.34728998e-01 -1.26964808e-01 -2.50316650e-01 -2.43135151e-02 -2.76834369e-01 +3.18206728e-01 -2.56115850e-02 +3.14017057e-01 -2.03404739e-01 +2.84411073e-01 -4.61668298e-02 +1.75712556e-01 -1.43059060e-01 -2.31549546e-01 -1.65624455e-01 +1.99546441e-01 -2.04356030e-01 +1.51144415e-01 -2.49747470e-01 -1.66918151e-02 -8.95982385e-02 -1.06465816e-01 -1.75461303e-02 +1.03402391e-01 +2.74241894e-01 -1.87351540e-01 +3.18643451e-01 -2.88719445e-01 -2.19397292e-01 -1.62061617e-01 -3.05865586e-01 -2.91072160e-01 +4.20946553e-02 -3.04408312e-01 +1.96964175e-01 -8.26879516e-02 +2.29787573e-01 -1.84367802e-02 -1.84575006e-01 +1.54269233e-01 +1.56495914e-01 +9.31235328e-02 -2.15527594e-01 -3.69398221e-02 +2.80666441e-01 -1.95373729e-01 -2.17715859e-01 -5.68718165e-02 -2.82013625e-01 -1.46423012e-01 +1.17534146e-01 -1.14928111e-01 +5.47206029e-02 +1.14369519e-01 +1.82085827e-01 -3.23270336e-02 -2.97662795e-01 +1.44537821e-01 -2.59462208e-01 -5.84956110e-02 +2.29309127e-01 +1.60345420e-01 +2.79276013e-01 -1.40491985e-02 -4.44899835e-02 -1.60528809e-01 +3.86677608e-02 -7.95278624e-02 +1.75721690e-01 +1.02398030e-01 +2.00069800e-01 -2.39652932e-01 -1.66394293e-01 +1.76602051e-01 -3.11269253e-01 -1.70447856e-01 -4.74049039e-02 -1.55427292e-01 -1.51893124e-01 +1.38678551e-01 +3.76594588e-02 -2.15613440e-01 -2.59886265e-01 +4.07485217e-02 +2.81713128e-01 +4.18751724e-02 -1.07615672e-01 +1.27281211e-02 +6.04581200e-02 +1.91689730e-01 -9.53843668e-02 +3.12862217e-01 -1.24062859e-01 -3.74577418e-02 +3.98094254e-03 -2.88551420e-01 +2.01329648e-01 -1.27474636e-01 +1.12578377e-01 -2.07219183e-01 -1.03705943e-01 -2.21982509e-01 -3.83787835e-03 -3.16790789e-01 +2.50323653e-01 +5.56084514e-02 -2.63408720e-01 +1.08970560e-01 -3.03790331e-01 +8.80902335e-02 +1.70080826e-01 -2.36294001e-01 +4.63975184e-02 +2.22549915e-01 -2.28618801e-01 +2.84626305e-01 -1.86964869e-01 +1.68977574e-01 -2.52365053e-01 -1.45929888e-01 -9.57024246e-02 +1.40659109e-01 +2.95864403e-01 -2.10761681e-01 +1.57432988e-01 -1.47951424e-01 +1.15743363e-02 +2.94225097e-01 +1.99088559e-01 +1.52249515e-01 +1.62112772e-01 +1.29159048e-01 -2.29862899e-01 +1.23088360e-02 -2.82101154e-01 -2.57865667e-01 -1.54627532e-01 -1.17509246e-01 +1.58584267e-01 -1.60521150e-01 +2.80671865e-01 -5.04380502e-02 -1.56879686e-02 -2.45701522e-01 -2.65103430e-01 -1.47660151e-01 +3.64520326e-02 +2.01319298e-03 -2.60491461e-01 +1.92788586e-01 -1.02826238e-01 -1.67080492e-01 +7.34671056e-02 +3.19606066e-01 +2.18157262e-01 +9.48040932e-02 -2.03917414e-01 +1.08138174e-01 -7.77515471e-02 -3.57186161e-02 +3.04429859e-01 -1.88669026e-01 +1.50289938e-01 +1.27304688e-01 -2.38571912e-01 -7.91730881e-02 -1.95683483e-02 -3.16978306e-01 -2.00343207e-01 -2.52371579e-01 +2.16477349e-01 -7.18018264e-02 -3.18647362e-02 -2.45415375e-01 +3.19767356e-01 -2.53514796e-01 -1.48430392e-01 +7.15263933e-02 +2.66925573e-01 +9.80599970e-02 +1.91564128e-01 +2.96342760e-01 -2.22110257e-01 +1.13449454e-01 +2.50421435e-01 +2.28634119e-01 +1.71214327e-01 -2.27125943e-01 -2.13190943e-01 -3.05148996e-02 -9.29810945e-03 -4.42354903e-02 -5.85344341e-03 +2.88931787e-01 +2.87985057e-02 -2.87628651e-01 +8.32286403e-02 -5.24168499e-02 -3.25778067e-01 -2.14916795e-01 +6.99911341e-02 -1.04210399e-01 +1.56966940e-01 +1.48574989e-02 -8.19688067e-02 -1.50311247e-01 +3.05399418e-01 +2.71760315e-01 -2.63396680e-01 +2.01116562e-01 +2.37004533e-01 -1.04880601e-01 -1.75789390e-02 +2.39437088e-01 -1.13085039e-01 -2.33121756e-02 -2.01091871e-01 +1.81886733e-01 -5.83708584e-02 -2.18204737e-01 +6.41852096e-02 +2.41468605e-02 -2.28275344e-01 +1.36219755e-01 +6.43763095e-02 +1.46425098e-01 -1.52279973e-01 -5.63079864e-02 -7.40626687e-03 -1.04270801e-01 -3.24511491e-02 -2.35337555e-01 -2.54357547e-01 -5.69432378e-02 -1.73737213e-01 -1.41233221e-01 -6.06974699e-02 -2.37408295e-01 +1.19932108e-01 +2.51753181e-02 -3.22027415e-01 +5.17958552e-02 +2.51221538e-01 +5.96765950e-02 -5.81696630e-02 -9.01933163e-02 -3.10989887e-01 +1.00378200e-01 -1.83145981e-02 -3.16940993e-01 -2.00982377e-01 -1.30955487e-01 -1.40526667e-01 +2.60680854e-01 +1.85870692e-01 -2.37375677e-01 -1.80705711e-01 -2.23895863e-01 -2.83174738e-02 +1.38137862e-01 +3.08113813e-01 +1.19443595e-01 -1.91113964e-01 -3.06841582e-01 +7.47890547e-02 -1.92401484e-01 -1.90162240e-03 -2.63642669e-01 -9.74859446e-02 -1.88439935e-01 +2.29802802e-01 -7.85691515e-02 -1.58158317e-01 -7.81887583e-03 -7.34678358e-02 +1.35213271e-01 -3.53988335e-02 -1.43129840e-01 -1.77403659e-01 +4.62956727e-02 -7.57620716e-03 -2.49707997e-01 +1.18682504e-01 +2.31859069e-02 +2.34881446e-01 -1.79873094e-01 -7.31195882e-02 -3.40586901e-02 +1.91044152e-01 +3.16322237e-01 -2.67550766e-01 +5.38630970e-02 +1.19715907e-01 +2.90912628e-01 -4.02262621e-02 -2.79226184e-01 -1.34205865e-02 -2.55275685e-02 -1.84374660e-01 +3.04365218e-01 +2.23367795e-01 +9.28068906e-02 +1.67061478e-01 +1.94239780e-01 -2.52319366e-01 +2.67681360e-01 +9.87420697e-03 +2.96547502e-01 +1.03711747e-01 -2.52422780e-01 +2.54575789e-01 -1.23846591e-01 +2.10568503e-01 -1.77227244e-01 -2.41757855e-01 +2.00659737e-01 -6.66154921e-02 -3.14821213e-01 +1.79340802e-02 -2.31637523e-01 +1.48875102e-01 +1.11322254e-01 +2.15691328e-01 +2.58675337e-01 +1.71178803e-01 -2.82209456e-01 +5.66949174e-02 -2.87619203e-01 +3.05477411e-01 +3.07405829e-01 +2.51512453e-02 -2.32534707e-01 +1.56553805e-01 +3.29718232e-01 +2.52124876e-01 -1.59631640e-01 +1.94520250e-01 +1.48007631e-01 +3.03530991e-02 -1.16325274e-01 +2.83420861e-01 -3.79324742e-02 +3.11403990e-01 -1.23943485e-01 -2.39943296e-01 +7.01149032e-02 -1.29742175e-01 -1.08218528e-01 -2.14285836e-01 -2.98840970e-01 -1.97873995e-01 +1.24671169e-01 +1.54884875e-01 +8.63693878e-02 +3.02375078e-01 +1.83316126e-01 +2.58530051e-01 -1.86514154e-01 -2.34640881e-01 -2.64244646e-01 +2.73342520e-01 -6.47040457e-02 +2.77275205e-01 +7.05788136e-02 +1.20648943e-01 -9.64585468e-02 -3.96145806e-02 +2.39351634e-02 +1.08571269e-01 -1.78000659e-01 +8.97512138e-02 +1.79971352e-01 +8.42137262e-02 -2.52889246e-01 -1.97028220e-01 +1.26694813e-01 -2.17195064e-01 -1.03092670e-01 -1.98401868e-01 -1.82997420e-01 +2.17206001e-01 -2.89032608e-01 -1.83638126e-01 +5.41007407e-02 -7.01317191e-02 +1.85045928e-01 -1.84696585e-01 -1.33488923e-01 -2.03079730e-01 -1.27899200e-02 +3.17423403e-01 +4.94946986e-02 +1.77138243e-02 +2.29284912e-01 +3.02957386e-01 -1.96142361e-01 -7.93344676e-02 -2.57539213e-01 -2.82541037e-01 -2.39532199e-02 -1.73807517e-01 -3.08946997e-01 -1.96182989e-02 +2.23647431e-01 +2.15339899e-01 -1.56904999e-02 +2.28501838e-02 +2.71240503e-01 +8.80034268e-02 +2.25854423e-02 -8.58597830e-02 +2.34092131e-01 -4.00397517e-02 +1.89885385e-02 -2.45491490e-01 +2.97297299e-01 -1.53513283e-01 +5.68272779e-03 -1.28653511e-01 +1.20971993e-01 -2.48413250e-01 +1.38001204e-01 +2.48324871e-01 -5.47822043e-02 +1.04198314e-01 +1.73956066e-01 -2.78344810e-01 +4.44995835e-02 -1.30790323e-02 +1.06849223e-01 -1.81550860e-01 -2.14600861e-01 -7.41046965e-02 -2.01799795e-01 +1.75759208e-03 -2.60346960e-02 +1.18958004e-01 -2.12641835e-01 -7.05401301e-02 -1.87620688e-02 +3.88931558e-02 +2.19188407e-01 -2.81043559e-01 -5.85351884e-02 -2.18810707e-01 -1.40510544e-01 +1.18134342e-01 +4.06848127e-03 +2.40430564e-01 -5.15640751e-02 +7.68879056e-02 +2.51185954e-01 -1.64146587e-01 +2.88926929e-01 -1.51607171e-01 -7.99236670e-02 +2.81655341e-01 +1.13025121e-01 -1.09534144e-01 -1.02744795e-01 -5.77409491e-02 +3.22841555e-01 -1.30558893e-01 +3.03429514e-01 -6.78274259e-02 -3.55704650e-02 +1.13020264e-01 -2.31539965e-01 +7.78430179e-02 -8.25072173e-03 -1.26642296e-02 -3.52700613e-02 +5.32711707e-02 -3.23519051e-01 +7.25841001e-02 -1.62126660e-01 -2.68270046e-01 +2.47913614e-01 -2.57972628e-01 +1.40391633e-01 +9.99587867e-03 -1.11983612e-01 -2.43627116e-01 +3.16031516e-01 +7.64396936e-02 -1.28932260e-02 -5.77253923e-02 -3.18017989e-01 +2.56580979e-01 +1.17613532e-01 -2.25214809e-01 -5.64313568e-02 -1.53969899e-01 -5.19885495e-02 -2.68060684e-01 +1.27500027e-01 +8.35251734e-02 -1.50059879e-01 +1.61149427e-01 +3.08269143e-01 -3.14207256e-01 +3.02573025e-01 -3.17311198e-01 -2.86506768e-02 -2.50086069e-01 -2.13393033e-01 -2.46673554e-01 -1.99445292e-01 +2.09054276e-01 -1.08222254e-01 -3.12597424e-01 +1.74390897e-01 -2.30415449e-01 -2.48176470e-01 +2.34211296e-01 +2.54265606e-01 +2.10671127e-01 +1.94070682e-01 +1.13395743e-01 -1.50559813e-01 -9.38904956e-02 -3.16993743e-01 +6.72169402e-02 -2.09004432e-01 -3.10054831e-02 -2.68062204e-01 -8.14795569e-02 +3.05734187e-01 +3.05195957e-01 -2.28600293e-01 -1.36099085e-01 +1.46626122e-02 +2.53930718e-01 -1.68356150e-01 +3.09858978e-01 -5.22497483e-02 -2.40534514e-01 -2.57184058e-01 +2.12156326e-01 -5.27753979e-02 -1.13700673e-01 -1.66271761e-01 -2.60527223e-01 -2.24044397e-01 -2.81986922e-01 +3.15100998e-01 -3.89114022e-02 -1.96295202e-01 +2.81178385e-01 -2.75521129e-01 -1.18019596e-01 -1.82008326e-01 -2.11842462e-01 +6.65292367e-02 +1.60568412e-02 -7.94019327e-02 -2.08838563e-02 -2.70952433e-01 -2.68378347e-01 -8.94847065e-02 +2.39718437e-01 -1.84300661e-01 +1.10519230e-01 +7.10498821e-03 -2.03200430e-01 -2.61799932e-01 -9.54856202e-02 +1.70685187e-01 -2.32755482e-01 +2.73612469e-01 -1.15137659e-01 -1.90149322e-01 -2.36985385e-01 +2.70921171e-01 +2.58239269e-01 -5.38922893e-03 +1.52842686e-01 +2.42410451e-01 +4.80398424e-02 -5.40525503e-02 +2.25882784e-01 +9.91739631e-02 -2.57799774e-01 +6.52576834e-02 -1.23072617e-01 -1.72509983e-01 +8.38153344e-03 +1.31075040e-01 +6.83090538e-02 -2.87448525e-01 -9.37079415e-02 -1.46927789e-01 +2.29496866e-01 -1.27594784e-01 +3.68413590e-02 +2.11256489e-01 +2.55501240e-01 -1.76615745e-01 +3.12354714e-01 -2.43387848e-01 -1.37514770e-01 -1.79500524e-02 -3.13116878e-01 -1.54594809e-01 -2.97437161e-01 +1.39559269e-01 +1.59611344e-01 -3.95796001e-02 -2.95201033e-01 -2.45263353e-01 -1.10782376e-02 -8.85108784e-02 -5.82229942e-02 -2.87591387e-02 +1.76359728e-01 -2.46736541e-01 -9.42955837e-02 -2.60625202e-02 +2.97717839e-01 -3.18017393e-01 
#Parameter# /b1 {20} 321 ZERO_GRAD
-3.36416572e-01 +4.62250225e-02 -3.15627575e-01 -1.42917395e-01 -2.95583755e-01 +2.80398399e-01 +7.41808787e-02 +3.70901674e-01 +2.95886427e-01 +7.73393735e-03 +8.24026689e-02 -1.70075446e-01 +1.65711537e-01 +3.60299647e-01 -3.74722958e-01 +2.40698487e-01 +8.95123929e-02 -1.27395496e-01 -6.13513030e-02 +8.31098631e-02 
#Parameter# /W2 {20,20} 6401 ZERO_GRAD
-1.08077638e-01 -2.05125034e-01 +2.37770110e-01 -3.29198927e-01 +3.77964824e-01 -3.34218919e-01 +1.04876205e-01 +3.44775468e-01 -2.51501752e-03 +9.87301394e-02 +2.57972658e-01 -1.75465554e-01 -2.32234731e-01 +2.86077499e-01 +1.55146018e-01 +1.67845171e-02 -3.91408950e-02 +3.73294652e-01 -2.67148226e-01 -3.06504667e-01 +3.25288288e-02 +2.01043755e-01 -6.90735653e-02 -3.34186316e-01 -2.94556141e-01 -2.43457600e-01 -2.98424572e-01 +1.10552214e-01 +1.42573401e-01 +3.72159481e-01 -1.79137617e-01 -3.09540629e-01 -2.33511943e-02 +1.05997669e-02 +8.30886588e-02 +2.12731004e-01 +1.40858740e-01 +2.28126615e-01 +2.12318227e-01 +5.66008799e-02 -1.96168900e-01 -1.80635631e-01 -2.88226902e-01 +1.73986658e-01 -2.83827722e-01 +1.89071745e-02 -3.62968862e-01 +1.52506500e-01 -1.73401237e-01 -2.15977430e-01 -1.54672697e-01 +3.13963741e-01 -8.40162933e-02 -2.28514776e-01 -2.09679957e-02 +1.55321077e-01 +1.93565145e-01 -4.50394899e-02 -2.69252777e-01 +3.33578527e-01 -2.53309280e-01 +2.06570879e-01 -1.62085727e-01 +2.26490378e-01 -2.05263212e-01 -2.18089089e-01 +3.43299359e-01 +3.30907494e-01 +6.49156645e-02 +6.99911937e-02 +2.96145499e-01 -1.72815636e-01 -3.44949961e-01 +9.20751505e-03 +3.60597521e-01 +2.64674455e-01 -3.59614581e-01 +2.16474440e-02 +6.23236969e-02 +3.12474370e-01 -4.24484313e-02 +3.41178089e-01 +2.88663417e-01 +1.92146495e-01 +2.81345755e-01 +3.02931935e-01 +7.43208975e-02 +2.50576645e-01 -3.43808345e-02 -3.22834313e-01 -2.69926518e-01 -1.25977680e-01 +3.10351521e-01 -2.21366316e-01 -6.14040159e-02 -2.45603994e-01 +1.20998919e-01 -1.92485765e-01 +1.09407268e-01 +8.81617442e-02 +4.39496525e-02 -3.58721912e-01 +6.06892295e-02 -4.73848172e-02 -3.65906537e-01 +1.99907586e-01 -2.34660119e-01 -2.35827446e-01 -2.71632463e-01 +1.20211862e-01 -2.78641492e-01 -4.41384941e-01 -2.56517053e-01 +1.85473517e-01 +1.76900581e-01 +5.97169213e-02 +8.68849456e-02 -2.13200897e-01 -3.51046294e-01 +1.28864244e-01 +4.49357368e-02 -2.26817191e-01 +9.87091288e-03 -8.57062340e-02 +3.07958484e-01 -2.48504534e-01 -1.65463656e-01 +2.24679261e-01 +1.86721589e-02 +2.75114298e-01 +6.92101344e-02 -1.38012722e-01 -8.62696245e-02 -5.10953628e-02 -4.34443429e-02 -1.49345160e-01 +2.57182866e-01 +2.54964650e-01 -3.00981402e-01 -2.71238983e-01 -2.88529187e-01 -9.86720920e-02 +3.42747360e-01 -3.17400508e-02 +2.12159857e-01 -3.53998005e-01 +1.94065273e-01 +2.60435581e-01 +2.02729657e-01 +2.19586343e-02 +7.17996955e-02 -1.96752802e-01 +3.35885823e-01 -1.47052854e-01 +2.74453729e-01 +1.80906951e-01 -1.36906460e-01 -6.60436451e-02 +3.41789015e-02 +3.83722395e-01 +3.20339084e-01 -2.29229018e-01 +3.68650407e-01 -3.26082915e-01 -1.48469508e-01 -3.01886797e-01 +1.23306297e-01 -2.25851417e-01 +3.71282138e-02 +3.73387903e-01 -2.27028951e-01 +2.15058625e-01 -1.92838550e-01 +1.24210618e-01 +3.03778678e-01 +1.43709809e-01 -8.73363689e-02 -2.80197471e-01 -2.06785694e-01 -1.33965276e-02 +2.58640021e-01 +3.78306508e-01 +7.69867003e-02 -8.18908513e-02 -2.95548946e-01 -3.70887995e-01 -2.35923305e-01 +1.18886530e-01 +8.12703893e-02 -1.61363214e-01 -3.04150045e-01 -8.93081352e-02 -7.39452720e-04 -2.08137453e-01 +3.03016156e-01 -3.66926104e-01 -1.47615656e-01 -3.21619093e-01 -2.56664276e-01 +2.74548084e-01 -2.35475346e-01 -3.68803851e-02 -6.05075806e-02 -3.66557628e-01 -3.31281126e-01 +1.34141952e-01 -1.25476271e-01 -2.33422115e-01 +1.97507739e-02 +2.18253657e-01 -5.87445609e-02 +1.36198401e-01 -3.02169137e-02 -3.84716034e-01 -3.63458008e-01 +5.03147505e-02 +1.05661340e-01 -5.43108620e-02 +3.12232196e-01 -2.87632018e-01 +2.35730410e-01 +7.57628530e-02 -8.40882808e-02 +1.90763727e-01 -7.03698024e-02 -3.64583343e-01 +7.23518655e-02 +2.21219480e-01 +3.35969597e-01 -1.02567054e-01 +1.11294106e-01 +2.89225072e-01 -6.98872805e-02 +1.37968570e-01 +1.64144248e-01 +5.33899628e-02 +3.59263718e-01 -1.44258797e-01 +3.21258247e-01 -5.26317395e-02 +1.70290291e-01 -1.52035370e-01 +8.56915209e-03 -1.44415453e-01 +6.54142871e-02 -7.99641460e-02 +3.22598308e-01 +1.59644499e-01 +2.82513350e-01 +2.71216482e-01 +3.40864360e-01 -3.25497746e-01 +1.35161653e-01 -3.13903064e-01 +1.75175622e-01 -1.69216052e-01 -1.46948025e-01 +1.33195370e-02 +5.23804165e-02 +3.83872837e-01 -2.91971028e-01 -3.59096408e-01 +3.67367744e-01 +1.87123045e-01 +2.23355204e-01 -1.80186480e-01 +3.25629354e-01 +1.31863073e-01 -8.91081467e-02 -1.34542122e-01 -1.00918144e-01 +5.94223961e-02 -1.95021972e-01 +1.05788305e-01 -1.44340321e-01 +1.80694669e-01 -2.19317004e-01 -3.73371035e-01 -2.08355889e-01 +3.38187218e-01 -3.20333689e-01 -1.42738104e-01 +2.72498071e-01 +3.23507696e-01 -3.59125227e-01 +2.29286659e-03 -4.08009559e-01 -2.89229751e-01 -2.02844158e-01 -1.34259472e-02 -1.61695816e-02 -2.18339384e-01 +1.51197523e-01 +1.20104086e-02 -2.26761192e-01 -2.71128207e-01 +1.98782191e-01 -2.59970129e-01 -4.02456634e-02 -1.44600615e-01 +1.15419731e-01 -5.31303436e-02 +4.44726534e-02 -2.71212906e-01 -8.68409500e-02 -2.52242327e-01 +2.08201870e-01 -8.06087181e-02 -6.25330731e-02 -1.70816138e-01 -2.70307750e-01 +3.78109187e-01 +3.64797533e-01 -1.32153898e-01 -3.07525456e-01 +3.26202989e-01 +9.35344771e-02 -2.02926412e-01 +5.73662715e-03 -8.61543417e-02 +2.92544179e-02 -5.96640445e-02 +5.18889055e-02 +3.12757075e-01 -1.32298023e-01 -1.17985848e-02 -3.51753205e-01 +2.75321037e-01 -3.80162179e-01 -3.67161840e-01 +3.08789164e-01 +3.76212537e-01 +2.41405353e-01 -2.27977365e-01 -2.83245474e-01 +7.52136335e-02 +2.04680748e-02 +3.61463487e-01 -2.65735358e-01 +1.76000252e-01 +2.74374694e-01 -2.23719954e-01 +1.62377357e-01 +4.60380092e-02 +1.11973397e-02 -2.18503013e-01 +1.26793534e-01 -2.06755638e-01 +1.59839347e-01 -1.74110338e-01 -2.24683434e-01 +2.49073923e-01 -3.30911428e-01 +3.33003700e-02 -2.85137296e-01 -8.91525522e-02 -2.09955499e-01 +1.90352052e-01 +3.53671499e-02 -2.93231696e-01 -1.81981012e-01 +3.52011114e-01 +2.84838915e-01 +2.35330462e-01 -4.24499772e-02 -1.76856071e-01 -1.06820449e-01 +9.10142586e-02 -2.76585191e-01 -2.76683599e-01 -2.42611244e-01 -2.98699886e-01 +2.67821550e-01 -4.08595979e-01 -1.51014820e-01 +1.09028719e-01 +1.59815773e-01 -2.11334407e-01 -1.97573364e-01 +1.34262711e-01 +3.30144435e-01 +1.09159835e-01 -6.21546879e-02 +2.40749732e-01 +1.63775846e-01 +2.58344084e-01 -3.54577512e-01 +1.86936840e-01 -3.71443629e-01 -1.38401911e-01 +4.69092354e-02 +2.94244438e-02 -3.78121227e-01 -2.88698405e-01 +1.27798751e-01 +3.03480417e-01 +3.28117430e-01 -2.03752980e-01 +2.23861262e-01 -2.14648217e-01 
#Parameter# /b2 {20} 321 ZERO_GRAD
-2.94043988e-01 +2.48171687e-01 -2.69686460e-01 +2.25033648e-02 +5.92526570e-02 +7.89895579e-02 +1.38997152e-01 -2.68611252e-01 -3.23290229e-01 +5.17051332e-02 +5.58482111e-02 +3.10016304e-01 -2.15549484e-01 -2.94089317e-01 -9.32517126e-02 +1.14916809e-01 -1.01288997e-01 +1.03692994e-01 -4.11961675e-02 +4.36730199e-02 
#Parameter# /W3 {20,20} 6401 ZERO_GRAD
+1.36718437e-01 -1.30554348e-01 +2.14956522e-01 -3.68444860e-01 +5.86850308e-02 +1.38179526e-01 -1.76314965e-01 -9.43653882e-02 -3.83737743e-01 -2.63697982e-01 +2.18676537e-01 -1.30597532e-01 +5.58120273e-02 +2.65479416e-01 +1.35753125e-01 +3.16537678e-01 -5.80120012e-02 +1.44584598e-02 +3.83284003e-01 -2.72110730e-01 -2.17755839e-01 +1.41327903e-01 -1.86933324e-01 +8.18110723e-03 +3.50490928e-01 +3.24325055e-01 -3.43256950e-01 -1.53110772e-01 -2.85122812e-01 +3.03464442e-01 +1.87471375e-01 +5.99470958e-02 +9.34137255e-02 -1.61781028e-01 -1.61400497e-01 -1.94990751e-03 -5.00228554e-02 +9.74673778e-02 +3.06556880e-01 -1.37185335e-01 -2.02459604e-01 +6.21782010e-03 -8.60434398e-03 -2.93563634e-01 -8.22957829e-02 -2.27886364e-01 +1.08345181e-01 -3.97566438e-01 -1.48840815e-01 +2.33507797e-01 -2.07608834e-01 +2.70386666e-01 -1.78356096e-01 +5.49840555e-02 -2.34012768e-01 +1.14903286e-01 +1.14830025e-01 +3.16205829e-01 -3.13482791e-01 +4.14044768e-01 -9.72783267e-02 -2.95775414e-01 +1.18385725e-01 -6.98272884e-02 -3.56619120e-01 +2.93155700e-01 -3.51939909e-02 -2.34279096e-01 +1.07526913e-01 +4.61117104e-02 -1.48128867e-01 +2.96341419e-01 +2.83268780e-01 -2.00346243e-02 +2.29756474e-01 +2.47010708e-01 -2.66126245e-01 -1.51269883e-01 +2.22446620e-01 -7.69855306e-02 -2.66835596e-02 +3.68120402e-01 -1.24555454e-01 +3.15827549e-01 -2.91014105e-01 +3.47236454e-01 -1.28330246e-01 -2.76902705e-01 -1.42585367e-01 -1.53787762e-01 +9.97648239e-02 +6.83888271e-02 +2.48828322e-01 +3.76135528e-01 +6.19243234e-02 +3.78579825e-01 +3.21502447e-01 +2.48524457e-01 -1.24342814e-01 +8.02093744e-02 +3.67500126e-01 +1.91223517e-01 -2.73645431e-01 -1.49304777e-01 +1.16517343e-01 +3.86569239e-02 -3.19022872e-03 +1.02177769e-01 +3.05817068e-01 -7.92891532e-03 -4.81524412e-03 +2.29088396e-01 +9.34694037e-02 -9.23833176e-02 -9.35002044e-03 -1.00525655e-01 +3.57249707e-01 +1.35131568e-01 +1.61354139e-01 +8.05237815e-02 +1.96858067e-02 +7.26610515e-03 -1.65185481e-01 -2.92104334e-01 +3.07522446e-01 +3.75704199e-01 +1.71651825e-01 +3.80143613e-01 +9.19642225e-02 -3.27343434e-01 +2.47792333e-01 -1.28580302e-01 +3.69824290e-01 -3.83534849e-01 -1.82229578e-02 -3.31837326e-01 +3.02905172e-01 +7.61360377e-02 -1.00858808e-02 +2.80304372e-01 +2.21084710e-02 -3.49115819e-01 -3.20448607e-01 -4.69588526e-02 -1.33540751e-02 -2.97373403e-02 +2.31550232e-01 -5.25092632e-02 +1.55581817e-01 -3.75621587e-01 -3.13472062e-01 +2.17255861e-01 +1.22509763e-01 -2.89442927e-01 +2.52143860e-01 -1.27810717e-01 -1.54678389e-01 -3.26016665e-01 +2.26384178e-01 -1.06236286e-01 +1.27702028e-01 -1.23213865e-01 +3.79065007e-01 +2.25438446e-01 +2.37480938e-01 -2.11022392e-01 -8.14838782e-02 +7.50408471e-02 -1.72783419e-01 +2.08055228e-01 +9.42148864e-02 +1.52173504e-01 -2.36708939e-01 +7.15453699e-02 +2.90941954e-01 -3.42428714e-01 -3.79113019e-01 -2.05918238e-01 +2.81223170e-02 +1.60245568e-01 -2.43922457e-01 -2.48575196e-01 -2.54697472e-01 +2.71866530e-01 +7.05964863e-02 +2.54665732e-01 -6.98937774e-02 -1.58201531e-01 -1.20419608e-02 -1.57133192e-01 +3.24721068e-01 +7.57840946e-02 -1.61365092e-01 +5.65586351e-02 +1.54643312e-01 +1.78978190e-01 -1.26704210e-02 -3.31942946e-01 +9.46740732e-02 +9.00726691e-02 -2.49140024e-01 +2.30974779e-02 -3.43302518e-01 -1.79884002e-01 +2.41433717e-02 +3.26908797e-01 +7.62974918e-02 -5.25413454e-03 +2.77015120e-01 +2.23284543e-01 +1.38162643e-01 +2.01836117e-02 -1.36791572e-01 -2.92516798e-01 -1.18547648e-01 +2.45136619e-01 +1.71094760e-01 -5.05137928e-02 -2.87729114e-01 -2.37245515e-01 -9.38348547e-02 +3.37074131e-01 -1.30724862e-01 -3.60965431e-01 -7.63074383e-02 -2.01915935e-01 -6.45206347e-02 +3.75064433e-01 +9.86876637e-02 +9.17423368e-02 +9.86863151e-02 -2.17326313e-01 -4.02985923e-02 -3.64426851e-01 +1.73191339e-01 +2.12004781e-01 +2.20827594e-01 -2.70782739e-01 +2.59225279e-01 +3.42821807e-01 -6.90849870e-02 -2.14002475e-01 -3.77110183e-01 +1.81866974e-01 +9.59835425e-02 -1.68102816e-01 +2.81949043e-01 +2.53873467e-01 -1.18976071e-01 -1.65580645e-01 -2.47132406e-01 -1.33647816e-03 -5.68599738e-02 +3.43176454e-01 -3.14758778e-01 -2.27446005e-01 -2.13628989e-02 +3.05753529e-01 +3.36492777e-01 +2.56063193e-01 -2.69084930e-01 -4.97531965e-02 -1.87937766e-01 -1.18464105e-01 +3.53389680e-02 +3.96527722e-03 -1.13833293e-01 +2.72893339e-01 +2.52098113e-01 -4.89506982e-02 -3.12103957e-01 -3.67104948e-01 +1.19894937e-01 +3.60691488e-01 +2.78186947e-01 -1.07062280e-01 -2.25327939e-01 -1.90737516e-01 +3.38207573e-01 -3.86236668e-01 +1.39444366e-01 -7.98825920e-03 -7.96924010e-02 +4.17844020e-02 -1.23133808e-01 +2.73928732e-01 +1.59079820e-01 +2.00080931e-01 -3.04327965e-01 +3.06348145e-01 +3.33185583e-01 +3.21844399e-01 -2.12963726e-02 +8.70597661e-02 -3.18876296e-01 -2.61579156e-01 +1.34698331e-01 +1.97968185e-01 +2.73799866e-01 -1.24880508e-01 +3.08699399e-01 -2.09814921e-01 -9.84689817e-02 -1.24306232e-01 +2.71562099e-01 +2.73389012e-01 -8.19262490e-02 -5.89054339e-02 +2.38480747e-01 -4.20718677e-02 -3.48428518e-01 -7.81925917e-02 -3.22183758e-01 -2.80868679e-01 -1.92741960e-01 -3.44391316e-01 -2.30162725e-01 -2.28744686e-01 -2.84256488e-01 +2.98806429e-01 +1.56122833e-01 +3.16744298e-01 -3.81221861e-01 -3.85944754e-01 -2.51826555e-01 -3.88025105e-01 +2.21879303e-01 +1.34722248e-01 -2.73989350e-01 -2.24858373e-01 +1.31653130e-01 +3.63257587e-01 -1.98456168e-01 -3.01095337e-01 +2.16748223e-01 -4.10354167e-01 +1.06571428e-01 -3.74723017e-01 -2.96150297e-01 -2.90652603e-01 -1.90431818e-01 +1.13377668e-01 +9.00148079e-02 -3.82675588e-01 +2.40694016e-01 -1.75030053e-01 +2.61967611e-02 +2.97528386e-01 -3.70396912e-01 -1.82419762e-01 -1.26823723e-01 +3.05075914e-01 -3.66487354e-01 +3.76404166e-01 -6.00561015e-02 -2.71204740e-01 +3.00099701e-01 -5.41511700e-02 +1.02234110e-02 -1.01790735e-02 +2.30822042e-01 +1.33913219e-01 +3.49777825e-02 -3.05660874e-01 +3.10066491e-01 -2.16619223e-01 +1.28370151e-03 -2.63132185e-01 -1.77870512e-01 +1.20786959e-02 +2.03788057e-01 -3.01236480e-01 +2.81777680e-01 -1.64315343e-01 -3.76791149e-01 -8.85820687e-02 -3.04610729e-01 -2.19153956e-01 -3.77452612e-01 +3.00967872e-01 -1.49389401e-01 +1.28704265e-01 -3.79131496e-01 -3.83346796e-01 -3.44567955e-01 -2.69986480e-01 +9.35008302e-02 +5.26397750e-02 -1.34163454e-01 -3.79171968e-01 +3.59366760e-02 -5.08461185e-02 -4.21244279e-02 -3.16892803e-01 +1.40854254e-01 +3.76190811e-01 +1.37948737e-01 -2.82269120e-01 -3.84518623e-01 -1.59434289e-01 
#Parameter# /b3 {20} 321 ZERO_GRAD
+1.23544872e-01 -3.64861608e-01 -2.18564749e-01 +1.20017648e-01 -7.67482668e-02 +1.26512107e-02 +2.04087615e-01 +2.85319537e-01 -1.22137472e-01 -6.57267123e-03 -3.66083868e-02 -1.57555431e-01 +7.26197660e-02 +2.30644584e-01 -2.66201407e-01 +4.59257029e-02 -3.22018683e-01 +1.09547213e-01 +3.58644314e-02 -2.70240635e-01 
#Parameter# /W4 {20,20} 6401 ZERO_GRAD
+1.43163994e-01 -4.47916985e-02 +2.71321803e-01 +2.28762403e-01 +2.53241062e-01 +1.74786627e-01 +2.48412430e-01 +4.84716222e-02 +2.77586102e-01 -2.46665120e-01 +2.81987548e-01 +3.78736079e-01 +2.37620696e-01 +2.98044562e-01 +2.36782789e-01 -9.79689807e-02 -3.25806558e-01 +3.26834023e-01 +1.17726594e-01 +1.60605848e-01 +3.60417336e-01 -3.78989756e-01 +2.75286943e-01 -2.32823610e-01 -2.00147748e-01 +1.92449942e-01 +1.04431808e-01 +2.97751337e-01 +1.43112302e-01 -1.03080735e-01 +1.95534259e-01 +2.28636742e-01 +8.32770690e-02 -2.51540244e-01 -3.62697154e-01 +3.69806767e-01 -8.08646679e-02 -3.54366839e-01 -3.02126557e-01 +3.35734129e-01 +2.72344321e-01 -3.68366688e-01 +3.12628090e-01 -1.80664241e-01 +3.41702640e-01 -3.22804861e-02 -3.41987669e-01 +1.28340758e-02 -3.58063936e-01 +1.83355212e-01 +1.03025064e-01 +1.32044807e-01 +2.03721195e-01 +1.61871687e-01 -1.55928880e-01 +2.32951984e-01 +3.84807557e-01 -2.16622368e-01 -2.86882609e-01 +2.18136404e-02 -3.54096681e-01 -2.75648832e-01 +3.68136019e-01 +3.11845273e-01 +2.86276010e-03 -4.90650237e-02 -1.72648758e-01 +2.77245671e-01 +1.14767276e-01 -2.74847336e-02 -8.92482996e-02 -2.28768483e-01 +2.10850928e-02 -3.13077867e-01 +2.64871657e-01 -6.81182966e-02 -9.33526158e-02 +3.46540093e-01 -2.58702397e-01 -3.76154900e-01 +9.35709327e-02 +1.74234644e-01 -1.28286853e-01 +1.14749826e-01 -1.86860412e-01 +2.45145336e-01 +2.77928293e-01 +7.45307058e-02 +4.27720807e-02 -2.71672159e-01 -3.80918174e-03 +8.46511126e-02 -3.14634174e-01 +2.14897200e-01 +5.08856438e-02 +1.58875454e-02 +3.44363041e-02 +2.22950578e-01 +1.07109547e-02 -3.34423274e-01 -1.05516672e-01 +2.86445886e-01 -2.25664929e-01 -3.82313460e-01 -1.43903583e-01 -2.28657842e-01 +9.85797420e-02 -9.71568525e-02 +5.24291880e-02 -2.78645247e-01 -2.24341154e-01 -2.66907830e-02 -9.29588750e-02 +1.89976588e-01 +1.80517919e-02 -2.10089698e-01 +5.49157523e-03 -2.11764470e-01 +3.74608964e-01 +3.36743653e-01 +6.24350272e-02 +2.96461936e-02 -3.93932968e-01 -9.69158933e-02 +2.01188773e-01 +2.09011942e-01 -1.55141354e-01 +8.91763493e-02 -3.12302798e-01 +2.96724707e-01 -3.51679415e-01 +1.48606181e-01 +3.72473313e-03 -1.59896225e-01 -1.04062870e-01 -8.42167884e-02 -2.24555179e-01 -1.20853662e-01 +1.91407084e-01 +1.27478257e-01 +3.19705665e-01 -2.22027004e-02 +1.76547945e-01 -2.81743079e-01 +1.55552670e-01 -2.56833225e-01 -2.06925888e-02 +1.58709332e-01 -2.39959210e-01 -2.77909517e-01 +2.88259625e-01 -2.05949306e-01 +3.11785668e-01 +2.78163910e-01 -6.40075803e-02 +2.93776917e-04 +2.59416193e-01 +1.74539015e-01 -2.79031605e-01 -3.80985826e-01 +1.93995312e-01 +8.30765814e-02 -1.91610664e-01 +2.34429955e-01 +9.45228785e-02 +3.16448241e-01 -3.30257088e-01 +1.93909690e-01 -2.14274138e-01 +1.28619447e-01 +1.48176312e-01 +3.57946932e-01 -8.94233286e-02 -2.16831341e-01 +3.88151892e-02 +2.41839468e-01 +3.82713795e-01 +2.09023684e-01 +3.02031994e-01 -3.66964936e-01 -1.08622894e-01 +1.58325389e-01 -1.16254225e-01 -1.57942399e-01 +1.23549715e-01 -2.08473831e-01 -2.97118396e-01 -9.66308787e-02 +3.28500062e-01 +3.61041278e-01 -2.49813586e-01 -8.96820500e-02 -1.86931521e-01 -2.03552201e-01 +9.57633629e-02 +2.09055975e-01 +1.37933552e-01 +6.21641017e-02 -1.69984296e-01 +3.74044895e-01 +1.38306851e-02 +1.75645165e-02 +2.11099178e-01 +3.31824362e-01 -1.25157699e-01 -1.84882164e-01 -2.90126383e-01 -3.33632231e-01 -3.40596557e-01 +1.78271338e-01 -4.38673794e-02 +1.16751835e-01 +7.45627563e-03 +1.87949445e-02 -2.43556708e-01 -2.07860634e-01 +5.99059183e-03 -2.98706114e-01 +2.06144657e-02 -1.34414330e-01 -3.73408377e-01 -1.00972220e-01 +8.00708383e-02 +1.57840401e-01 +1.34761781e-01 +1.14968970e-01 +2.85142452e-01 +3.22015345e-01 -2.88434237e-01 +4.02516663e-01 -4.43498939e-02 +1.05161024e-02 +1.20365016e-01 +3.42001729e-02 -1.99133039e-01 -4.12952989e-01 -2.01033309e-01 -9.49651524e-02 -5.96997654e-03 +1.74559757e-01 -2.19511494e-01 -3.59129459e-01 -3.74525428e-01 -1.73441723e-01 +3.46719921e-01 +1.59044370e-01 -6.61393702e-02 -2.41266772e-01 +1.59789592e-01 -2.54488200e-01 +5.22996299e-02 -1.78393558e-01 +5.81911430e-02 +1.67272333e-02 -3.23236227e-01 -1.74668610e-01 -6.54024705e-02 +3.44019860e-01 +2.04477273e-02 -2.42638126e-01 +1.06291704e-01 +1.42131463e-01 -7.08728284e-02 +3.36372107e-01 -1.24432348e-01 +9.12359059e-02 -2.71845967e-01 -3.63120019e-01 +1.64855734e-01 +2.08640084e-01 -2.89295614e-01 -2.32000142e-01 +3.45431753e-02 +7.18047023e-02 +1.31096601e-01 -2.51716316e-01 +1.74398199e-02 -3.35060120e-01 -5.31719215e-02 +9.58688408e-02 -1.07112460e-01 -2.07995787e-01 -2.12711781e-01 -8.28725053e-04 -2.30799720e-01 +2.88948029e-01 -3.91781509e-01 +9.60759819e-02 -1.77342847e-01 +3.89571860e-02 +9.57264099e-03 +1.69877306e-01 +7.31438547e-02 +1.42104805e-01 +1.76287666e-01 +1.26153693e-01 -1.45987242e-01 +1.61142752e-01 -1.25971153e-01 -3.74706447e-01 -1.49543449e-01 -2.31903344e-01 +2.05486473e-02 +2.41496295e-01 +1.57022551e-01 -3.57483834e-01 -8.28497335e-02 +3.50326985e-01 +1.54957369e-01 -4.59816353e-03 -1.75415710e-01 -2.71410525e-01 -3.81081313e-01 -2.07273439e-01 +8.05690363e-02 -1.64263844e-01 +1.95331454e-01 -2.88850486e-01 -2.78993994e-01 +3.38328928e-01 -6.83210716e-02 +2.07497194e-01 -2.29688715e-02 +5.86657263e-02 -3.51408452e-01 +2.09456146e-01 +6.16586581e-02 -1.73016980e-01 +9.89016742e-02 -8.47496837e-02 -2.74076164e-01 -2.70018458e-01 +2.64267147e-01 -1.18413620e-01 +2.59437829e-01 -2.35882588e-03 +1.09599456e-01 +2.73302257e-01 -2.50357121e-01 +3.24553072e-01 -2.48243183e-01 -2.23290384e-01 -1.01967692e-01 -3.27296913e-01 +6.87175319e-02 -8.40843916e-02 +3.23808968e-01 +1.05578870e-01 -2.17551216e-01 -1.76193848e-01 -2.08144218e-01 -6.35737926e-02 +8.25597122e-02 -2.29551777e-01 -2.86077917e-01 +3.85439485e-01 -6.51762784e-02 +3.26781601e-01 -9.80618410e-04 -6.81502651e-03 -3.02447975e-01 +8.03333446e-02 -9.99891609e-02 +9.18204635e-02 +2.91821122e-01 +1.19923018e-02 +1.83079138e-01 -1.66272134e-01 +4.87222709e-02 -3.74231428e-01 +1.39886335e-01 -3.54429394e-01 -2.74789810e-01 -2.80389547e-01 -2.62391031e-01 +2.86564857e-01 +2.02397302e-01 -7.68990964e-02 +1.96543410e-01 +3.13300639e-02 +4.17276956e-02 +9.91486683e-02 +2.06741169e-01 -2.06404597e-01 -3.15006375e-01 -3.80417317e-01 +7.27618709e-02 -1.66705668e-01 -3.74305457e-01 +2.57587463e-01 +2.52994388e-01 -3.00640583e-01 -2.03557968e-01 -2.40993217e-01 -3.63112718e-01 -2.03475375e-02 -3.07661653e-01 -2.47906387e-01 -2.05055907e-01 -8.54518563e-02 
#Parameter# /b4 {20} 321 ZERO_GRAD
-2.58646727e-01 -3.63682479e-01 -1.67691767e-01 -3.60636711e-01 -3.21871042e-01 +1.51550159e-01 -3.60576838e-01 +4.02154982e-01 +4.59538773e-02 -1.12479009e-01 -1.38236079e-02 +2.03401484e-02 +2.07375512e-01 -3.11491527e-02 +1.39697313e-01 -5.30874217e-03 -3.79912525e-01 +3.61750305e-01 -2.63112426e-01 -2.80999124e-01 
#Parameter# /W5 {20,20} 6401 ZERO_GRAD
-3.39813024e-01 +2.75384754e-01 -3.31494749e-01 +9.07811001e-02 +8.31934810e-03 -1.84588417e-01 -2.88739920e-01 -2.27732643e-01 +1.68968707e-01 +3.16884756e-01 -3.14074636e-01 +4.96687219e-02 -3.84387188e-03 -1.31273150e-01 +5.87341897e-02 -8.47308189e-02 +2.21209824e-01 -3.43151808e-01 -3.40923786e-01 +4.56992798e-02 -6.05246834e-02 -2.28998233e-02 -1.42778635e-01 +6.54793680e-02 -1.48955360e-01 +6.24239556e-02 -2.61787355e-01 +2.43627116e-01 -1.35499358e-01 -3.40645343e-01 +1.84550598e-01 -9.07836035e-02 -3.88362408e-01 +5.62913343e-02 -1.68997929e-01 -2.44408831e-01 -1.96646348e-01 +2.40640908e-01 +3.42190713e-01 -3.62352520e-01 -2.15968221e-01 -1.27217576e-01 -2.62894154e-01 -6.68432191e-02 -5.43349497e-02 +2.96496332e-01 -2.74780959e-01 -2.50801623e-01 -2.62123823e-01 +2.09960341e-01 -2.88106084e-01 +3.27051543e-02 -4.06083882e-01 +3.27852257e-02 +2.87197232e-01 +2.82175124e-01 +1.71516657e-01 -2.96604276e-01 -3.88509989e-01 -2.85353035e-01 -3.37051094e-01 +3.70103210e-01 -2.98104882e-01 -1.85068414e-01 +2.05077574e-01 +2.52295226e-01 -1.35788277e-01 +9.68890712e-02 +2.86540508e-01 -2.49951854e-01 -8.23877305e-02 -3.29030424e-01 +1.34499505e-01 -3.00842017e-01 +8.27565342e-02 -1.60065249e-01 -9.32780355e-02 +1.83484182e-02 +2.18490601e-01 -3.38682055e-01 -1.67425007e-01 +2.17532873e-01 +3.17533463e-02 +5.35060242e-02 -3.43264759e-01 +3.43383282e-01 +1.65334251e-02 -1.83496505e-01 +3.29493918e-02 -1.97523143e-02 +2.45720953e-01 -2.30328694e-01 +1.93888977e-01 +7.78152868e-02 -5.08708693e-02 -2.75433064e-01 +1.19811147e-01 +3.01911887e-02 +1.46451592e-01 -1.37400255e-01 +3.94554347e-01 -3.38707924e-01 -1.72158390e-01 +1.41681775e-01 -2.38153756e-01 -1.83729768e-01 -1.49013311e-01 -1.75707772e-01 +7.71601051e-02 +2.26864398e-01 -3.84692699e-02 -2.63432980e-01 +2.29533896e-01 -1.45519897e-01 -3.68392467e-01 -3.22613060e-01 -1.03896558e-01 +2.84446441e-02 +1.83045253e-01 +1.07658505e-01 +3.09035569e-01 -2.83997953e-01 +1.77399129e-01 +1.97961211e-01 -3.94961424e-02 -1.17691029e-02 +1.17082790e-01 +2.75061846e-01 +3.50955337e-01 -3.86072993e-01 -3.59725535e-01 -3.41157526e-01 +3.08301836e-01 +2.03348041e-01 +2.20693082e-01 +3.14419977e-02 -1.37663409e-01 -1.73263863e-01 +3.11326593e-01 +3.08015823e-01 +6.13261722e-02 -5.31468801e-02 -1.50713280e-01 +3.29698265e-01 -1.65523235e-02 +8.65013972e-02 +1.71829566e-01 +2.93643564e-01 -2.70666331e-01 +2.86147767e-03 -1.93907410e-01 +2.58177429e-01 -2.65394360e-01 -2.91396052e-01 -2.61438727e-01 -3.21069658e-01 -1.58682000e-02 +9.22862440e-02 +3.54503207e-02 -3.67590338e-01 -3.31910849e-01 -2.43379280e-01 +3.10005635e-01 -3.13455373e-01 +3.69875759e-01 -7.44488649e-03 +3.98429036e-02 -2.19852492e-01 -1.33150533e-01 -1.71177611e-01 +1.19406143e-02 +1.28778458e-01 -1.30910024e-01 -2.22569541e-03 +4.35499921e-02 -3.28119211e-02 -3.75324607e-01 -3.11606228e-02 -1.57029420e-01 -1.09570868e-01 +3.30539495e-01 -3.03886116e-01 +3.24127585e-01 +4.52420920e-01 -3.15324515e-02 -3.01270723e-01 +2.27610976e-01 +2.70919323e-01 +1.11906268e-01 +2.12947249e-01 -2.00602308e-01 +2.25680456e-01 -2.84939289e-01 -1.96483657e-01 -7.14159757e-02 +2.16740072e-01 -1.52627081e-01 +1.43603340e-01 +3.74225616e-01 +1.06427230e-01 +1.64337471e-01 +5.95556572e-02 +2.36782804e-01 +2.07132787e-01 -5.28653115e-02 +8.66354480e-02 +1.33274660e-01 -2.42371663e-01 -3.14012080e-01 +2.58611321e-01 +7.12839141e-02 +3.62025976e-01 -2.25583445e-02 +9.85968113e-02 -1.86480731e-01 +7.26900250e-02 +3.47041339e-02 +2.90109485e-01 -1.21155623e-02 +1.38818622e-01 -2.26912707e-01 +1.34778693e-01 -1.26979332e-02 -1.22138418e-01 +1.55284062e-01 -3.14261407e-01 +2.34336540e-01 +2.60615677e-01 -3.62612796e-03 -4.31868248e-02 -2.93744658e-03 -3.11644971e-01 -2.98679590e-01 +3.73979621e-02 +3.80274206e-02 +2.65723616e-01 +2.76802272e-01 -1.52663976e-01 -2.54556119e-01 +6.73108324e-02 +3.60157877e-01 -1.21515900e-01 +1.53318837e-01 -2.33632401e-01 -1.38135180e-01 +1.53556570e-01 +3.53474945e-01 +2.76070148e-01 +1.74272195e-01 -4.03359473e-01 -4.83648069e-02 -8.86602607e-03 +1.43289179e-01 +7.92898387e-02 -3.15351069e-01 +2.15945020e-01 +1.70722306e-01 -1.08590841e-01 +2.00951189e-01 -1.91441119e-01 -1.24486379e-01 -1.82963237e-01 +2.39605531e-01 -3.91195863e-02 -1.32993907e-01 -2.79540241e-01 -3.14627796e-01 +1.22482814e-01 +2.62943059e-01 +2.30365649e-01 +3.72507274e-01 +2.15777814e-01 +3.08638543e-01 -3.00653577e-01 -2.86853611e-01 -1.22420959e-01 +1.98752716e-01 -2.83746749e-01 -3.80237550e-01 -3.39323282e-01 +2.48288468e-01 +2.44839668e-01 +1.43577963e-01 +6.15576506e-02 +9.70957428e-02 -2.83472180e-01 -3.05803567e-01 -2.63337374e-01 -6.56087995e-02 +1.95549607e-01 -1.86709806e-01 +1.95139766e-01 -2.85308450e-01 +3.64237845e-01 -2.70169437e-01 +8.42335746e-02 +2.14784935e-01 +1.21381901e-01 -2.20607296e-01 +1.83604836e-01 -9.88409817e-02 +3.00222874e-01 -7.13378713e-02 +1.20321639e-01 -3.57589334e-01 +1.51953429e-01 +1.96094915e-01 -1.45709617e-02 -2.92113185e-01 -2.61420637e-01 +3.50917131e-01 +1.20563924e-01 +6.94118813e-02 +7.41802827e-02 -1.74748838e-01 -7.09475949e-03 -2.10436761e-01 -3.16164643e-01 +2.40509212e-01 +3.70898932e-01 -2.10600153e-01 -3.11515871e-02 -4.94979806e-02 -3.20483685e-01 +4.04416909e-03 -3.92238051e-02 -4.46416959e-02 -2.78036952e-01 +2.63507903e-01 -2.49295086e-01 -4.02996480e-01 +1.59596524e-03 -3.38386977e-03 -3.19768451e-02 -1.47887617e-01 -9.38884318e-02 +7.35988393e-02 -3.55544388e-01 +2.20164478e-01 +3.74135137e-01 -1.27319783e-01 +3.49678576e-01 +3.46195698e-01 +8.66255909e-02 +2.50183702e-01 +2.09622681e-01 -1.54183567e-01 +4.01700474e-02 +5.56643382e-02 +2.90974379e-01 -2.19326079e-01 -2.02397004e-01 -7.78205991e-02 +3.19117069e-01 +9.43997577e-02 +2.33312532e-01 +3.80640328e-01 +3.49111915e-01 +2.32354775e-01 +2.55392849e-01 -3.07734489e-01 -1.81057826e-01 +2.77852416e-02 -3.33595902e-01 +6.72950596e-02 -3.11831713e-01 +2.75711000e-01 -1.46497011e-01 +9.07902718e-02 -3.29376519e-01 +8.92982334e-02 +3.07227939e-01 -3.54229778e-01 +1.55939490e-01 -8.00478831e-02 +1.18657276e-01 -2.93652296e-01 +3.42963278e-01 +1.99593604e-01 -2.19506755e-01 -8.21258947e-02 -1.67008817e-01 +3.56544286e-01 +4.01608706e-01 +8.70847255e-02 +9.56384763e-02 +9.55921486e-02 -3.02134842e-01 -2.33051792e-01 -3.63791913e-01 +9.58693847e-02 -3.07226837e-01 +2.14402210e-02 -3.27450365e-01 -3.09368386e-03 +1.49126485e-01 -3.11371088e-01 +3.42252940e-01 +4.17393386e-01 +3.66320461e-01 
#Parameter# /b5 {20} 321 ZERO_GRAD
+1.81781054e-01 -1.69010878e-01 +1.65091202e-01 +1.52125228e-02 -1.78030655e-02 +3.26717526e-01 +1.49918851e-02 +3.28403324e-01 +1.35674566e-01 +1.92076415e-01 +1.09379850e-01 +2.02074692e-01 -1.32369161e-01 +1.95460156e-01 -2.67963767e-01 +1.26421258e-01 -9.64292437e-02 +2.10334271e-01 -3.24064523e-01 +7.81915709e-02 
#Parameter# /W6 {20,20} 6401 ZERO_GRAD
-8.75249058e-02 +1.47451177e-01 +7.76028112e-02 -1.68610603e-01 +3.71801198e-01 +6.64021000e-02 +1.65616170e-01 -1.55182823e-03 -2.67404288e-01 -5.59278131e-02 -2.27897272e-01 -3.84028852e-01 -3.93071681e-01 +1.50073841e-01 -9.32905152e-02 -2.69900024e-01 +3.40874866e-02 -1.99548826e-02 -3.47188443e-01 -3.22334200e-01 +1.51169002e-01 +3.67865443e-01 +3.22498888e-01 -3.39310430e-03 +2.74437398e-01 +2.91495621e-01 -2.81183273e-01 -3.37289413e-03 +1.64348438e-01 -3.84870023e-01 +2.74442106e-01 -3.03139240e-01 +3.14530343e-01 +2.95880660e-02 -1.92803189e-01 +1.35487095e-01 -9.66683477e-02 -7.86898956e-02 +3.42611849e-01 +1.96184307e-01 -2.11156979e-01 -9.87322256e-02 +5.54150790e-02 +2.93768704e-01 +6.28277734e-02 -2.04766512e-01 -1.11011632e-01 -2.17597768e-01 +1.09594077e-01 -7.92112574e-03 -3.10970396e-01 -6.42590672e-02 -3.92792523e-01 -1.64028689e-01 +1.23768570e-02 +1.65070891e-01 -1.86180681e-01 -2.04088278e-02 +3.23659815e-02 -3.70782912e-01 +3.14491354e-02 -3.64333063e-01 +1.25218838e-01 -1.56416431e-01 -3.45397264e-01 -2.69865930e-01 -2.65533388e-01 -7.88373202e-02 +2.58835405e-01 -1.51674509e-01 -1.28470361e-01 +2.07331747e-01 +6.74176961e-02 -2.62715757e-01 -3.68735939e-01 -2.10572071e-02 -4.39318597e-01 -1.27200827e-01 -3.09522245e-02 -2.83157498e-01 -2.42916137e-01 +3.68140578e-01 +3.53755593e-01 +1.75095931e-01 -3.30560029e-01 +3.20004135e-01 -3.08880538e-01 -3.62431526e-01 -1.74462482e-01 +1.77305683e-01 -2.16808707e-01 -3.74691665e-01 -3.55586320e-01 +1.89711288e-01 +6.32127523e-02 +1.88245893e-01 +1.93239152e-01 +2.08707511e-01 -4.25616205e-02 -1.28504988e-02 +4.46238667e-02 -3.72661680e-01 -5.22435736e-03 -1.80250481e-01 -3.36481184e-01 -2.57726938e-01 -1.16989166e-01 +9.46809351e-03 +1.30505145e-01 +2.83952337e-02 -1.09285101e-01 +6.78884313e-02 +1.08073458e-01 +1.63308084e-01 -3.39526907e-02 -2.69671381e-01 -2.14536563e-01 +1.10867612e-01 -9.34876278e-02 +3.71048093e-01 -3.08583677e-01 -1.92149088e-01 -1.93758532e-02 +2.10431889e-01 +2.16565475e-01 +1.86178580e-01 -5.12944646e-02 -3.01232755e-01 +1.80087108e-02 -1.08745366e-01 -2.77125180e-01 -2.32842356e-01 -2.44591549e-01 -2.14685097e-01 -8.99565034e-03 +1.89787015e-01 -2.21514314e-01 +2.49307901e-01 +2.64291584e-01 +1.50963470e-01 +2.20338136e-01 +6.67430833e-02 -2.98637331e-01 -2.46403486e-01 -2.36625180e-01 -2.88841635e-01 +3.44799608e-01 -5.00442311e-02 -2.36538067e-01 -3.01652193e-01 +1.84119135e-01 -3.02262843e-01 +1.56861961e-01 -3.76395974e-03 -1.37173057e-01 -2.36095220e-01 -6.14771619e-02 -2.65254378e-01 +3.79659414e-01 -8.92937556e-02 +5.02468199e-02 +2.64841110e-01 -2.26503368e-02 -8.89303982e-02 +1.81680411e-01 +2.53166586e-01 +2.08556905e-01 +2.27985427e-01 -3.18164855e-01 +1.81792498e-01 -3.70986521e-01 +1.08439140e-01 +4.59605791e-02 -6.13156110e-02 -1.07186221e-01 -1.65773690e-01 -2.75278717e-01 -7.81663135e-02 +3.19678694e-01 -2.85226852e-01 -3.24553102e-01 -1.69085503e-01 +2.01549903e-01 -3.83169323e-01 -6.64678663e-02 -1.87410712e-01 -3.77117097e-01 +2.46726736e-01 +2.55726516e-01 -1.30040601e-01 +1.71632066e-01 +2.62149811e-01 +5.41006327e-02 +2.98774838e-01 -1.10467233e-01 -1.36209741e-01 +1.52286828e-01 -2.94544071e-01 -1.56081498e-01 +1.71605155e-01 +3.01599175e-01 +1.39147893e-01 +2.80356526e-01 +1.95472896e-01 +3.35819989e-01 -4.50276025e-02 -3.13973486e-01 -3.00874114e-01 +1.87639162e-01 -2.38425732e-01 +3.59292448e-01 -1.68336973e-01 -5.22471592e-02 -3.24277103e-01 +1.29716277e-01 +3.25156718e-01 -2.62930542e-02 -9.86371636e-02 +2.17613339e-01 -5.26020229e-02 +3.06874335e-01 +1.29365116e-01 -3.79976600e-01 -3.16597402e-01 -1.29597038e-01 +1.24766082e-01 +1.95141599e-01 +1.45838797e-01 +2.12506890e-01 -1.55958697e-01 -7.47427717e-02 -4.80723269e-02 -4.90931459e-02 -2.67215837e-02 +2.30214640e-01 +3.15192312e-01 +5.68333678e-02 -2.52280682e-01 -3.79252017e-01 +3.03733587e-01 -3.55361909e-01 +1.89099431e-01 +1.88083306e-01 -3.47311236e-02 +1.24742582e-01 -1.76139414e-01 +2.23501146e-01 -3.29874635e-01 -2.85396874e-01 -2.86106110e-01 -5.73602766e-02 +2.59927005e-01 -5.60529493e-02 +1.90627337e-01 +1.43509090e-01 -3.37555021e-01 +2.62860894e-01 +9.26276296e-02 +3.39251369e-01 +2.18363494e-01 +3.27168107e-01 -3.00258547e-01 +1.79735541e-01 -1.61758661e-01 -3.07370067e-01 +2.15151459e-01 +8.65046382e-02 -1.38630822e-01 +9.38038155e-02 -3.18160027e-01 -4.25493121e-02 -2.25778118e-01 +2.69439191e-01 +2.59400904e-01 +3.24894816e-01 +7.50850067e-02 -1.10717393e-01 -1.17381997e-01 -3.32502693e-01 +3.75891805e-01 +1.65571660e-01 -1.70110479e-01 -3.69709164e-01 +2.11913660e-02 +3.19266677e-01 -2.30236217e-01 +8.94439220e-02 -2.15690792e-01 +1.24690548e-01 -2.58352369e-01 -1.94367152e-02 +1.28124226e-02 -2.78235018e-01 +2.66594321e-01 +1.13247380e-01 +2.38261804e-01 +2.24453226e-01 -7.44768307e-02 +2.34593078e-01 -2.45538801e-01 +1.88439935e-01 -1.12120271e-01 -1.39109537e-01 +2.68452704e-01 -2.19137862e-01 -3.65356535e-01 +1.61616981e-01 -3.68976474e-01 -4.67841402e-02 +2.32638776e-01 -3.32320929e-01 -2.06606552e-01 -2.57731229e-02 -3.77200186e-01 +2.15706408e-01 +2.30216533e-01 +2.82544911e-01 -1.64621651e-01 -3.76725376e-01 +3.38102192e-01 -2.88999677e-01 -3.05032227e-02 +2.67797112e-01 +3.21886659e-01 -3.26124787e-01 +1.03837475e-01 -2.91055143e-01 +8.40660259e-02 +3.81545842e-01 +3.47781405e-02 +2.20598117e-01 +7.31588528e-02 -3.54805917e-01 -3.61836255e-01 -2.80655205e-01 -2.12326631e-01 -3.32471967e-01 +5.69079667e-02 -3.27479124e-01 -3.24459195e-01 -2.68592596e-01 -2.88403258e-02 -3.87420446e-01 -3.95075351e-01 -3.37449968e-01 +2.52399862e-01 +1.81680232e-01 -6.04267232e-04 -4.43920881e-01 +2.44121671e-01 -9.28489268e-02 -2.16784701e-01 +1.10508233e-01 +3.56472075e-01 +1.10612728e-01 -1.64406285e-01 +1.72888994e-01 -8.09212681e-03 -2.74685174e-01 -4.31258269e-02 +2.78072953e-02 -6.73659369e-02 -1.95159972e-01 +1.14186570e-01 +8.60930793e-03 -2.29489163e-01 -2.78872281e-01 -1.59418166e-01 +9.72662568e-02 +4.20283228e-02 -2.99729645e-01 +2.51178414e-01 -3.29985648e-01 -3.29883367e-01 -3.14695626e-01 -1.73805952e-01 -3.72258365e-01 +5.40880337e-02 -2.61081785e-01 -9.04118493e-02 +2.26368532e-01 -3.26402098e-01 +4.63659018e-02 -1.39841631e-01 -5.92733361e-02 +1.46993354e-01 +3.39263886e-01 +2.27042004e-01 -3.24699670e-01 -2.35204831e-01 -1.93534028e-02 +3.10837835e-01 +1.57268271e-02 +3.36034119e-01 -6.81129321e-02 +4.94337501e-03 -4.22885939e-02 +1.87052071e-01 -1.78868338e-01 +1.66473627e-01 
#Parameter# /b6 {20} 321 ZERO_GRAD
+1.28028467e-02 -8.57761800e-02 +6.15131333e-02 +8.63770097e-02 -3.33024532e-01 +1.53770447e-01 -3.32719535e-01 -3.33201617e-01 -2.37823188e-01 -2.92521119e-02 -1.69394478e-01 +8.32846090e-02 +1.11298680e-01 -1.26277342e-01 +1.28186792e-01 +6.25068396e-02 +6.60667643e-02 -2.62716115e-01 +6.69800490e-02 +2.50551384e-02 
#Parameter# /W7 {20,20} 6401 ZERO_GRAD
-1.00509115e-01 +1.69813812e-01 -1.84539109e-02 -8.81805569e-02 -3.59208822e-01 +1.71227008e-01 -2.79805452e-01 +1.60527781e-01 +2.76030377e-02 -3.30335796e-02 +3.88106436e-01 +2.18560860e-01 +1.29578680e-01 +1.45121261e-01 -2.20940456e-01 +1.83086276e-01 +2.99070239e-01 +2.93111354e-01 -3.24126452e-01 -3.25544029e-01 -2.72364438e-01 +2.96251774e-01 -1.46230280e-01 +3.68615061e-01 +1.88270494e-01 -1.56976506e-01 +1.45243213e-01 -2.64995217e-01 -2.77019113e-01 -1.98134273e-01 -2.52794594e-01 +2.14892313e-01 -1.37156412e-01 +3.42902660e-01 +1.27090648e-01 +2.50952125e-01 +2.52434343e-01 +1.23860739e-01 +2.79746279e-02 +1.34301797e-01 +2.95815498e-01 +8.36509988e-02 +1.01784676e-01 -1.78525925e-01 -2.51640618e-01 +3.53237391e-01 -1.28217693e-02 +4.05183807e-02 -2.12281629e-01 -2.50436179e-02 -1.13996053e-02 +1.11478470e-01 +9.85795781e-02 +1.46484822e-01 +2.93022335e-01 +1.14745587e-01 -2.48086631e-01 +5.95914535e-02 -2.75542825e-01 +3.34797204e-01 +3.18733603e-02 -2.46276334e-01 -6.59127813e-03 +3.59112114e-01 -1.20529726e-01 -1.99706241e-01 +3.16476822e-01 -6.60582855e-02 -2.54240334e-01 -1.21708907e-01 +3.16512406e-01 +1.44385234e-01 +1.01985112e-02 -7.20157921e-02 -1.88473165e-01 -1.31851241e-01 -1.53440326e-01 +2.38961771e-01 +3.08150202e-01 +2.39732355e-01 +3.08404148e-01 -3.31568956e-01 +3.50442976e-01 -3.09869289e-01 -1.57249674e-01 +1.37605980e-01 -2.71743178e-01 -1.83239996e-01 +1.52743682e-01 +1.88949198e-01 -2.15489388e-01 -1.23244882e-01 -1.83890574e-02 -1.49812669e-01 -1.52785048e-01 -1.83340043e-01 -3.38229649e-02 -2.63821006e-01 -3.57997537e-01 +1.25034362e-01 +3.01662058e-01 -1.47323489e-01 -2.20100326e-03 +2.63515431e-02 +1.52552500e-01 -9.37863290e-02 -1.38719693e-01 +2.52522558e-01 +1.67642117e-01 -3.74564767e-01 -2.97678202e-01 +2.89781004e-01 -2.22898163e-02 +1.16634749e-01 -3.12624037e-01 -2.11705402e-01 -2.86521435e-01 +2.60931134e-01 -5.33802062e-02 +2.43744403e-01 +2.22961619e-01 -7.80250728e-02 +2.65198767e-01 +1.52283594e-01 +9.08569321e-02 +3.56645018e-01 +2.79320359e-01 -2.64128029e-01 +3.10946971e-01 +3.67046118e-01 -1.73618793e-02 +1.01901844e-01 +3.81507844e-01 +2.17779368e-01 +3.45733851e-01 -3.58922035e-01 -1.06279910e-01 +3.23818684e-01 -3.03329885e-01 +3.40214193e-01 -1.24431744e-01 +9.98869985e-02 -4.20380048e-02 +2.87876576e-01 -5.28462045e-02 -3.64373535e-01 +2.76328802e-01 +7.27068558e-02 +2.00748384e-01 +3.38724077e-01 -2.77368993e-01 -7.28718564e-02 -1.80083185e-01 +3.18254441e-01 +1.76215231e-01 +2.77810037e-01 +3.68399948e-01 +1.58984601e-01 +2.76625097e-01 -7.13137686e-02 +4.62338440e-02 +5.93113042e-02 +3.34554732e-01 +1.41090453e-01 -3.33439738e-01 +5.08797467e-02 +2.45974183e-01 -2.11206257e-01 +1.69691548e-01 +2.20110729e-01 -9.61603746e-02 +1.31923333e-01 -1.05622690e-02 -2.27095976e-01 -1.41614884e-01 +1.43652603e-01 -3.46911773e-02 -2.65338182e-01 +1.24005534e-01 -2.31450632e-01 -2.33612999e-01 -3.74684930e-01 -2.85475045e-01 +7.59631693e-02 +2.41239429e-01 +1.62663743e-01 +1.28357515e-01 -3.26583028e-01 -2.57582605e-01 -1.20085634e-01 -2.48172671e-01 +3.41458887e-01 -3.61231059e-01 -2.00212523e-01 +2.60690749e-01 +2.08506733e-01 +7.06519932e-02 -1.08186983e-01 -3.55198294e-01 +3.04461747e-01 +3.38554941e-02 +1.49586841e-01 +9.26946700e-02 -6.00897074e-02 -1.30847350e-01 +2.62914687e-01 -9.94956121e-02 -2.94146657e-01 +1.41688973e-01 -3.52157168e-02 -2.31623411e-01 -8.79083201e-02 +1.15064055e-01 +1.70873597e-01 +3.19210023e-01 -1.21338382e-01 +1.73168719e-01 -2.81094592e-02 -3.01540673e-01 -1.30033642e-01 +3.29268575e-01 -1.97264984e-01 -5.40341362e-02 -2.44603589e-01 +2.77413994e-01 -3.21087241e-01 -2.89877027e-01 +7.40303174e-02 +1.03877738e-01 -2.68289506e-01 +7.21253529e-02 +2.30080649e-01 +2.48660997e-01 +2.78841078e-01 +2.50330448e-01 -2.39965186e-01 -2.54074246e-01 -1.59655623e-02 +3.65713298e-01 +2.04400897e-01 -3.28013361e-01 -6.35777190e-02 +5.60317077e-02 +1.63780734e-01 +8.59873742e-02 +3.11235548e-03 -2.20275238e-01 -3.95351201e-01 -2.80330449e-01 -1.16583414e-01 -3.77305210e-01 +1.08839318e-01 -1.82493344e-01 -2.46340275e-01 +1.90401405e-01 -2.96394855e-01 +3.23960394e-01 +2.51719262e-02 -1.65790811e-01 +1.32430181e-01 -3.03892829e-02 -3.68713699e-02 -3.30472469e-01 -1.26371399e-01 -2.20257550e-01 +1.80392966e-01 -2.00476930e-01 -7.45414644e-02 +2.04426855e-01 +2.88768653e-02 +1.57601967e-01 -1.83139369e-01 +2.82536834e-01 +1.45853370e-01 +3.84105295e-01 +2.96070397e-01 -2.99743384e-01 -3.18473697e-01 -1.30527020e-01 -8.81202444e-02 -1.00883894e-01 -1.86919764e-01 +2.22219080e-01 +3.62675756e-01 +3.12453002e-01 +1.16741881e-01 +2.12456375e-01 +1.10505737e-01 -3.59853774e-01 -1.43447297e-03 +3.05014759e-01 +2.83845812e-01 -2.81455427e-01 +1.53926894e-01 -3.22087079e-01 +8.11690174e-04 +3.79467547e-01 -1.66723162e-01 +1.48843572e-01 -3.09809446e-01 +1.43148184e-01 +3.51014018e-01 -1.64958686e-01 -1.35967031e-01 +3.26251477e-01 +2.20270112e-01 +5.14828116e-02 -2.71951646e-01 -3.19659591e-01 +2.21862376e-01 -3.91290113e-02 +1.95713371e-01 +3.15835059e-01 -3.17315251e-01 +1.34171406e-02 -7.39525780e-02 +1.90822750e-01 -3.88893276e-03 -3.15916359e-01 +3.51053774e-02 +1.47201449e-01 -3.11013937e-01 +2.88227588e-01 -1.71026409e-01 +1.55927375e-01 -2.48920098e-01 +3.80525619e-01 -3.90633056e-03 -1.64678052e-01 -1.75285891e-01 +3.32008034e-01 -1.02301180e-01 -2.10713625e-01 -1.22667044e-01 -2.29094341e-01 -3.40939127e-02 -2.52076447e-01 +2.85336763e-01 +1.05858222e-02 +1.94860727e-01 -1.78256050e-01 -1.65042847e-01 -5.69558609e-03 -1.66903108e-01 +1.74129650e-01 +2.99631894e-01 -8.51818770e-02 -3.19490045e-01 +1.60408691e-01 -1.75994933e-01 -7.41227120e-02 +4.09746990e-02 -1.08500635e-02 +1.93014115e-01 -1.86666369e-01 +2.42684662e-01 +2.05868796e-01 +1.00659318e-01 -8.22027996e-02 +2.34627292e-01 +1.87532142e-01 -2.21145645e-01 -1.57399461e-01 -1.07750528e-01 -3.76458317e-01 -1.17960572e-01 +3.30915265e-02 +3.28020334e-01 +3.01424921e-01 +2.02730566e-01 -3.52644652e-01 +1.89615339e-01 +2.09516566e-02 +3.11516762e-01 -4.70377840e-02 +6.34881407e-02 -8.94226413e-03 -2.64251954e-03 -3.42416644e-01 +3.71719040e-02 -3.40389460e-02 +2.94748127e-01 +3.41206491e-02 +1.59910731e-02 +1.73116878e-01 -1.91132978e-01 -5.37977219e-02 -1.57878578e-01 +1.80636451e-01 +3.41580153e-01 -6.49347082e-02 -2.70310014e-01 -2.12891266e-01 -1.75576836e-01 -6.62156194e-02 -2.59216487e-01 +1.43822014e-01 +9.76346731e-02 -3.29704821e-01 -1.30427465e-01 
#Parameter# /b7 {20} 321 ZERO_GRAD
-1.01531623e-03 +2.54046679e-01 +1.68248504e-01 +1.32790655e-01 -1.14439121e-02 +7.27360025e-02 -2.95969397e-02 +8.20740461e-02 -8.68080407e-02 +8.59921947e-02 -1.61804646e-01 +2.76441813e-01 -8.94067064e-02 +2.94712543e-01 +7.24501312e-02 -2.81900633e-02 +2.59678990e-01 -2.55350143e-01 +3.29208106e-01 +1.52535379e-01 
#Parameter# /W8 {6,20} 1921 ZERO_GRAD
+3.56967002e-01 -3.67848307e-01 -2.39305757e-02 +3.48167539e-01 -1.84481665e-01 +1.46388799e-01 -4.36654270e-01 +4.55476493e-02 +1.79069955e-02 -8.03026464e-03 +1.93470627e-01 -3.38679820e-01 +4.48681116e-02 -1.53229967e-01 -3.24235260e-01 +1.63691506e-01 -1.61928516e-02 +2.95790225e-01 -2.63383627e-01 +4.23150241e-01 +1.33244112e-01 -1.78167567e-01 -1.94304541e-01 -3.52900118e-01 -6.90755174e-02 -2.38398328e-01 +3.28615755e-01 +1.34101380e-02 -4.51010227e-01 +7.27992356e-02 -9.87649038e-02 +2.71369338e-01 +2.49739051e-01 +2.16427576e-02 +5.28937876e-02 -2.05690823e-02 +5.93188852e-02 -1.06327645e-02 +8.94891545e-02 +3.04458261e-01 +4.36268151e-01 -4.20309037e-01 +3.96953404e-01 -1.61949456e-01 +3.29411685e-01 -1.10811681e-01 +1.18756585e-01 -3.34607661e-01 +3.65691423e-01 -1.04212686e-01 -1.87644914e-01 +1.95937783e-01 +2.71664143e-01 +1.76948979e-01 +6.29154295e-02 +1.56610366e-02 +1.11965343e-01 -2.11596712e-01 -2.06422731e-01 +2.48455837e-01 +3.28459918e-01 -3.57233316e-01 -1.73219085e-01 -1.73998743e-01 -5.75663801e-03 +7.88362399e-02 -5.17986238e-01 +3.18675965e-01 +2.10551530e-01 -2.96555966e-01 -3.00583512e-01 -1.06462464e-01 -4.46959049e-01 -3.27600283e-03 +2.73781009e-02 +8.38117003e-02 +3.28782827e-01 -4.69023287e-01 -4.50579494e-01 +2.13550881e-01 +1.22049404e-02 -2.02858210e-01 -4.35433090e-01 -1.26839176e-01 +5.57735302e-02 -3.34367961e-01 -4.29884523e-01 -3.97419035e-01 +9.98119861e-02 +3.45888376e-01 -4.52583134e-02 -2.73638219e-01 +1.28345251e-01 -2.84287989e-01 -4.15009528e-01 -4.43471260e-02 -9.82281044e-02 +4.73443627e-01 +5.91062615e-03 +6.95994124e-02 -2.42544144e-01 -2.37919077e-01 +1.41309217e-01 -3.36027332e-02 -1.10261012e-02 -2.90793210e-01 +8.56714614e-04 +4.64495599e-01 -1.10362858e-01 +4.35886115e-01 -1.30172461e-01 -1.40751988e-01 -8.05239193e-03 -3.24145347e-01 +2.12156370e-01 -1.65418163e-01 -4.19934511e-01 +4.69819233e-02 -2.34493002e-01 +1.28605217e-01 
#Parameter# /b8 {6} 97 ZERO_GRAD
+4.11070108e-01 -3.95860583e-01 +4.68170345e-02 +2.29430869e-01 +2.97742367e-01 +2.65876323e-01 
